{"weights": [-0.008974951766460142, -3.065560125182757e-05, 2.4188493191829037e-05, 0.0, 0.0, 2.810155665330752e-05, 0.0, -6.635810442913003e-05, 9.636200722289923e-06, -2.259416676417728e-05, 1.4689864574155455e-05, -5.000709427615317e-05, 4.270715967784431e-05, 2.230613498707674e-05, -6.225183198589799e-05, -3.9047638547790016e-05, -2.175242764188295e-05, -2.97175141032186e-05, 1.1219401099639427e-05, 3.9965491728185704e-05, 1.3861375697716591e-05, -9.604271015270024e-05, 1.8252963703086608e-05, 7.212393517278372e-05, 5.615249472128068e-05, -5.894846574371522e-05, 6.272095885336949e-05, 5.162634171779269e-05, 3.951074023550191e-05, -3.2016369267865986e-05, 4.818227203768917e-05, -3.3130629771797946e-05, -3.154449892209294e-05, 3.0842664300875004e-05, -1.6999750442911776e-05, -3.926393630762903e-05, -4.960551084790721e-05, 2.6945026169395173e-05, 2.7502057603097112e-05, -6.249285033692049e-06, -7.617418081490797e-06, 4.480637766104344e-05, 8.336385188125285e-06, -2.5426452511317646e-05, 7.429100194034139e-05, 1.204514585366191e-05, 9.902440141301166e-05], "mean": [0.41617606602475926, 182879.6677303989, 1.0, 0.0, 0.29474552957359007, 0.0, 2.195378266850069, 43.962816145034544, 5.982285163917989, 0.33226960110041265, 0.3868500687757909, 0.6607427785419532, 0.16775790921595599, 0.08302613480055021, 0.0002751031636863824, 0.5153232462173315, 0.2736176066024759, 0.03878954607977992, 0.01045392022008253, 0.6760385144429161, 0.7030536451169188, 0.05436038514442916, 0.12693259972489684, 0.03983493810178817, 0.8961760660247593, 0.03185694635488308, 0.007152682255845942, 0.013425034387895461, 0.04709766162310867, 0.015240715268225584, 0.016616231086657496, 0.09958734525447042, 0.06145804676753783, 0.0024759284731774417, 0.03950481430536451, 0.0016506189821182944, 0.4787895460797799, 0.004511691884456671, 0.08627235213204952, 0.03394773039889959, 0.009298486932599725, 0.0017056396148555709, 0.09072902338376891, 0.004291609353507565, 0.01656121045392022, 0.003576341127922971], "std": [0.6878407263552675, 81917.71667113516, 0.0001, 0.0001, 0.45592829739990254, 0.0001, 0.8629533102926263, 11.33090534512972, 5.757593963549533, 0.47102709400307885, 0.4870288523937331, 0.47345725165701347, 0.37365117838894474, 0.275921738434345, 0.01658425403615466, 0.49976515297223656, 0.4458150086746841, 0.19309305320157055, 0.10170863174831664, 0.4679855248111113, 0.456912712894632, 0.2267274656308284, 0.33289746897802625, 0.19557128063244583, 0.3050320224323104, 0.1756191655936936, 0.08427058438383378, 0.11508611054153878, 0.21184778000428472, 0.12250896239189384, 0.12782856469166934, 0.2994490205688396, 0.24016861838103862, 0.04969716542593904, 0.19479269481185169, 0.0405943892563266, 0.499549924076161, 0.06701750906141171, 0.28076581592076544, 0.18109470450475137, 0.0959793471188672, 0.04126427520700935, 0.28722339337107694, 0.06536972879448447, 0.12762032268499085, 0.059695568613253855], "feature_names": ["bias", "bias", "CNT_CHILDREN", "AMT_INCOME_TOTAL", "FLAG_MOBIL", "FLAG_WORK_PHONE", "FLAG_PHONE", "FLAG_EMAIL", "CNT_FAM_MEMBERS", "AGE", "YEARS_EMPLOYED", "CODE_GENDER_M", "FLAG_OWN_CAR_Y", "FLAG_OWN_REALTY_Y", "NAME_INCOME_TYPE_Pensioner", "NAME_INCOME_TYPE_State servant", "NAME_INCOME_TYPE_Student", "NAME_INCOME_TYPE_Working", "NAME_EDUCATION_TYPE_Higher education", "NAME_EDUCATION_TYPE_Incomplete higher", "NAME_EDUCATION_TYPE_Lower secondary", "NAME_EDUCATION_TYPE_Secondary / secondary special", "NAME_FAMILY_STATUS_Married", "NAME_FAMILY_STATUS_Separated", "NAME_FAMILY_STATUS_Single / not married", "NAME_FAMILY_STATUS_Widow", "NAME_HOUSING_TYPE_House / apartment", "NAME_HOUSING_TYPE_Municipal apartment", "NAME_HOUSING_TYPE_Office apartment", "NAME_HOUSING_TYPE_Rented apartment", "NAME_HOUSING_TYPE_With parents", "OCCUPATION_TYPE_Cleaning staff", "OCCUPATION_TYPE_Cooking staff", "OCCUPATION_TYPE_Core staff", "OCCUPATION_TYPE_Drivers", "OCCUPATION_TYPE_HR staff", "OCCUPATION_TYPE_High skill tech staff", "OCCUPATION_TYPE_IT staff", "OCCUPATION_TYPE_Laborers", "OCCUPATION_TYPE_Low-skill Laborers", "OCCUPATION_TYPE_Managers", "OCCUPATION_TYPE_Medicine staff", "OCCUPATION_TYPE_Private service staff", "OCCUPATION_TYPE_Realty agents", "OCCUPATION_TYPE_Sales staff", "OCCUPATION_TYPE_Secretaries", "OCCUPATION_TYPE_Security staff", "OCCUPATION_TYPE_Waiters/barmen staff"], "best_params": {"C": 0.1, "lr": 0.001, "n_iters": 10}, "numeric_cols": ["CNT_CHILDREN", "AMT_INCOME_TOTAL", "FLAG_MOBIL", "FLAG_WORK_PHONE", "FLAG_PHONE", "FLAG_EMAIL", "CNT_FAM_MEMBERS", "AGE", "YEARS_EMPLOYED"], "cat_cols": ["CODE_GENDER", "FLAG_OWN_CAR", "FLAG_OWN_REALTY", "NAME_INCOME_TYPE", "NAME_EDUCATION_TYPE", "NAME_FAMILY_STATUS", "NAME_HOUSING_TYPE", "OCCUPATION_TYPE"], "X_test": [[1.0, 3.029515197532739, -0.5844848913772273, 0.0, 0.0, -0.6464734285072543, 0.0, 2.67062158017383, -0.848936212796449, -0.5012121281807989, -0.7054150500697965, -0.7943062651718347, -1.3955700883859625, -0.4489693032396428, -0.3009046524266739, -0.016588214524852377, 0.9698090210975429, -0.6137469606864169, 4.977964965507117, -0.10278301890788685, -1.4445714206989186, 0.6498973359744525, -0.23976091733386232, -0.38129637967681684, -0.20368500923534597, -2.937973721180797, -0.18139789155237307, 11.781659341793041, -0.11665208186047678, -0.222318410049688, -0.12440490043064825, -0.12998840381832422, 3.006897978945087, -0.2558954087416691, -0.049820315745516354, -0.2028043933758492, -0.04066125916307626, -0.9584418353485407, -0.0673210918705195, -0.3072751283810004, -0.18745843779219346, -0.09688008109790391, -0.04133453468645543, -0.31588312608838226, -0.06565132566175902, -0.129769382379629, -0.059909658472185774], [1.0, 0.8487777934708937, 0.5141785438026347, 0.0, 0.0, -0.6464734285072543, 0.0, -0.2264065326823029, -0.038278184064761356, 0.8597259654706298, -0.7054150500697965, -0.7943062651718347, 0.7165530156539135, -0.4489693032396428, 3.323311423023822, -0.016588214524852377, -1.0311308084458606, -0.6137469606864169, -0.20088524903735075, -0.10278301890788685, 0.6922468076076531, -1.5387044949196873, -0.23976091733386232, 2.6226315356357732, -0.20368500923534597, 0.3403706048543813, -0.18139789155237307, -0.08487756799296732, -0.11665208186047678, -0.222318410049688, -0.12440490043064825, -0.12998840381832422, -0.3325686123978373, -0.2558954087416691, -0.049820315745516354, -0.2028043933758492, -0.04066125916307626, 1.0433600903535654, -0.0673210918705195, -0.3072751283810004, -0.18745843779219346, -0.09688008109790391, -0.04133453468645543, -0.31588312608838226, -0.06565132566175902, -0.129769382379629, -0.059909658472185774], [1.0, 0.8487777934708937, -1.6831483265570892, 0.0, 0.0, -0.6464734285072543, 0.0, 0.9324047124601502, -0.594503156386772, -0.993375275256001, -0.7054150500697965, -0.7943062651718347, -1.3955700883859625, -0.4489693032396428, -0.3009046524266739, -0.016588214524852377, 0.9698090210975429, -0.6137469606864169, -0.20088524903735075, -0.10278301890788685, 0.6922468076076531, 0.6498973359744525, -0.23976091733386232, -0.38129637967681684, -0.20368500923534597, 0.3403706048543813, -0.18139789155237307, -0.08487756799296732, -0.11665208186047678, -0.222318410049688, -0.12440490043064825, -0.12998840381832422, 3.006897978945087, -0.2558954087416691, -0.049820315745516354, -0.2028043933758492, -0.04066125916307626, -0.9584418353485407, -0.0673210918705195, -0.3072751283810004, -0.18745843779219346, -0.09688008109790391, -0.04133453468645543, -0.31588312608838226, -0.06565132566175902, -0.129769382379629, -0.059909658472185774], [1.0, -0.6050471425703364, -0.03515317378729629, 0.0, 0.0, -0.6464734285072543, 0.0, -0.2264065326823029, 0.9925018906205972, 2.0827632739512287, -0.7054150500697965, 1.2589601790748008, 0.7165530156539135, -0.4489693032396428, -0.3009046524266739, -0.016588214524852377, -1.0311308084458606, 1.629335888795913, -0.20088524903735075, -0.10278301890788685, -1.4445714206989186, 0.6498973359744525, -0.23976091733386232, -0.38129637967681684, -0.20368500923534597, 0.3403706048543813, -0.18139789155237307, -0.08487756799296732, -0.11665208186047678, -0.222318410049688, -0.12440490043064825, -0.12998840381832422, 3.006897978945087, -0.2558954087416691, -0.049820315745516354, -0.2028043933758492, -0.04066125916307626, -0.9584418353485407, -0.0673210918705195, -0.3072751283810004, -0.18745843779219346, -0.09688008109790391, -0.04133453468645543, -0.31588312608838226, -0.06565132566175902, -0.129769382379629, -0.059909658472185774], [1.0, -0.6050471425703364, 0.2395126850076692, 0.0, 0.0, -0.6464734285072543, 0.0, -0.2264065326823029, 0.34180082612747215, -1.0390251903470342, -0.7054150500697965, -0.7943062651718347, -1.3955700883859625, 2.227323608003554, -0.3009046524266739, -0.016588214524852377, -1.0311308084458606, -0.6137469606864169, -0.20088524903735075, -0.10278301890788685, 0.6922468076076531, 0.6498973359744525, -0.23976091733386232, -0.38129637967681684, -0.20368500923534597, -2.937973721180797, 5.51274145035502, -0.08487756799296732, -0.11665208186047678, -0.222318410049688, -0.12440490043064825, -0.12998840381832422, -0.3325686123978373, -0.2558954087416691, -0.049820315745516354, -0.2028043933758492, -0.04066125916307626, 1.0433600903535654, -0.0673210918705195, -0.3072751283810004, -0.18745843779219346, -0.09688008109790391, -0.04133453468645543, -0.31588312608838226, -0.06565132566175902, -0.129769382379629, -0.059909658472185774], [1.0, 0.8487777934708937, -0.5844848913772273, 0.0, 0.0, -0.6464734285072543, 0.0, 0.9324047124601502, -1.2270822083151052, 0.6267211905268141, -0.7054150500697965, -0.7943062651718347, 0.7165530156539135, -0.4489693032396428, -0.3009046524266739, -0.016588214524852377, -1.0311308084458606, 1.629335888795913, -0.20088524903735075, -0.10278301890788685, -1.4445714206989186, 0.6498973359744525, -0.23976091733386232, -0.38129637967681684, -0.20368500923534597, 0.3403706048543813, -0.18139789155237307, -0.08487756799296732, -0.11665208186047678, -0.222318410049688, -0.12440490043064825, -0.12998840381832422, 3.006897978945087, -0.2558954087416691, -0.049820315745516354, -0.2028043933758492, -0.04066125916307626, -0.9584418353485407, -0.0673210918705195, -0.3072751283810004, -0.18745843779219346, -0.09688008109790391, -0.04133453468645543, -0.31588312608838226, -0.06565132566175902, -0.129769382379629, -0.059909658472185774], [1.0, -0.6050471425703364, -0.3098190325822618, 0.0, 0.0, 1.5468539120041043, 0.0, -0.2264065326823029, 1.077312909423823, 0.03802749383203132, 1.4176050749539744, 1.2589601790748008, -1.3955700883859625, -0.4489693032396428, -0.3009046524266739, -0.016588214524852377, 0.9698090210975429, 1.629335888795913, -0.20088524903735075, -0.10278301890788685, -1.4445714206989186, 0.6498973359744525, -0.23976091733386232, -0.38129637967681684, -0.20368500923534597, 0.3403706048543813, -0.18139789155237307, -0.08487756799296732, -0.11665208186047678, -0.222318410049688, -0.12440490043064825, -0.12998840381832422, -0.3325686123978373, -0.2558954087416691, -0.049820315745516354, -0.2028043933758492, -0.04066125916307626, 1.0433600903535654, -0.0673210918705195, -0.3072751283810004, -0.18745843779219346, -0.09688008109790391, -0.04133453468645543, -0.31588312608838226, -0.06565132566175902, -0.129769382379629, -0.059909658472185774], [1.0, -0.6050471425703364, -0.5844848913772273, 0.0, 0.0, -0.6464734285072543, 0.0, -1.385217777824756, -1.697046400828706, -0.7194757847098016, 1.4176050749539744, 1.2589601790748008, -1.3955700883859625, -0.4489693032396428, -0.3009046524266739, -0.016588214524852377, 0.9698090210975429, -0.6137469606864169, 4.977964965507117, -0.10278301890788685, -1.4445714206989186, -1.5387044949196873, -0.23976091733386232, 2.6226315356357732, -0.20368500923534597, -2.937973721180797, -0.18139789155237307, -0.08487756799296732, -0.11665208186047678, 4.498052036974937, -0.12440490043064825, -0.12998840381832422, -0.3325686123978373, -0.2558954087416691, -0.049820315745516354, -0.2028043933758492, -0.04066125916307626, 1.0433600903535654, -0.0673210918705195, -0.3072751283810004, -0.18745843779219346, -0.09688008109790391, -0.04133453468645543, -0.31588312608838226, -0.06565132566175902, -0.129769382379629, -0.059909658472185774], [1.0, 2.302602729512124, -0.47461854785924107, 0.0, 0.0, -0.6464734285072543, 0.0, 2.091215957602603, 0.22799458722057986, 1.3404766337730736, -0.7054150500697965, -0.7943062651718347, -1.3955700883859625, -0.4489693032396428, -0.3009046524266739, -0.016588214524852377, 0.9698090210975429, -0.6137469606864169, -0.20088524903735075, -0.10278301890788685, 0.6922468076076531, 0.6498973359744525, -0.23976091733386232, -0.38129637967681684, -0.20368500923534597, 0.3403706048543813, -0.18139789155237307, -0.08487756799296732, -0.11665208186047678, -0.222318410049688, -0.12440490043064825, -0.12998840381832422, -0.3325686123978373, -0.2558954087416691, -0.049820315745516354, -0.2028043933758492, -0.04066125916307626, -0.9584418353485407, -0.0673210918705195, -0.3072751283810004, 5.334514182747703, -0.09688008109790391, -0.04133453468645543, -0.31588312608838226, -0.06565132566175902, -0.129769382379629, -0.059909658472185774], [1.0, -0.6050471425703364, -1.4634156395211169, 0.0, 0.0, -0.6464734285072543, 0.0, -1.385217777824756, 1.119114351739943, -1.0390251903470342, 1.4176050749539744, -0.7943062651718347, 0.7165530156539135, 2.227323608003554, -0.3009046524266739, -0.016588214524852377, -1.0311308084458606, -0.6137469606864169, -0.20088524903735075, -0.10278301890788685, 0.6922468076076531, -1.5387044949196873, -0.23976091733386232, 2.6226315356357732, -0.20368500923534597, 0.3403706048543813, -0.18139789155237307, -0.08487756799296732, -0.11665208186047678, -0.222318410049688, -0.12440490043064825, -0.12998840381832422, -0.3325686123978373, -0.2558954087416691, -0.049820315745516354, -0.2028043933758492, -0.04066125916307626, 1.0433600903535654, -0.0673210918705195, -0.3072751283810004, -0.18745843779219346, -0.09688008109790391, -0.04133453468645543, -0.31588312608838226, -0.06565132566175902, -0.129769382379629, -0.059909658472185774], [1.0, 0.8487777934708937, 1.338176120187531, 0.0, 0.0, -0.6464734285072543, 0.0, 0.9324047124601502, -0.7498692107755872, 0.19257147721313359, 1.4176050749539744, -0.7943062651718347, 0.7165530156539135, -0.4489693032396428, -0.3009046524266739, -0.016588214524852377, 0.9698090210975429, 1.629335888795913, -0.20088524903735075, -0.10278301890788685, -1.4445714206989186, 0.6498973359744525, -0.23976091733386232, -0.38129637967681684, -0.20368500923534597, -2.937973721180797, -0.18139789155237307, -0.08487756799296732, -0.11665208186047678, -0.222318410049688, -0.12440490043064825, -0.12998840381832422, -0.3325686123978373, -0.2558954087416691, -0.049820315745516354, -0.2028043933758492, -0.04066125916307626, -0.9584418353485407, -0.0673210918705195, 3.2544120261628016, -0.18745843779219346, -0.09688008109790391, -0.04133453468645543, -0.31588312608838226, -0.06565132566175902, -0.129769382379629, -0.059909658472185774], [1.0, -0.6050471425703364, -0.5844848913772273, 0.0, 0.0, 1.5468539120041043, 0.0, -0.2264065326823029, 0.7837363058741955, 1.2534564831307915, -0.7054150500697965, -0.7943062651718347, 0.7165530156539135, -0.4489693032396428, -0.3009046524266739, -0.016588214524852377, -1.0311308084458606, -0.6137469606864169, -0.20088524903735075, -0.10278301890788685, 0.6922468076076531, 0.6498973359744525, -0.23976091733386232, -0.38129637967681684, -0.20368500923534597, 0.3403706048543813, -0.18139789155237307, -0.08487756799296732, -0.11665208186047678, -0.222318410049688, -0.12440490043064825, -0.12998840381832422, -0.3325686123978373, -0.2558954087416691, -0.049820315745516354, -0.2028043933758492, -0.04066125916307626, -0.9584418353485407, -0.0673210918705195, 3.2544120261628016, -0.18745843779219346, -0.09688008109790391, -0.04133453468645543, -0.31588312608838226, -0.06565132566175902, -0.129769382379629, -0.059909658472185774], [1.0, 0.8487777934708937, 0.2395126850076692, 0.0, 0.0, 1.5468539120041043, 0.0, 0.9324047124601502, -1.2833812606830581, -0.5159532465956117, -0.7054150500697965, -0.7943062651718347, 0.7165530156539135, -0.4489693032396428, -0.3009046524266739, -0.016588214524852377, 0.9698090210975429, -0.6137469606864169, 4.977964965507117, -0.10278301890788685, -1.4445714206989186, 0.6498973359744525, -0.23976091733386232, -0.38129637967681684, -0.20368500923534597, 0.3403706048543813, -0.18139789155237307, -0.08487756799296732, -0.11665208186047678, -0.222318410049688, -0.12440490043064825, -0.12998840381832422, -0.3325686123978373, -0.2558954087416691, -0.049820315745516354, -0.2028043933758492, -0.04066125916307626, -0.9584418353485407, -0.0673210918705195, -0.3072751283810004, -0.18745843779219346, -0.09688008109790391, -0.04133453468645543, 3.1657274358621015, -0.06565132566175902, -0.129769382379629, -0.059909658472185774], [1.0, -0.6050471425703364, 2.4093729694878965, 0.0, 0.0, -0.6464734285072543, 0.0, -0.2264065326823029, -1.0821061077967704, -0.486946529714851, -0.7054150500697965, -0.7943062651718347, 0.7165530156539135, -0.4489693032396428, -0.3009046524266739, -0.016588214524852377, -1.0311308084458606, -0.6137469606864169, 4.977964965507117, -0.10278301890788685, -1.4445714206989186, 0.6498973359744525, -0.23976091733386232, -0.38129637967681684, -0.20368500923534597, -2.937973721180797, 5.51274145035502, -0.08487756799296732, -0.11665208186047678, -0.222318410049688, -0.12440490043064825, -0.12998840381832422, -0.3325686123978373, -0.2558954087416691, -0.049820315745516354, -0.2028043933758492, -0.04066125916307626, -0.9584418353485407, -0.0673210918705195, -0.3072751283810004, -0.18745843779219346, -0.09688008109790391, -0.04133453468645543, -0.31588312608838226, -0.06565132566175902, -0.129769382379629, -0.059909658472185774], [1.0, -0.6050471425703364, -1.0239502654491721, 0.0, 0.0, 1.5468539120041043, 0.0, -0.2264065326823029, 0.9680975803666774, 0.5587218378391292, -0.7054150500697965, -0.7943062651718347, 0.7165530156539135, -0.4489693032396428, -0.3009046524266739, -0.016588214524852377, 0.9698090210975429, -0.6137469606864169, -0.20088524903735075, -0.10278301890788685, 0.6922468076076531, 0.6498973359744525, -0.23976091733386232, -0.38129637967681684, -0.20368500923534597, 0.3403706048543813, -0.18139789155237307, -0.08487756799296732, -0.11665208186047678, -0.222318410049688, -0.12440490043064825, -0.12998840381832422, -0.3325686123978373, -0.2558954087416691, -0.049820315745516354, -0.2028043933758492, -0.04066125916307626, -0.9584418353485407, -0.0673210918705195, -0.3072751283810004, -0.18745843779219346, -0.09688008109790391, -0.04133453468645543, 3.1657274358621015, -0.06565132566175902, -0.129769382379629, -0.059909658472185774], [1.0, -0.6050471425703364, -1.4084824677621237, 0.0, 0.0, -0.6464734285072543, 0.0, -0.2264065326823029, 1.2938105528645358, -1.0390251903470342, -0.7054150500697965, -0.7943062651718347, 0.7165530156539135, 2.227323608003554, -0.3009046524266739, -0.016588214524852377, -1.0311308084458606, -0.6137469606864169, -0.20088524903735075, -0.10278301890788685, 0.6922468076076531, 0.6498973359744525, -0.23976091733386232, -0.38129637967681684, -0.20368500923534597, 0.3403706048543813, -0.18139789155237307, -0.08487756799296732, -0.11665208186047678, -0.222318410049688, -0.12440490043064825, -0.12998840381832422, -0.3325686123978373, -0.2558954087416691, -0.049820315745516354, -0.2028043933758492, -0.04066125916307626, 1.0433600903535654, -0.0673210918705195, -0.3072751283810004, -0.18745843779219346, -0.09688008109790391, -0.04133453468645543, -0.31588312608838226, -0.06565132566175902, -0.129769382379629, -0.059909658472185774], [1.0, 0.8487777934708937, -0.03515317378729629, 0.0, 0.0, 1.5468539120041043, 0.0, 0.9324047124601502, -0.1441107374431457, 0.19970427644610744, -0.7054150500697965, 1.2589601790748008, 0.7165530156539135, -0.4489693032396428, -0.3009046524266739, -0.016588214524852377, -1.0311308084458606, -0.6137469606864169, -0.20088524903735075, -0.10278301890788685, 0.6922468076076531, 0.6498973359744525, -0.23976091733386232, -0.38129637967681684, -0.20368500923534597, 0.3403706048543813, -0.18139789155237307, -0.08487756799296732, -0.11665208186047678, -0.222318410049688, -0.12440490043064825, -0.12998840381832422, -0.3325686123978373, -0.2558954087416691, -0.049820315745516354, -0.2028043933758492, -0.04066125916307626, -0.9584418353485407, -0.0673210918705195, 3.2544120261628016, -0.18745843779219346, -0.09688008109790391, -0.04133453468645543, -0.31588312608838226, -0.06565132566175902, -0.129769382379629, -0.059909658472185774], [1.0, -0.6050471425703364, -1.4084824677621237, 0.0, 0.0, -0.6464734285072543, 0.0, -0.2264065326823029, 1.9288058731348414, -1.0390251903470342, 1.4176050749539744, -0.7943062651718347, 0.7165530156539135, 2.227323608003554, -0.3009046524266739, -0.016588214524852377, -1.0311308084458606, -0.6137469606864169, -0.20088524903735075, -0.10278301890788685, 0.6922468076076531, 0.6498973359744525, -0.23976091733386232, -0.38129637967681684, -0.20368500923534597, 0.3403706048543813, -0.18139789155237307, -0.08487756799296732, -0.11665208186047678, -0.222318410049688, -0.12440490043064825, -0.12998840381832422, -0.3325686123978373, -0.2558954087416691, -0.049820315745516354, -0.2028043933758492, -0.04066125916307626, 1.0433600903535654, -0.0673210918705195, -0.3072751283810004, -0.18745843779219346, -0.09688008109790391, -0.04133453468645543, -0.31588312608838226, -0.06565132566175902, -0.129769382379629, -0.059909658472185774], [1.0, 2.302602729512124, -0.3098190325822618, 0.0, 0.0, -0.6464734285072543, 0.0, 2.091215957602603, -0.18736194076444904, 0.5159250424412858, -0.7054150500697965, -0.7943062651718347, 0.7165530156539135, -0.4489693032396428, -0.3009046524266739, -0.016588214524852377, 0.9698090210975429, -0.6137469606864169, -0.20088524903735075, -0.10278301890788685, 0.6922468076076531, 0.6498973359744525, -0.23976091733386232, -0.38129637967681684, -0.20368500923534597, 0.3403706048543813, -0.18139789155237307, -0.08487756799296732, -0.11665208186047678, -0.222318410049688, -0.12440490043064825, -0.12998840381832422, -0.3325686123978373, -0.2558954087416691, -0.049820315745516354, -0.2028043933758492, -0.04066125916307626, 1.0433600903535654, -0.0673210918705195, -0.3072751283810004, -0.18745843779219346, -0.09688008109790391, -0.04133453468645543, -0.31588312608838226, -0.06565132566175902, -0.129769382379629, -0.059909658472185774], [1.0, -0.6050471425703364, -0.5844848913772273, 0.0, 0.0, -0.6464734285072543, 0.0, -1.385217777824756, -1.0982951056879846, 1.2011492887556492, -0.7054150500697965, -0.7943062651718347, -1.3955700883859625, -0.4489693032396428, -0.3009046524266739, -0.016588214524852377, 0.9698090210975429, -0.6137469606864169, -0.20088524903735075, -0.10278301890788685, 0.6922468076076531, -1.5387044949196873, -0.23976091733386232, 2.6226315356357732, -0.20368500923534597, 0.3403706048543813, -0.18139789155237307, -0.08487756799296732, -0.11665208186047678, -0.222318410049688, -0.12440490043064825, -0.12998840381832422, -0.3325686123978373, -0.2558954087416691, -0.049820315745516354, -0.2028043933758492, -0.04066125916307626, 1.0433600903535654, -0.0673210918705195, -0.3072751283810004, -0.18745843779219346, -0.09688008109790391, -0.04133453468645543, -0.31588312608838226, -0.06565132566175902, -0.129769382379629, -0.059909658472185774], [1.0, -0.6050471425703364, -0.8591507501721928, 0.0, 0.0, 1.5468539120041043, 0.0, -0.2264065326823029, 0.6165305366097161, -1.0390251903470342, 1.4176050749539744, 1.2589601790748008, 0.7165530156539135, 2.227323608003554, -0.3009046524266739, -0.016588214524852377, -1.0311308084458606, -0.6137469606864169, -0.20088524903735075, -0.10278301890788685, 0.6922468076076531, 0.6498973359744525, -0.23976091733386232, -0.38129637967681684, -0.20368500923534597, 0.3403706048543813, -0.18139789155237307, -0.08487756799296732, -0.11665208186047678, -0.222318410049688, -0.12440490043064825, -0.12998840381832422, -0.3325686123978373, -0.2558954087416691, -0.049820315745516354, -0.2028043933758492, -0.04066125916307626, 1.0433600903535654, -0.0673210918705195, -0.3072751283810004, -0.18745843779219346, -0.09688008109790391, -0.04133453468645543, -0.31588312608838226, -0.06565132566175902, -0.129769382379629, -0.059909658472185774], [1.0, -0.6050471425703364, 0.5141785438026347, 0.0, 0.0, -0.6464734285072543, 0.0, -0.2264065326823029, 0.9357195845842495, 0.533043760600423, -0.7054150500697965, -0.7943062651718347, 0.7165530156539135, -0.4489693032396428, -0.3009046524266739, -0.016588214524852377, 0.9698090210975429, 1.629335888795913, -0.20088524903735075, -0.10278301890788685, -1.4445714206989186, 0.6498973359744525, -0.23976091733386232, -0.38129637967681684, -0.20368500923534597, 0.3403706048543813, -0.18139789155237307, -0.08487756799296732, -0.11665208186047678, -0.222318410049688, -0.12440490043064825, -0.12998840381832422, -0.3325686123978373, -0.2558954087416691, -0.049820315745516354, -0.2028043933758492, -0.04066125916307626, -0.9584418353485407, -0.0673210918705195, 3.2544120261628016, -0.18745843779219346, -0.09688008109790391, -0.04133453468645543, -0.31588312608838226, -0.06565132566175902, -0.129769382379629, -0.059909658472185774], [1.0, -0.6050471425703364, 0.5141785438026347, 0.0, 0.0, 1.5468539120041043, 0.0, -0.2264065326823029, -1.6057114575021554, -0.5830015593855667, 1.4176050749539744, -0.7943062651718347, -1.3955700883859625, -0.4489693032396428, -0.3009046524266739, -0.016588214524852377, -1.0311308084458606, 1.629335888795913, -0.20088524903735075, -0.10278301890788685, -1.4445714206989186, 0.6498973359744525, -0.23976091733386232, -0.38129637967681684, -0.20368500923534597, -2.937973721180797, -0.18139789155237307, -0.08487756799296732, -0.11665208186047678, 4.498052036974937, -0.12440490043064825, -0.12998840381832422, -0.3325686123978373, -0.2558954087416691, -0.049820315745516354, -0.2028043933758492, 24.593284917133957, -0.9584418353485407, -0.0673210918705195, -0.3072751283810004, -0.18745843779219346, -0.09688008109790391, -0.04133453468645543, -0.31588312608838226, -0.06565132566175902, -0.129769382379629, -0.059909658472185774], [1.0, 2.302602729512124, -0.3098190325822618, 0.0, 0.0, -0.6464734285072543, 0.0, 2.091215957602603, -1.025323801760423, -0.30910206883936725, -0.7054150500697965, 1.2589601790748008, 0.7165530156539135, -0.4489693032396428, -0.3009046524266739, -0.016588214524852377, 0.9698090210975429, 1.629335888795913, -0.20088524903735075, -0.10278301890788685, -1.4445714206989186, 0.6498973359744525, -0.23976091733386232, -0.38129637967681684, -0.20368500923534597, 0.3403706048543813, -0.18139789155237307, -0.08487756799296732, -0.11665208186047678, -0.222318410049688, -0.12440490043064825, -0.12998840381832422, 3.006897978945087, -0.2558954087416691, -0.049820315745516354, -0.2028043933758492, -0.04066125916307626, -0.9584418353485407, -0.0673210918705195, -0.3072751283810004, -0.18745843779219346, -0.09688008109790391, -0.04133453468645543, -0.31588312608838226, -0.06565132566175902, -0.129769382379629, -0.059909658472185774], [1.0, 0.8487777934708937, 0.5141785438026347, 0.0, 0.0, -0.6464734285072543, 0.0, -0.2264065326823029, -0.5307136721587049, 1.5325866931145051, -0.7054150500697965, 1.2589601790748008, -1.3955700883859625, -0.4489693032396428, -0.3009046524266739, -0.016588214524852377, 0.9698090210975429, 1.629335888795913, -0.20088524903735075, -0.10278301890788685, -1.4445714206989186, -1.5387044949196873, -0.23976091733386232, 2.6226315356357732, -0.20368500923534597, -2.937973721180797, -0.18139789155237307, -0.08487756799296732, -0.11665208186047678, 4.498052036974937, -0.12440490043064825, -0.12998840381832422, -0.3325686123978373, -0.2558954087416691, -0.049820315745516354, -0.2028043933758492, -0.04066125916307626, 1.0433600903535654, -0.0673210918705195, -0.3072751283810004, -0.18745843779219346, -0.09688008109790391, -0.04133453468645543, -0.31588312608838226, -0.06565132566175902, -0.129769382379629, -0.059909658472185774], [1.0, 0.8487777934708937, -0.7492844066542066, 0.0, 0.0, -0.6464734285072543, 0.0, 0.9324047124601502, -0.23375429293031616, 0.45315640919111494, -0.7054150500697965, -0.7943062651718347, 0.7165530156539135, -0.4489693032396428, -0.3009046524266739, -0.016588214524852377, 0.9698090210975429, -0.6137469606864169, -0.20088524903735075, -0.10278301890788685, 0.6922468076076531, 0.6498973359744525, -0.23976091733386232, -0.38129637967681684, -0.20368500923534597, 0.3403706048543813, -0.18139789155237307, -0.08487756799296732, -0.11665208186047678, -0.222318410049688, -0.12440490043064825, -0.12998840381832422, -0.3325686123978373, -0.2558954087416691, -0.049820315745516354, -0.2028043933758492, -0.04066125916307626, -0.9584418353485407, -0.0673210918705195, -0.3072751283810004, -0.18745843779219346, -0.09688008109790391, -0.04133453468645543, 3.1657274358621015, -0.06565132566175902, -0.129769382379629, -0.059909658472185774], [1.0, 0.8487777934708937, 0.2395126850076692, 0.0, 0.0, -0.6464734285072543, 0.0, -0.2264065326823029, -0.9627424517033419, -0.36378686295883417, -0.7054150500697965, -0.7943062651718347, -1.3955700883859625, -0.4489693032396428, -0.3009046524266739, -0.016588214524852377, -1.0311308084458606, -0.6137469606864169, -0.20088524903735075, -0.10278301890788685, 0.6922468076076531, -1.5387044949196873, 4.170820735037542, -0.38129637967681684, -0.20368500923534597, -2.937973721180797, 5.51274145035502, -0.08487756799296732, -0.11665208186047678, -0.222318410049688, -0.12440490043064825, -0.12998840381832422, -0.3325686123978373, -0.2558954087416691, -0.049820315745516354, -0.2028043933758492, -0.04066125916307626, 1.0433600903535654, -0.0673210918705195, -0.3072751283810004, -0.18745843779219346, -0.09688008109790391, -0.04133453468645543, -0.31588312608838226, -0.06565132566175902, -0.129769382379629, -0.059909658472185774], [1.0, 0.8487777934708937, -0.19995268906427557, 0.0, 0.0, -0.6464734285072543, 0.0, 0.9324047124601502, -0.9180414873768551, -0.1754809632083221, -0.7054150500697965, -0.7943062651718347, 0.7165530156539135, -0.4489693032396428, -0.3009046524266739, -0.016588214524852377, 0.9698090210975429, -0.6137469606864169, -0.20088524903735075, -0.10278301890788685, 0.6922468076076531, -1.5387044949196873, -0.23976091733386232, -0.38129637967681684, -0.20368500923534597, 0.3403706048543813, -0.18139789155237307, -0.08487756799296732, -0.11665208186047678, -0.222318410049688, -0.12440490043064825, -0.12998840381832422, -0.3325686123978373, -0.2558954087416691, -0.049820315745516354, -0.2028043933758492, -0.04066125916307626, 1.0433600903535654, -0.0673210918705195, -0.3072751283810004, -0.18745843779219346, -0.09688008109790391, -0.04133453468645543, -0.31588312608838226, -0.06565132566175902, -0.129769382379629, -0.059909658472185774], [1.0, 0.8487777934708937, 2.4093729694878965, 0.0, 0.0, -0.6464734285072543, 0.0, 0.9324047124601502, 0.5843941676614852, 0.20921467542340605, 1.4176050749539744, 1.2589601790748008, 0.7165530156539135, -0.4489693032396428, -0.3009046524266739, -0.016588214524852377, 0.9698090210975429, 1.629335888795913, -0.20088524903735075, -0.10278301890788685, -1.4445714206989186, 0.6498973359744525, -0.23976091733386232, -0.38129637967681684, -0.20368500923534597, -2.937973721180797, -0.18139789155237307, 11.781659341793041, -0.11665208186047678, -0.222318410049688, -0.12440490043064825, -0.12998840381832422, -0.3325686123978373, -0.2558954087416691, -0.049820315745516354, -0.2028043933758492, -0.04066125916307626, -0.9584418353485407, -0.0673210918705195, 3.2544120261628016, -0.18745843779219346, -0.09688008109790391, -0.04133453468645543, -0.31588312608838226, -0.06565132566175902, -0.129769382379629, -0.059909658472185774], [1.0, -0.6050471425703364, -0.8591507501721928, 0.0, 0.0, -0.6464734285072543, 0.0, -0.2264065326823029, -1.4061276924552482, 0.6029451930835676, -0.7054150500697965, 1.2589601790748008, -1.3955700883859625, -0.4489693032396428, -0.3009046524266739, -0.016588214524852377, 0.9698090210975429, -0.6137469606864169, -0.20088524903735075, -0.10278301890788685, 0.6922468076076531, 0.6498973359744525, -0.23976091733386232, -0.38129637967681684, -0.20368500923534597, 0.3403706048543813, -0.18139789155237307, -0.08487756799296732, -0.11665208186047678, -0.222318410049688, -0.12440490043064825, -0.12998840381832422, -0.3325686123978373, -0.2558954087416691, -0.049820315745516354, -0.2028043933758492, -0.04066125916307626, 1.0433600903535654, -0.0673210918705195, -0.3072751283810004, -0.18745843779219346, -0.09688008109790391, -0.04133453468645543, -0.31588312608838226, -0.06565132566175902, -0.129769382379629, -0.059909658472185774], [1.0, 0.8487777934708937, -0.5844848913772273, 0.0, 0.0, -0.6464734285072543, 0.0, 0.9324047124601502, -0.026438469189097275, 2.5235702665490183, -0.7054150500697965, -0.7943062651718347, 0.7165530156539135, -0.4489693032396428, -0.3009046524266739, -0.016588214524852377, 0.9698090210975429, -0.6137469606864169, 4.977964965507117, -0.10278301890788685, -1.4445714206989186, 0.6498973359744525, -0.23976091733386232, -0.38129637967681684, -0.20368500923534597, 0.3403706048543813, -0.18139789155237307, -0.08487756799296732, -0.11665208186047678, -0.222318410049688, -0.12440490043064825, -0.12998840381832422, -0.3325686123978373, -0.2558954087416691, -0.049820315745516354, -0.2028043933758492, -0.04066125916307626, 1.0433600903535654, -0.0673210918705195, -0.3072751283810004, -0.18745843779219346, -0.09688008109790391, -0.04133453468645543, -0.31588312608838226, -0.06565132566175902, -0.129769382379629, -0.059909658472185774], [1.0, 2.302602729512124, -0.5844848913772273, 0.0, 0.0, 1.5468539120041043, 0.0, 2.091215957602603, -0.8793811939052991, -0.9315576819035601, 1.4176050749539744, -0.7943062651718347, 0.7165530156539135, -0.4489693032396428, -0.3009046524266739, -0.016588214524852377, -1.0311308084458606, -0.6137469606864169, -0.20088524903735075, -0.10278301890788685, 0.6922468076076531, 0.6498973359744525, -0.23976091733386232, -0.38129637967681684, -0.20368500923534597, 0.3403706048543813, -0.18139789155237307, -0.08487756799296732, -0.11665208186047678, -0.222318410049688, -0.12440490043064825, -0.12998840381832422, -0.3325686123978373, -0.2558954087416691, -0.049820315745516354, -0.2028043933758492, -0.04066125916307626, 1.0433600903535654, -0.0673210918705195, -0.3072751283810004, -0.18745843779219346, -0.09688008109790391, -0.04133453468645543, -0.31588312608838226, -0.06565132566175902, -0.129769382379629, -0.059909658472185774], [1.0, -0.6050471425703364, 0.2395126850076692, 0.0, 0.0, 1.5468539120041043, 0.0, -0.2264065326823029, 0.3811860001016199, 1.6438583611488988, -0.7054150500697965, -0.7943062651718347, 0.7165530156539135, -0.4489693032396428, -0.3009046524266739, -0.016588214524852377, -1.0311308084458606, 1.629335888795913, -0.20088524903735075, -0.10278301890788685, -1.4445714206989186, 0.6498973359744525, -0.23976091733386232, -0.38129637967681684, -0.20368500923534597, 0.3403706048543813, -0.18139789155237307, -0.08487756799296732, -0.11665208186047678, -0.222318410049688, -0.12440490043064825, -0.12998840381832422, -0.3325686123978373, -0.2558954087416691, -0.049820315745516354, -0.2028043933758492, -0.04066125916307626, -0.9584418353485407, -0.0673210918705195, 3.2544120261628016, -0.18745843779219346, -0.09688008109790391, -0.04133453468645543, -0.31588312608838226, -0.06565132566175902, -0.129769382379629, -0.059909658472185774], [1.0, -0.6050471425703364, 1.0635102613925655, 0.0, 0.0, 1.5468539120041043, 0.0, -0.2264065326823029, -0.03392890104921153, 0.411310653691001, -0.7054150500697965, 1.2589601790748008, 0.7165530156539135, -0.4489693032396428, -0.3009046524266739, -0.016588214524852377, 0.9698090210975429, 1.629335888795913, -0.20088524903735075, -0.10278301890788685, -1.4445714206989186, 0.6498973359744525, -0.23976091733386232, -0.38129637967681684, -0.20368500923534597, 0.3403706048543813, -0.18139789155237307, -0.08487756799296732, -0.11665208186047678, -0.222318410049688, -0.12440490043064825, -0.12998840381832422, -0.3325686123978373, -0.2558954087416691, -0.049820315745516354, -0.2028043933758492, -0.04066125916307626, -0.9584418353485407, -0.0673210918705195, 3.2544120261628016, -0.18745843779219346, -0.09688008109790391, -0.04133453468645543, -0.31588312608838226, -0.06565132566175902, -0.129769382379629, -0.059909658472185774], [1.0, -0.6050471425703364, -1.1228299746153596, 0.0, 0.0, -0.6464734285072543, 0.0, -0.2264065326823029, 1.3633990811133367, 0.11458620559928498, 1.4176050749539744, 1.2589601790748008, 0.7165530156539135, -0.4489693032396428, -0.3009046524266739, -0.016588214524852377, 0.9698090210975429, -0.6137469606864169, -0.20088524903735075, -0.10278301890788685, 0.6922468076076531, 0.6498973359744525, -0.23976091733386232, -0.38129637967681684, -0.20368500923534597, 0.3403706048543813, -0.18139789155237307, -0.08487756799296732, -0.11665208186047678, -0.222318410049688, -0.12440490043064825, -0.12998840381832422, -0.3325686123978373, -0.2558954087416691, -0.049820315745516354, -0.2028043933758492, -0.04066125916307626, 1.0433600903535654, -0.0673210918705195, -0.3072751283810004, -0.18745843779219346, -0.09688008109790391, -0.04133453468645543, -0.31588312608838226, -0.06565132566175902, -0.129769382379629, -0.059909658472185774], [1.0, -0.6050471425703364, 0.4043122002846485, 0.0, 0.0, -0.6464734285072543, 0.0, -0.2264065326823029, 0.5972003898739384, -0.17880960285037656, -0.7054150500697965, 1.2589601790748008, 0.7165530156539135, -0.4489693032396428, -0.3009046524266739, -0.016588214524852377, 0.9698090210975429, 1.629335888795913, -0.20088524903735075, -0.10278301890788685, -1.4445714206989186, 0.6498973359744525, -0.23976091733386232, -0.38129637967681684, -0.20368500923534597, 0.3403706048543813, -0.18139789155237307, -0.08487756799296732, -0.11665208186047678, -0.222318410049688, -0.12440490043064825, -0.12998840381832422, -0.3325686123978373, -0.2558954087416691, -0.049820315745516354, -0.2028043933758492, -0.04066125916307626, -0.9584418353485407, -0.0673210918705195, -0.3072751283810004, -0.18745843779219346, -0.09688008109790391, -0.04133453468645543, -0.31588312608838226, 15.231949237190422, -0.129769382379629, -0.059909658472185774], [1.0, -0.6050471425703364, 2.4093729694878965, 0.0, 0.0, -0.6464734285072543, 0.0, -0.2264065326823029, 0.668963559630514, -0.7128185054256925, -0.7054150500697965, -0.7943062651718347, -1.3955700883859625, -0.4489693032396428, -0.3009046524266739, -0.016588214524852377, 0.9698090210975429, -0.6137469606864169, -0.20088524903735075, -0.10278301890788685, 0.6922468076076531, 0.6498973359744525, -0.23976091733386232, -0.38129637967681684, -0.20368500923534597, 0.3403706048543813, -0.18139789155237307, -0.08487756799296732, -0.11665208186047678, -0.222318410049688, -0.12440490043064825, -0.12998840381832422, -0.3325686123978373, -0.2558954087416691, -0.049820315745516354, -0.2028043933758492, -0.04066125916307626, 1.0433600903535654, -0.0673210918705195, -0.3072751283810004, -0.18745843779219346, -0.09688008109790391, -0.04133453468645543, -0.31588312608838226, -0.06565132566175902, -0.129769382379629, -0.059909658472185774], [1.0, -0.6050471425703364, 0.6240448873206209, 0.0, 0.0, -0.6464734285072543, 0.0, -0.2264065326823029, -0.13227102256748163, 0.3951429754295936, 1.4176050749539744, 1.2589601790748008, 0.7165530156539135, -0.4489693032396428, -0.3009046524266739, -0.016588214524852377, 0.9698090210975429, -0.6137469606864169, -0.20088524903735075, -0.10278301890788685, 0.6922468076076531, 0.6498973359744525, -0.23976091733386232, -0.38129637967681684, -0.20368500923534597, 0.3403706048543813, -0.18139789155237307, -0.08487756799296732, -0.11665208186047678, -0.222318410049688, -0.12440490043064825, -0.12998840381832422, -0.3325686123978373, -0.2558954087416691, -0.049820315745516354, -0.2028043933758492, -0.04066125916307626, 1.0433600903535654, -0.0673210918705195, -0.3072751283810004, -0.18745843779219346, -0.09688008109790391, -0.04133453468645543, -0.31588312608838226, -0.06565132566175902, -0.129769382379629, -0.059909658472185774], [1.0, 2.302602729512124, -0.3098190325822618, 0.0, 0.0, -0.6464734285072543, 0.0, 2.091215957602603, -0.5324050599980852, -0.844537531261278, -0.7054150500697965, -0.7943062651718347, 0.7165530156539135, -0.4489693032396428, 3.323311423023822, -0.016588214524852377, -1.0311308084458606, -0.6137469606864169, -0.20088524903735075, -0.10278301890788685, 0.6922468076076531, 0.6498973359744525, -0.23976091733386232, -0.38129637967681684, -0.20368500923534597, 0.3403706048543813, -0.18139789155237307, -0.08487756799296732, -0.11665208186047678, -0.222318410049688, -0.12440490043064825, -0.12998840381832422, -0.3325686123978373, -0.2558954087416691, -0.049820315745516354, -0.2028043933758492, -0.04066125916307626, 1.0433600903535654, -0.0673210918705195, -0.3072751283810004, -0.18745843779219346, -0.09688008109790391, -0.04133453468645543, -0.31588312608838226, -0.06565132566175902, -0.129769382379629, -0.059909658472185774], [1.0, 0.8487777934708937, -0.3098190325822618, 0.0, 0.0, -0.6464734285072543, 0.0, -0.2264065326823029, -0.8170414706824155, -0.3970732593793792, -0.7054150500697965, -0.7943062651718347, 0.7165530156539135, -0.4489693032396428, 3.323311423023822, -0.016588214524852377, -1.0311308084458606, -0.6137469606864169, -0.20088524903735075, -0.10278301890788685, 0.6922468076076531, -1.5387044949196873, -0.23976091733386232, 2.6226315356357732, -0.20368500923534597, 0.3403706048543813, -0.18139789155237307, -0.08487756799296732, -0.11665208186047678, -0.222318410049688, -0.12440490043064825, -0.12998840381832422, -0.3325686123978373, -0.2558954087416691, -0.049820315745516354, -0.2028043933758492, -0.04066125916307626, -0.9584418353485407, -0.0673210918705195, -0.3072751283810004, -0.18745843779219346, -0.09688008109790391, -0.04133453468645543, -0.31588312608838226, -0.06565132566175902, -0.129769382379629, 16.691752537404376], [1.0, 0.8487777934708937, -0.419685376100248, 0.0, 0.0, -0.6464734285072543, 0.0, -0.2264065326823029, -1.404677931450065, -0.358080623572455, -0.7054150500697965, -0.7943062651718347, 0.7165530156539135, -0.4489693032396428, -0.3009046524266739, -0.016588214524852377, 0.9698090210975429, -0.6137469606864169, -0.20088524903735075, -0.10278301890788685, 0.6922468076076531, -1.5387044949196873, 4.170820735037542, -0.38129637967681684, -0.20368500923534597, -2.937973721180797, -0.18139789155237307, -0.08487756799296732, -0.11665208186047678, 4.498052036974937, -0.12440490043064825, -0.12998840381832422, -0.3325686123978373, -0.2558954087416691, -0.049820315745516354, -0.2028043933758492, -0.04066125916307626, -0.9584418353485407, -0.0673210918705195, -0.3072751283810004, -0.18745843779219346, -0.09688008109790391, -0.04133453468645543, 3.1657274358621015, -0.06565132566175902, -0.129769382379629, -0.059909658472185774], [1.0, -0.6050471425703364, 0.5141785438026347, 0.0, 0.0, -0.6464734285072543, 0.0, -0.2264065326823029, 1.246693320196077, -0.29864062996433877, -0.7054150500697965, 1.2589601790748008, 0.7165530156539135, -0.4489693032396428, -0.3009046524266739, -0.016588214524852377, 0.9698090210975429, -0.6137469606864169, -0.20088524903735075, -0.10278301890788685, 0.6922468076076531, 0.6498973359744525, -0.23976091733386232, -0.38129637967681684, -0.20368500923534597, 0.3403706048543813, -0.18139789155237307, -0.08487756799296732, -0.11665208186047678, -0.222318410049688, -0.12440490043064825, -0.12998840381832422, -0.3325686123978373, -0.2558954087416691, -0.049820315745516354, -0.2028043933758492, -0.04066125916307626, -0.9584418353485407, -0.0673210918705195, -0.3072751283810004, -0.18745843779219346, -0.09688008109790391, -0.04133453468645543, -0.31588312608838226, -0.06565132566175902, -0.129769382379629, -0.059909658472185774], [1.0, 0.8487777934708937, -0.03515317378729629, 0.0, 0.0, -0.6464734285072543, 0.0, 0.9324047124601502, -0.46764906843322895, -0.6605113110505503, -0.7054150500697965, -0.7943062651718347, -1.3955700883859625, -0.4489693032396428, -0.3009046524266739, -0.016588214524852377, -1.0311308084458606, -0.6137469606864169, -0.20088524903735075, -0.10278301890788685, 0.6922468076076531, 0.6498973359744525, -0.23976091733386232, -0.38129637967681684, -0.20368500923534597, 0.3403706048543813, -0.18139789155237307, -0.08487756799296732, -0.11665208186047678, -0.222318410049688, -0.12440490043064825, -0.12998840381832422, -0.3325686123978373, -0.2558954087416691, -0.049820315745516354, -0.2028043933758492, -0.04066125916307626, 1.0433600903535654, -0.0673210918705195, -0.3072751283810004, -0.18745843779219346, -0.09688008109790391, -0.04133453468645543, -0.31588312608838226, -0.06565132566175902, -0.129769382379629, -0.059909658472185774], [1.0, -0.6050471425703364, -1.0239502654491721, 0.0, 0.0, -0.6464734285072543, 0.0, -1.385217777824756, 2.066774795461457, -1.0390251903470342, -0.7054150500697965, -0.7943062651718347, 0.7165530156539135, 2.227323608003554, -0.3009046524266739, -0.016588214524852377, -1.0311308084458606, 1.629335888795913, -0.20088524903735075, -0.10278301890788685, -1.4445714206989186, -1.5387044949196873, 4.170820735037542, -0.38129637967681684, -0.20368500923534597, 0.3403706048543813, -0.18139789155237307, -0.08487756799296732, -0.11665208186047678, -0.222318410049688, -0.12440490043064825, -0.12998840381832422, -0.3325686123978373, -0.2558954087416691, -0.049820315745516354, -0.2028043933758492, -0.04066125916307626, 1.0433600903535654, -0.0673210918705195, -0.3072751283810004, -0.18745843779219346, -0.09688008109790391, -0.04133453468645543, -0.31588312608838226, -0.06565132566175902, -0.129769382379629, -0.059909658472185774], [1.0, 0.8487777934708937, 1.6128419789824966, 0.0, 0.0, -0.6464734285072543, 0.0, 0.9324047124601502, -1.1253573111180737, -0.31956350771439573, 1.4176050749539744, -0.7943062651718347, 0.7165530156539135, -0.4489693032396428, -0.3009046524266739, -0.016588214524852377, 0.9698090210975429, 1.629335888795913, -0.20088524903735075, -0.10278301890788685, -1.4445714206989186, 0.6498973359744525, -0.23976091733386232, -0.38129637967681684, -0.20368500923534597, 0.3403706048543813, -0.18139789155237307, -0.08487756799296732, -0.11665208186047678, -0.222318410049688, -0.12440490043064825, -0.12998840381832422, -0.3325686123978373, -0.2558954087416691, -0.049820315745516354, -0.2028043933758492, -0.04066125916307626, -0.9584418353485407, -0.0673210918705195, 3.2544120261628016, -0.18745843779219346, -0.09688008109790391, -0.04133453468645543, -0.31588312608838226, -0.06565132566175902, -0.129769382379629, -0.059909658472185774], [1.0, 0.8487777934708937, -0.5844848913772273, 0.0, 0.0, -0.6464734285072543, 0.0, -0.2264065326823029, -1.2466539818850801, -0.8483416908521975, -0.7054150500697965, 1.2589601790748008, 0.7165530156539135, -0.4489693032396428, -0.3009046524266739, -0.016588214524852377, 0.9698090210975429, -0.6137469606864169, -0.20088524903735075, -0.10278301890788685, 0.6922468076076531, -1.5387044949196873, -0.23976091733386232, 2.6226315356357732, -0.20368500923534597, 0.3403706048543813, -0.18139789155237307, -0.08487756799296732, -0.11665208186047678, -0.222318410049688, -0.12440490043064825, -0.12998840381832422, -0.3325686123978373, -0.2558954087416691, -0.049820315745516354, -0.2028043933758492, -0.04066125916307626, 1.0433600903535654, -0.0673210918705195, -0.3072751283810004, -0.18745843779219346, -0.09688008109790391, -0.04133453468645543, -0.31588312608838226, -0.06565132566175902, -0.129769382379629, -0.059909658472185774], [1.0, 0.8487777934708937, 1.338176120187531, 0.0, 0.0, -0.6464734285072543, 0.0, 0.9324047124601502, -0.7498692107755872, 0.19257147721313359, 1.4176050749539744, -0.7943062651718347, 0.7165530156539135, -0.4489693032396428, -0.3009046524266739, -0.016588214524852377, 0.9698090210975429, 1.629335888795913, -0.20088524903735075, -0.10278301890788685, -1.4445714206989186, 0.6498973359744525, -0.23976091733386232, -0.38129637967681684, -0.20368500923534597, -2.937973721180797, -0.18139789155237307, -0.08487756799296732, -0.11665208186047678, -0.222318410049688, -0.12440490043064825, -0.12998840381832422, -0.3325686123978373, -0.2558954087416691, -0.049820315745516354, -0.2028043933758492, -0.04066125916307626, -0.9584418353485407, -0.0673210918705195, 3.2544120261628016, -0.18745843779219346, -0.09688008109790391, -0.04133453468645543, -0.31588312608838226, -0.06565132566175902, -0.129769382379629, -0.059909658472185774], [1.0, 2.302602729512124, -0.8591507501721928, 0.0, 0.0, 1.5468539120041043, 0.0, 2.091215957602603, -0.8689912400348185, -0.6995039468574745, -0.7054150500697965, -0.7943062651718347, -1.3955700883859625, -0.4489693032396428, -0.3009046524266739, -0.016588214524852377, 0.9698090210975429, -0.6137469606864169, -0.20088524903735075, -0.10278301890788685, 0.6922468076076531, 0.6498973359744525, -0.23976091733386232, -0.38129637967681684, -0.20368500923534597, -2.937973721180797, 5.51274145035502, -0.08487756799296732, -0.11665208186047678, -0.222318410049688, -0.12440490043064825, -0.12998840381832422, -0.3325686123978373, -0.2558954087416691, -0.049820315745516354, -0.2028043933758492, -0.04066125916307626, -0.9584418353485407, -0.0673210918705195, -0.3072751283810004, 5.334514182747703, -0.09688008109790391, -0.04133453468645543, -0.31588312608838226, -0.06565132566175902, -0.129769382379629, -0.059909658472185774], [1.0, 0.8487777934708937, -0.3098190325822618, 0.0, 0.0, -0.6464734285072543, 0.0, -0.2264065326823029, -1.1417879358434848, -0.7190002647609367, 1.4176050749539744, 1.2589601790748008, -1.3955700883859625, -0.4489693032396428, -0.3009046524266739, -0.016588214524852377, 0.9698090210975429, -0.6137469606864169, -0.20088524903735075, -0.10278301890788685, 0.6922468076076531, -1.5387044949196873, 4.170820735037542, -0.38129637967681684, -0.20368500923534597, 0.3403706048543813, -0.18139789155237307, -0.08487756799296732, -0.11665208186047678, -0.222318410049688, -0.12440490043064825, -0.12998840381832422, -0.3325686123978373, -0.2558954087416691, -0.049820315745516354, -0.2028043933758492, -0.04066125916307626, 1.0433600903535654, -0.0673210918705195, -0.3072751283810004, -0.18745843779219346, -0.09688008109790391, -0.04133453468645543, -0.31588312608838226, -0.06565132566175902, -0.129769382379629, -0.059909658472185774], [1.0, -0.6050471425703364, 0.9536439178745795, 0.0, 0.0, 1.5468539120041043, 0.0, -1.385217777824756, -1.8316325474765602, -0.5887077987719459, -0.7054150500697965, -0.7943062651718347, 0.7165530156539135, -0.4489693032396428, -0.3009046524266739, -0.016588214524852377, -1.0311308084458606, -0.6137469606864169, -0.20088524903735075, -0.10278301890788685, 0.6922468076076531, -1.5387044949196873, -0.23976091733386232, 2.6226315356357732, -0.20368500923534597, 0.3403706048543813, -0.18139789155237307, -0.08487756799296732, -0.11665208186047678, -0.222318410049688, -0.12440490043064825, -0.12998840381832422, -0.3325686123978373, -0.2558954087416691, -0.049820315745516354, -0.2028043933758492, -0.04066125916307626, 1.0433600903535654, -0.0673210918705195, -0.3072751283810004, -0.18745843779219346, -0.09688008109790391, -0.04133453468645543, -0.31588312608838226, -0.06565132566175902, -0.129769382379629, -0.059909658472185774], [1.0, -0.6050471425703364, 1.338176120187531, 0.0, 0.0, 1.5468539120041043, 0.0, -0.2264065326823029, 0.586327182335063, -0.8198104939203018, 1.4176050749539744, 1.2589601790748008, -1.3955700883859625, -0.4489693032396428, -0.3009046524266739, -0.016588214524852377, 0.9698090210975429, -0.6137469606864169, -0.20088524903735075, -0.10278301890788685, 0.6922468076076531, 0.6498973359744525, -0.23976091733386232, -0.38129637967681684, -0.20368500923534597, 0.3403706048543813, -0.18139789155237307, -0.08487756799296732, -0.11665208186047678, -0.222318410049688, -0.12440490043064825, -0.12998840381832422, -0.3325686123978373, 3.9078459107568415, -0.049820315745516354, -0.2028043933758492, -0.04066125916307626, -0.9584418353485407, -0.0673210918705195, -0.3072751283810004, -0.18745843779219346, -0.09688008109790391, -0.04133453468645543, -0.31588312608838226, -0.06565132566175902, -0.129769382379629, -0.059909658472185774], [1.0, 0.8487777934708937, 0.2395126850076692, 0.0, 0.0, -0.6464734285072543, 0.0, 0.9324047124601502, 0.0806022183602731, -0.08132801333306595, -0.7054150500697965, -0.7943062651718347, -1.3955700883859625, -0.4489693032396428, -0.3009046524266739, -0.016588214524852377, 0.9698090210975429, 1.629335888795913, -0.20088524903735075, -0.10278301890788685, -1.4445714206989186, 0.6498973359744525, -0.23976091733386232, -0.38129637967681684, -0.20368500923534597, 0.3403706048543813, -0.18139789155237307, -0.08487756799296732, -0.11665208186047678, -0.222318410049688, -0.12440490043064825, -0.12998840381832422, -0.3325686123978373, -0.2558954087416691, -0.049820315745516354, -0.2028043933758492, -0.04066125916307626, 1.0433600903535654, -0.0673210918705195, -0.3072751283810004, -0.18745843779219346, -0.09688008109790391, -0.04133453468645543, -0.31588312608838226, -0.06565132566175902, -0.129769382379629, -0.059909658472185774], [1.0, -0.6050471425703364, -0.2548858608232687, 0.0, 0.0, 1.5468539120041043, 0.0, -1.385217777824756, 1.7355044057770617, -1.0390251903470342, -0.7054150500697965, 1.2589601790748008, -1.3955700883859625, 2.227323608003554, -0.3009046524266739, -0.016588214524852377, -1.0311308084458606, -0.6137469606864169, -0.20088524903735075, -0.10278301890788685, 0.6922468076076531, -1.5387044949196873, -0.23976091733386232, 2.6226315356357732, -0.20368500923534597, 0.3403706048543813, -0.18139789155237307, -0.08487756799296732, -0.11665208186047678, -0.222318410049688, -0.12440490043064825, -0.12998840381832422, -0.3325686123978373, -0.2558954087416691, -0.049820315745516354, -0.2028043933758492, -0.04066125916307626, 1.0433600903535654, -0.0673210918705195, -0.3072751283810004, -0.18745843779219346, -0.09688008109790391, -0.04133453468645543, -0.31588312608838226, -0.06565132566175902, -0.129769382379629, -0.059909658472185774], [1.0, -0.6050471425703364, -0.3098190325822618, 0.0, 0.0, 1.5468539120041043, 0.0, -0.2264065326823029, -1.1297065941336235, 0.1345580434516121, 1.4176050749539744, 1.2589601790748008, 0.7165530156539135, -0.4489693032396428, -0.3009046524266739, -0.016588214524852377, 0.9698090210975429, -0.6137469606864169, -0.20088524903735075, -0.10278301890788685, 0.6922468076076531, 0.6498973359744525, -0.23976091733386232, -0.38129637967681684, -0.20368500923534597, 0.3403706048543813, -0.18139789155237307, -0.08487756799296732, -0.11665208186047678, -0.222318410049688, -0.12440490043064825, -0.12998840381832422, -0.3325686123978373, 3.9078459107568415, -0.049820315745516354, -0.2028043933758492, -0.04066125916307626, -0.9584418353485407, -0.0673210918705195, -0.3072751283810004, -0.18745843779219346, -0.09688008109790391, -0.04133453468645543, -0.31588312608838226, -0.06565132566175902, -0.129769382379629, -0.059909658472185774], [1.0, 0.8487777934708937, -0.8591507501721928, 0.0, 0.0, -0.6464734285072543, 0.0, 0.9324047124601502, -1.215242493439441, -0.986717995971892, -0.7054150500697965, -0.7943062651718347, -1.3955700883859625, -0.4489693032396428, -0.3009046524266739, -0.016588214524852377, -1.0311308084458606, -0.6137469606864169, -0.20088524903735075, -0.10278301890788685, 0.6922468076076531, 0.6498973359744525, -0.23976091733386232, -0.38129637967681684, -0.20368500923534597, -2.937973721180797, -0.18139789155237307, -0.08487756799296732, -0.11665208186047678, 4.498052036974937, -0.12440490043064825, -0.12998840381832422, -0.3325686123978373, -0.2558954087416691, -0.049820315745516354, -0.2028043933758492, -0.04066125916307626, -0.9584418353485407, -0.0673210918705195, -0.3072751283810004, -0.18745843779219346, -0.09688008109790391, -0.04133453468645543, 3.1657274358621015, -0.06565132566175902, -0.129769382379629, -0.059909658472185774], [1.0, 0.8487777934708937, 1.338176120187531, 0.0, 0.0, -0.6464734285072543, 0.0, 0.9324047124601502, -0.8428955419415183, 0.5406520797822622, 1.4176050749539744, 1.2589601790748008, 0.7165530156539135, -0.4489693032396428, -0.3009046524266739, -0.016588214524852377, -1.0311308084458606, 1.629335888795913, -0.20088524903735075, -0.10278301890788685, -1.4445714206989186, 0.6498973359744525, -0.23976091733386232, -0.38129637967681684, -0.20368500923534597, 0.3403706048543813, -0.18139789155237307, -0.08487756799296732, -0.11665208186047678, -0.222318410049688, -0.12440490043064825, -0.12998840381832422, -0.3325686123978373, -0.2558954087416691, -0.049820315745516354, -0.2028043933758492, -0.04066125916307626, 1.0433600903535654, -0.0673210918705195, -0.3072751283810004, -0.18745843779219346, -0.09688008109790391, -0.04133453468645543, -0.31588312608838226, -0.06565132566175902, -0.129769382379629, -0.059909658472185774], [1.0, 0.8487777934708937, -0.47461854785924107, 0.0, 0.0, 1.5468539120041043, 0.0, 0.9324047124601502, -0.6336467035267223, -0.9810117565855128, -0.7054150500697965, -0.7943062651718347, 0.7165530156539135, -0.4489693032396428, -0.3009046524266739, -0.016588214524852377, 0.9698090210975429, 1.629335888795913, -0.20088524903735075, -0.10278301890788685, -1.4445714206989186, -1.5387044949196873, -0.23976091733386232, -0.38129637967681684, -0.20368500923534597, 0.3403706048543813, -0.18139789155237307, -0.08487756799296732, -0.11665208186047678, -0.222318410049688, -0.12440490043064825, -0.12998840381832422, -0.3325686123978373, -0.2558954087416691, -0.049820315745516354, -0.2028043933758492, -0.04066125916307626, -0.9584418353485407, -0.0673210918705195, -0.3072751283810004, -0.18745843779219346, -0.09688008109790391, -0.04133453468645543, -0.31588312608838226, 15.231949237190422, -0.129769382379629, -0.059909658472185774], [1.0, -0.6050471425703364, -0.969017093690179, 0.0, 0.0, -0.6464734285072543, 0.0, -0.2264065326823029, 0.9823535635843141, -1.0390251903470342, -0.7054150500697965, -0.7943062651718347, -1.3955700883859625, 2.227323608003554, -0.3009046524266739, -0.016588214524852377, -1.0311308084458606, -0.6137469606864169, -0.20088524903735075, -0.10278301890788685, 0.6922468076076531, 0.6498973359744525, -0.23976091733386232, -0.38129637967681684, -0.20368500923534597, 0.3403706048543813, -0.18139789155237307, -0.08487756799296732, -0.11665208186047678, -0.222318410049688, -0.12440490043064825, -0.12998840381832422, -0.3325686123978373, -0.2558954087416691, -0.049820315745516354, -0.2028043933758492, -0.04066125916307626, 1.0433600903535654, -0.0673210918705195, -0.3072751283810004, -0.18745843779219346, -0.09688008109790391, -0.04133453468645543, -0.31588312608838226, -0.06565132566175902, -0.129769382379629, -0.059909658472185774], [1.0, -0.6050471425703364, -0.9140839219311858, 0.0, 0.0, -0.6464734285072543, 0.0, -0.2264065326823029, 0.2782529687336025, -0.5249881256240454, 1.4176050749539744, 1.2589601790748008, -1.3955700883859625, -0.4489693032396428, -0.3009046524266739, -0.016588214524852377, 0.9698090210975429, -0.6137469606864169, -0.20088524903735075, -0.10278301890788685, 0.6922468076076531, 0.6498973359744525, -0.23976091733386232, -0.38129637967681684, -0.20368500923534597, -2.937973721180797, -0.18139789155237307, 11.781659341793041, -0.11665208186047678, -0.222318410049688, -0.12440490043064825, -0.12998840381832422, -0.3325686123978373, -0.2558954087416691, -0.049820315745516354, -0.2028043933758492, -0.04066125916307626, -0.9584418353485407, -0.0673210918705195, -0.3072751283810004, -0.18745843779219346, -0.09688008109790391, -0.04133453468645543, -0.31588312608838226, -0.06565132566175902, 7.705973224762421, -0.059909658472185774], [1.0, -0.6050471425703364, -1.4084824677621237, 0.0, 0.0, -0.6464734285072543, 0.0, -0.2264065326823029, 0.5662721550966935, -0.017132820236300462, -0.7054150500697965, -0.7943062651718347, -1.3955700883859625, -0.4489693032396428, -0.3009046524266739, -0.016588214524852377, 0.9698090210975429, -0.6137469606864169, -0.20088524903735075, -0.10278301890788685, 0.6922468076076531, 0.6498973359744525, -0.23976091733386232, -0.38129637967681684, -0.20368500923534597, 0.3403706048543813, -0.18139789155237307, -0.08487756799296732, -0.11665208186047678, -0.222318410049688, -0.12440490043064825, -0.12998840381832422, -0.3325686123978373, -0.2558954087416691, -0.049820315745516354, -0.2028043933758492, -0.04066125916307626, 1.0433600903535654, -0.0673210918705195, -0.3072751283810004, -0.18745843779219346, -0.09688008109790391, -0.04133453468645543, -0.31588312608838226, -0.06565132566175902, -0.129769382379629, -0.059909658472185774], [1.0, -0.6050471425703364, -0.3098190325822618, 0.0, 0.0, -0.6464734285072543, 0.0, -0.2264065326823029, -0.11898154668663469, -0.3799545412202418, -0.7054150500697965, -0.7943062651718347, 0.7165530156539135, -0.4489693032396428, -0.3009046524266739, -0.016588214524852377, -1.0311308084458606, -0.6137469606864169, -0.20088524903735075, -0.10278301890788685, 0.6922468076076531, 0.6498973359744525, -0.23976091733386232, -0.38129637967681684, -0.20368500923534597, 0.3403706048543813, -0.18139789155237307, -0.08487756799296732, -0.11665208186047678, -0.222318410049688, -0.12440490043064825, -0.12998840381832422, -0.3325686123978373, -0.2558954087416691, -0.049820315745516354, -0.2028043933758492, -0.04066125916307626, 1.0433600903535654, -0.0673210918705195, -0.3072751283810004, -0.18745843779219346, -0.09688008109790391, -0.04133453468645543, -0.31588312608838226, -0.06565132566175902, -0.129769382379629, -0.059909658472185774], [1.0, -0.6050471425703364, -0.5844848913772273, 0.0, 0.0, -0.6464734285072543, 0.0, -0.2264065326823029, 0.051606998256605925, 0.44031737057176185, 1.4176050749539744, 1.2589601790748008, 0.7165530156539135, -0.4489693032396428, -0.3009046524266739, -0.016588214524852377, 0.9698090210975429, -0.6137469606864169, -0.20088524903735075, -0.10278301890788685, 0.6922468076076531, 0.6498973359744525, -0.23976091733386232, -0.38129637967681684, -0.20368500923534597, -2.937973721180797, -0.18139789155237307, -0.08487756799296732, -0.11665208186047678, 4.498052036974937, -0.12440490043064825, -0.12998840381832422, 3.006897978945087, -0.2558954087416691, -0.049820315745516354, -0.2028043933758492, -0.04066125916307626, -0.9584418353485407, -0.0673210918705195, -0.3072751283810004, -0.18745843779219346, -0.09688008109790391, -0.04133453468645543, -0.31588312608838226, -0.06565132566175902, -0.129769382379629, -0.059909658472185774], [1.0, 0.8487777934708937, -0.19995268906427557, 0.0, 0.0, -0.6464734285072543, 0.0, 0.9324047124601502, -1.1111013279004374, -0.5416313238343179, 1.4176050749539744, -0.7943062651718347, -1.3955700883859625, -0.4489693032396428, -0.3009046524266739, -0.016588214524852377, 0.9698090210975429, -0.6137469606864169, -0.20088524903735075, -0.10278301890788685, 0.6922468076076531, 0.6498973359744525, -0.23976091733386232, -0.38129637967681684, -0.20368500923534597, 0.3403706048543813, -0.18139789155237307, -0.08487756799296732, -0.11665208186047678, -0.222318410049688, -0.12440490043064825, -0.12998840381832422, 3.006897978945087, -0.2558954087416691, -0.049820315745516354, -0.2028043933758492, -0.04066125916307626, -0.9584418353485407, -0.0673210918705195, -0.3072751283810004, -0.18745843779219346, -0.09688008109790391, -0.04133453468645543, -0.31588312608838226, -0.06565132566175902, -0.129769382379629, -0.059909658472185774], [1.0, -0.6050471425703364, 0.5141785438026347, 0.0, 0.0, -0.6464734285072543, 0.0, -1.385217777824756, -1.2145176129368493, -0.9738789573525389, -0.7054150500697965, 1.2589601790748008, 0.7165530156539135, -0.4489693032396428, -0.3009046524266739, -0.016588214524852377, 0.9698090210975429, 1.629335888795913, -0.20088524903735075, -0.10278301890788685, -1.4445714206989186, -1.5387044949196873, 4.170820735037542, -0.38129637967681684, -0.20368500923534597, -2.937973721180797, -0.18139789155237307, -0.08487756799296732, 8.572493769836923, -0.222318410049688, -0.12440490043064825, -0.12998840381832422, -0.3325686123978373, -0.2558954087416691, -0.049820315745516354, -0.2028043933758492, -0.04066125916307626, 1.0433600903535654, -0.0673210918705195, -0.3072751283810004, -0.18745843779219346, -0.09688008109790391, -0.04133453468645543, -0.31588312608838226, -0.06565132566175902, -0.129769382379629, -0.059909658472185774], [1.0, 0.8487777934708937, -0.03515317378729629, 0.0, 0.0, -0.6464734285072543, 0.0, 0.9324047124601502, -1.193737705195888, 0.4954776846400936, -0.7054150500697965, -0.7943062651718347, 0.7165530156539135, -0.4489693032396428, -0.3009046524266739, -0.016588214524852377, -1.0311308084458606, 1.629335888795913, -0.20088524903735075, -0.10278301890788685, -1.4445714206989186, 0.6498973359744525, -0.23976091733386232, -0.38129637967681684, -0.20368500923534597, 0.3403706048543813, -0.18139789155237307, -0.08487756799296732, -0.11665208186047678, -0.222318410049688, -0.12440490043064825, -0.12998840381832422, -0.3325686123978373, -0.2558954087416691, -0.049820315745516354, -0.2028043933758492, -0.04066125916307626, -0.9584418353485407, -0.0673210918705195, -0.3072751283810004, -0.18745843779219346, -0.09688008109790391, -0.04133453468645543, -0.31588312608838226, -0.06565132566175902, -0.129769382379629, -0.059909658472185774], [1.0, -0.6050471425703364, -0.969017093690179, 0.0, 0.0, 1.5468539120041043, 0.0, -1.385217777824756, 1.9418537221814913, -1.0390251903470342, -0.7054150500697965, -0.7943062651718347, 0.7165530156539135, 2.227323608003554, -0.3009046524266739, -0.016588214524852377, -1.0311308084458606, -0.6137469606864169, -0.20088524903735075, -0.10278301890788685, 0.6922468076076531, -1.5387044949196873, -0.23976091733386232, -0.38129637967681684, 4.909540188074617, 0.3403706048543813, -0.18139789155237307, -0.08487756799296732, -0.11665208186047678, -0.222318410049688, -0.12440490043064825, -0.12998840381832422, -0.3325686123978373, -0.2558954087416691, -0.049820315745516354, -0.2028043933758492, -0.04066125916307626, 1.0433600903535654, -0.0673210918705195, -0.3072751283810004, -0.18745843779219346, -0.09688008109790391, -0.04133453468645543, -0.31588312608838226, -0.06565132566175902, -0.129769382379629, -0.059909658472185774], [1.0, -0.6050471425703364, -0.3098190325822618, 0.0, 0.0, 1.5468539120041043, 0.0, -1.385217777824756, -1.8512043210465354, -0.32146558750985543, 1.4176050749539744, -0.7943062651718347, 0.7165530156539135, -0.4489693032396428, -0.3009046524266739, -0.016588214524852377, 0.9698090210975429, -0.6137469606864169, -0.20088524903735075, -0.10278301890788685, 0.6922468076076531, -1.5387044949196873, -0.23976091733386232, 2.6226315356357732, -0.20368500923534597, 0.3403706048543813, -0.18139789155237307, -0.08487756799296732, -0.11665208186047678, -0.222318410049688, -0.12440490043064825, -0.12998840381832422, 3.006897978945087, -0.2558954087416691, -0.049820315745516354, -0.2028043933758492, -0.04066125916307626, -0.9584418353485407, -0.0673210918705195, -0.3072751283810004, -0.18745843779219346, -0.09688008109790391, -0.04133453468645543, -0.31588312608838226, -0.06565132566175902, -0.129769382379629, -0.059909658472185774], [1.0, -0.6050471425703364, -1.4084824677621237, 0.0, 0.0, 1.5468539120041043, 0.0, -0.2264065326823029, 1.3373033830200365, -1.0390251903470342, -0.7054150500697965, -0.7943062651718347, 0.7165530156539135, 2.227323608003554, -0.3009046524266739, -0.016588214524852377, -1.0311308084458606, -0.6137469606864169, -0.20088524903735075, -0.10278301890788685, 0.6922468076076531, 0.6498973359744525, -0.23976091733386232, -0.38129637967681684, -0.20368500923534597, 0.3403706048543813, -0.18139789155237307, -0.08487756799296732, -0.11665208186047678, -0.222318410049688, -0.12440490043064825, -0.12998840381832422, -0.3325686123978373, -0.2558954087416691, -0.049820315745516354, -0.2028043933758492, -0.04066125916307626, 1.0433600903535654, -0.0673210918705195, -0.3072751283810004, -0.18745843779219346, -0.09688008109790391, -0.04133453468645543, -0.31588312608838226, -0.06565132566175902, -0.129769382379629, -0.059909658472185774], [1.0, 0.8487777934708937, -0.8591507501721928, 0.0, 0.0, -0.6464734285072543, 0.0, 0.9324047124601502, -0.9004027284804578, 0.5168760823390156, -0.7054150500697965, -0.7943062651718347, -1.3955700883859625, -0.4489693032396428, -0.3009046524266739, -0.016588214524852377, -1.0311308084458606, 1.629335888795913, -0.20088524903735075, -0.10278301890788685, -1.4445714206989186, 0.6498973359744525, -0.23976091733386232, -0.38129637967681684, -0.20368500923534597, -2.937973721180797, -0.18139789155237307, -0.08487756799296732, -0.11665208186047678, 4.498052036974937, -0.12440490043064825, -0.12998840381832422, 3.006897978945087, -0.2558954087416691, -0.049820315745516354, -0.2028043933758492, -0.04066125916307626, -0.9584418353485407, -0.0673210918705195, -0.3072751283810004, -0.18745843779219346, -0.09688008109790391, -0.04133453468645543, -0.31588312608838226, -0.06565132566175902, -0.129769382379629, -0.059909658472185774], [1.0, -0.6050471425703364, -0.5844848913772273, 0.0, 0.0, 1.5468539120041043, 0.0, -1.385217777824756, 0.8057243477861428, -0.9814872765343777, -0.7054150500697965, -0.7943062651718347, 0.7165530156539135, -0.4489693032396428, -0.3009046524266739, -0.016588214524852377, -1.0311308084458606, 1.629335888795913, -0.20088524903735075, -0.10278301890788685, -1.4445714206989186, -1.5387044949196873, -0.23976091733386232, 2.6226315356357732, -0.20368500923534597, 0.3403706048543813, -0.18139789155237307, -0.08487756799296732, -0.11665208186047678, -0.222318410049688, -0.12440490043064825, -0.12998840381832422, -0.3325686123978373, -0.2558954087416691, -0.049820315745516354, -0.2028043933758492, -0.04066125916307626, 1.0433600903535654, -0.0673210918705195, -0.3072751283810004, -0.18745843779219346, -0.09688008109790391, -0.04133453468645543, -0.31588312608838226, -0.06565132566175902, -0.129769382379629, -0.059909658472185774], [1.0, 3.029515197532739, -0.3098190325822618, 0.0, 0.0, -0.6464734285072543, 0.0, 2.67062158017383, -0.43962035566635094, 0.8240619693057601, 1.4176050749539744, -0.7943062651718347, 0.7165530156539135, -0.4489693032396428, -0.3009046524266739, -0.016588214524852377, 0.9698090210975429, 1.629335888795913, -0.20088524903735075, -0.10278301890788685, -1.4445714206989186, 0.6498973359744525, -0.23976091733386232, -0.38129637967681684, -0.20368500923534597, 0.3403706048543813, -0.18139789155237307, -0.08487756799296732, -0.11665208186047678, -0.222318410049688, -0.12440490043064825, -0.12998840381832422, -0.3325686123978373, -0.2558954087416691, -0.049820315745516354, -0.2028043933758492, -0.04066125916307626, 1.0433600903535654, -0.0673210918705195, -0.3072751283810004, -0.18745843779219346, -0.09688008109790391, -0.04133453468645543, -0.31588312608838226, -0.06565132566175902, -0.129769382379629, -0.059909658472185774], [1.0, -0.6050471425703364, -0.3098190325822618, 0.0, 0.0, -0.6464734285072543, 0.0, -1.385217777824756, 1.3143488337713, -1.0390251903470342, -0.7054150500697965, -0.7943062651718347, 0.7165530156539135, 2.227323608003554, -0.3009046524266739, -0.016588214524852377, -1.0311308084458606, -0.6137469606864169, -0.20088524903735075, -0.10278301890788685, 0.6922468076076531, -1.5387044949196873, -0.23976091733386232, -0.38129637967681684, 4.909540188074617, 0.3403706048543813, -0.18139789155237307, -0.08487756799296732, -0.11665208186047678, -0.222318410049688, -0.12440490043064825, -0.12998840381832422, -0.3325686123978373, -0.2558954087416691, -0.049820315745516354, -0.2028043933758492, -0.04066125916307626, 1.0433600903535654, -0.0673210918705195, -0.3072751283810004, -0.18745843779219346, -0.09688008109790391, -0.04133453468645543, -0.31588312608838226, -0.06565132566175902, -0.129769382379629, -0.059909658472185774], [1.0, -0.6050471425703364, 0.5141785438026347, 0.0, 0.0, -0.6464734285072543, 0.0, -0.2264065326823029, -0.9687831225582721, -0.2843750314983909, 1.4176050749539744, 1.2589601790748008, 0.7165530156539135, -0.4489693032396428, -0.3009046524266739, -0.016588214524852377, 0.9698090210975429, -0.6137469606864169, 4.977964965507117, -0.10278301890788685, -1.4445714206989186, 0.6498973359744525, -0.23976091733386232, -0.38129637967681684, -0.20368500923534597, 0.3403706048543813, -0.18139789155237307, -0.08487756799296732, -0.11665208186047678, -0.222318410049688, -0.12440490043064825, -0.12998840381832422, -0.3325686123978373, -0.2558954087416691, -0.049820315745516354, -0.2028043933758492, -0.04066125916307626, 1.0433600903535654, -0.0673210918705195, -0.3072751283810004, -0.18745843779219346, -0.09688008109790391, -0.04133453468645543, -0.31588312608838226, -0.06565132566175902, -0.129769382379629, -0.059909658472185774], [1.0, -0.6050471425703364, -0.5844848913772273, 0.0, 0.0, 1.5468539120041043, 0.0, -0.2264065326823029, -0.6877711143869004, -0.6695461900789839, -0.7054150500697965, -0.7943062651718347, 0.7165530156539135, -0.4489693032396428, -0.3009046524266739, -0.016588214524852377, 0.9698090210975429, -0.6137469606864169, -0.20088524903735075, -0.10278301890788685, 0.6922468076076531, 0.6498973359744525, -0.23976091733386232, -0.38129637967681684, -0.20368500923534597, 0.3403706048543813, -0.18139789155237307, -0.08487756799296732, -0.11665208186047678, -0.222318410049688, -0.12440490043064825, -0.12998840381832422, 3.006897978945087, -0.2558954087416691, -0.049820315745516354, -0.2028043933758492, -0.04066125916307626, -0.9584418353485407, -0.0673210918705195, -0.3072751283810004, -0.18745843779219346, -0.09688008109790391, -0.04133453468645543, -0.31588312608838226, -0.06565132566175902, -0.129769382379629, -0.059909658472185774], [1.0, -0.6050471425703364, -1.4084824677621237, 0.0, 0.0, -0.6464734285072543, 0.0, -1.385217777824756, 1.463915844139382, -1.0390251903470342, -0.7054150500697965, -0.7943062651718347, 0.7165530156539135, 2.227323608003554, -0.3009046524266739, -0.016588214524852377, -1.0311308084458606, -0.6137469606864169, -0.20088524903735075, -0.10278301890788685, 0.6922468076076531, -1.5387044949196873, -0.23976091733386232, -0.38129637967681684, 4.909540188074617, 0.3403706048543813, -0.18139789155237307, -0.08487756799296732, -0.11665208186047678, -0.222318410049688, -0.12440490043064825, -0.12998840381832422, -0.3325686123978373, -0.2558954087416691, -0.049820315745516354, -0.2028043933758492, -0.04066125916307626, 1.0433600903535654, -0.0673210918705195, -0.3072751283810004, -0.18745843779219346, -0.09688008109790391, -0.04133453468645543, -0.31588312608838226, -0.06565132566175902, -0.129769382379629, -0.059909658472185774], [1.0, -0.6050471425703364, -0.5844848913772273, 0.0, 0.0, -0.6464734285072543, 0.0, -0.2264065326823029, -0.14459399111154, -0.7337413831757494, -0.7054150500697965, -0.7943062651718347, -1.3955700883859625, -0.4489693032396428, -0.3009046524266739, -0.016588214524852377, 0.9698090210975429, -0.6137469606864169, -0.20088524903735075, -0.10278301890788685, 0.6922468076076531, 0.6498973359744525, -0.23976091733386232, -0.38129637967681684, -0.20368500923534597, 0.3403706048543813, -0.18139789155237307, -0.08487756799296732, -0.11665208186047678, -0.222318410049688, -0.12440490043064825, -0.12998840381832422, -0.3325686123978373, -0.2558954087416691, -0.049820315745516354, -0.2028043933758492, -0.04066125916307626, -0.9584418353485407, -0.0673210918705195, -0.3072751283810004, -0.18745843779219346, -0.09688008109790391, -0.04133453468645543, 3.1657274358621015, -0.06565132566175902, -0.129769382379629, -0.059909658472185774], [1.0, -0.6050471425703364, 1.6128419789824966, 0.0, 0.0, -0.6464734285072543, 0.0, -0.2264065326823029, -1.2589769504291386, 0.2505849109746549, 1.4176050749539744, 1.2589601790748008, 0.7165530156539135, -0.4489693032396428, -0.3009046524266739, -0.016588214524852377, 0.9698090210975429, 1.629335888795913, -0.20088524903735075, -0.10278301890788685, -1.4445714206989186, 0.6498973359744525, -0.23976091733386232, -0.38129637967681684, -0.20368500923534597, 0.3403706048543813, -0.18139789155237307, -0.08487756799296732, -0.11665208186047678, -0.222318410049688, -0.12440490043064825, -0.12998840381832422, -0.3325686123978373, -0.2558954087416691, -0.049820315745516354, -0.2028043933758492, -0.04066125916307626, 1.0433600903535654, -0.0673210918705195, -0.3072751283810004, -0.18745843779219346, -0.09688008109790391, -0.04133453468645543, -0.31588312608838226, -0.06565132566175902, -0.129769382379629, -0.059909658472185774], [1.0, -0.6050471425703364, -0.3098190325822618, 0.0, 0.0, -0.6464734285072543, 0.0, -0.2264065326823029, 0.9105903938277385, -0.540680283936588, -0.7054150500697965, -0.7943062651718347, 0.7165530156539135, -0.4489693032396428, -0.3009046524266739, -0.016588214524852377, 0.9698090210975429, -0.6137469606864169, -0.20088524903735075, -0.10278301890788685, 0.6922468076076531, 0.6498973359744525, -0.23976091733386232, -0.38129637967681684, -0.20368500923534597, 0.3403706048543813, -0.18139789155237307, -0.08487756799296732, -0.11665208186047678, -0.222318410049688, 8.038263205443114, -0.12998840381832422, -0.3325686123978373, -0.2558954087416691, -0.049820315745516354, -0.2028043933758492, -0.04066125916307626, -0.9584418353485407, -0.0673210918705195, -0.3072751283810004, -0.18745843779219346, -0.09688008109790391, -0.04133453468645543, -0.31588312608838226, -0.06565132566175902, -0.129769382379629, -0.059909658472185774], [1.0, 0.8487777934708937, 1.0635102613925655, 0.0, 0.0, 1.5468539120041043, 0.0, 0.9324047124601502, -1.5204171850305355, -0.5501906829138866, 1.4176050749539744, 1.2589601790748008, -1.3955700883859625, -0.4489693032396428, -0.3009046524266739, -0.016588214524852377, 0.9698090210975429, -0.6137469606864169, -0.20088524903735075, -0.10278301890788685, 0.6922468076076531, 0.6498973359744525, -0.23976091733386232, -0.38129637967681684, -0.20368500923534597, -2.937973721180797, 5.51274145035502, -0.08487756799296732, -0.11665208186047678, -0.222318410049688, -0.12440490043064825, -0.12998840381832422, -0.3325686123978373, -0.2558954087416691, -0.049820315745516354, -0.2028043933758492, -0.04066125916307626, 1.0433600903535654, -0.0673210918705195, -0.3072751283810004, -0.18745843779219346, -0.09688008109790391, -0.04133453468645543, -0.31588312608838226, -0.06565132566175902, -0.129769382379629, -0.059909658472185774], [1.0, 2.302602729512124, -0.03515317378729629, 0.0, 0.0, -0.6464734285072543, 0.0, 2.091215957602603, -0.6967113072521975, 0.1388377229913964, 1.4176050749539744, 1.2589601790748008, 0.7165530156539135, -0.4489693032396428, -0.3009046524266739, -0.016588214524852377, 0.9698090210975429, 1.629335888795913, -0.20088524903735075, -0.10278301890788685, -1.4445714206989186, 0.6498973359744525, -0.23976091733386232, -0.38129637967681684, -0.20368500923534597, 0.3403706048543813, -0.18139789155237307, -0.08487756799296732, -0.11665208186047678, -0.222318410049688, -0.12440490043064825, -0.12998840381832422, -0.3325686123978373, -0.2558954087416691, -0.049820315745516354, -0.2028043933758492, -0.04066125916307626, -0.9584418353485407, -0.0673210918705195, 3.2544120261628016, -0.18745843779219346, -0.09688008109790391, -0.04133453468645543, -0.31588312608838226, -0.06565132566175902, -0.129769382379629, -0.059909658472185774], [1.0, 0.8487777934708937, 1.0085770896335726, 0.0, 0.0, -0.6464734285072543, 0.0, 0.9324047124601502, -1.2224912984653578, 0.1564319610993989, -0.7054150500697965, 1.2589601790748008, 0.7165530156539135, -0.4489693032396428, -0.3009046524266739, -0.016588214524852377, 0.9698090210975429, 1.629335888795913, -0.20088524903735075, -0.10278301890788685, -1.4445714206989186, 0.6498973359744525, -0.23976091733386232, -0.38129637967681684, -0.20368500923534597, -2.937973721180797, -0.18139789155237307, -0.08487756799296732, -0.11665208186047678, 4.498052036974937, -0.12440490043064825, -0.12998840381832422, -0.3325686123978373, -0.2558954087416691, -0.049820315745516354, -0.2028043933758492, -0.04066125916307626, -0.9584418353485407, -0.0673210918705195, -0.3072751283810004, -0.18745843779219346, -0.09688008109790391, -0.04133453468645543, -0.31588312608838226, -0.06565132566175902, -0.129769382379629, -0.059909658472185774], [1.0, -0.6050471425703364, 1.6128419789824966, 0.0, 0.0, 1.5468539120041043, 0.0, -0.2264065326823029, 0.8306119117084569, -0.24110271615168236, -0.7054150500697965, 1.2589601790748008, -1.3955700883859625, -0.4489693032396428, -0.3009046524266739, -0.016588214524852377, -1.0311308084458606, 1.629335888795913, -0.20088524903735075, -0.10278301890788685, -1.4445714206989186, 0.6498973359744525, -0.23976091733386232, -0.38129637967681684, -0.20368500923534597, 0.3403706048543813, -0.18139789155237307, -0.08487756799296732, -0.11665208186047678, -0.222318410049688, -0.12440490043064825, -0.12998840381832422, -0.3325686123978373, -0.2558954087416691, -0.049820315745516354, -0.2028043933758492, -0.04066125916307626, -0.9584418353485407, -0.0673210918705195, -0.3072751283810004, -0.18745843779219346, -0.09688008109790391, -0.04133453468645543, -0.31588312608838226, -0.06565132566175902, -0.129769382379629, -0.059909658472185774], [1.0, -0.6050471425703364, 1.8875078377774621, 0.0, 0.0, -0.6464734285072543, 0.0, -0.2264065326823029, -0.6752065190086446, 1.46648942022228, 1.4176050749539744, -0.7943062651718347, 0.7165530156539135, -0.4489693032396428, -0.3009046524266739, -0.016588214524852377, 0.9698090210975429, 1.629335888795913, -0.20088524903735075, -0.10278301890788685, -1.4445714206989186, 0.6498973359744525, -0.23976091733386232, -0.38129637967681684, -0.20368500923534597, 0.3403706048543813, -0.18139789155237307, -0.08487756799296732, -0.11665208186047678, -0.222318410049688, -0.12440490043064825, -0.12998840381832422, -0.3325686123978373, -0.2558954087416691, -0.049820315745516354, -0.2028043933758492, -0.04066125916307626, -0.9584418353485407, -0.0673210918705195, 3.2544120261628016, -0.18745843779219346, -0.09688008109790391, -0.04133453468645543, -0.31588312608838226, -0.06565132566175902, -0.129769382379629, -0.059909658472185774], [1.0, -0.6050471425703364, 0.7888444025976001, 0.0, 0.0, 1.5468539120041043, 0.0, -0.2264065326823029, 0.3229539330600887, -0.22636159773686956, -0.7054150500697965, -0.7943062651718347, 0.7165530156539135, -0.4489693032396428, -0.3009046524266739, -0.016588214524852377, -1.0311308084458606, 1.629335888795913, -0.20088524903735075, -0.10278301890788685, -1.4445714206989186, -1.5387044949196873, -0.23976091733386232, -0.38129637967681684, -0.20368500923534597, 0.3403706048543813, -0.18139789155237307, -0.08487756799296732, -0.11665208186047678, -0.222318410049688, -0.12440490043064825, -0.12998840381832422, 3.006897978945087, -0.2558954087416691, -0.049820315745516354, -0.2028043933758492, -0.04066125916307626, -0.9584418353485407, -0.0673210918705195, -0.3072751283810004, -0.18745843779219346, -0.09688008109790391, -0.04133453468645543, -0.31588312608838226, -0.06565132566175902, -0.129769382379629, -0.059909658472185774], [1.0, 0.8487777934708937, -0.5844848913772273, 0.0, 0.0, -0.6464734285072543, 0.0, 0.9324047124601502, -1.427149227030407, -0.4978834885387443, -0.7054150500697965, -0.7943062651718347, -1.3955700883859625, -0.4489693032396428, -0.3009046524266739, -0.016588214524852377, 0.9698090210975429, -0.6137469606864169, -0.20088524903735075, -0.10278301890788685, 0.6922468076076531, -1.5387044949196873, -0.23976091733386232, -0.38129637967681684, -0.20368500923534597, 0.3403706048543813, -0.18139789155237307, -0.08487756799296732, -0.11665208186047678, -0.222318410049688, -0.12440490043064825, -0.12998840381832422, -0.3325686123978373, -0.2558954087416691, -0.049820315745516354, -0.2028043933758492, -0.04066125916307626, 1.0433600903535654, -0.0673210918705195, -0.3072751283810004, -0.18745843779219346, -0.09688008109790391, -0.04133453468645543, -0.31588312608838226, -0.06565132566175902, -0.129769382379629, -0.059909658472185774], [1.0, -0.6050471425703364, -0.6943512348952134, 0.0, 0.0, -0.6464734285072543, 0.0, -0.2264065326823029, 1.4334708630305315, -1.0390251903470342, -0.7054150500697965, -0.7943062651718347, 0.7165530156539135, 2.227323608003554, -0.3009046524266739, -0.016588214524852377, -1.0311308084458606, -0.6137469606864169, -0.20088524903735075, -0.10278301890788685, 0.6922468076076531, -1.5387044949196873, -0.23976091733386232, -0.38129637967681684, -0.20368500923534597, 0.3403706048543813, -0.18139789155237307, -0.08487756799296732, -0.11665208186047678, -0.222318410049688, -0.12440490043064825, -0.12998840381832422, -0.3325686123978373, -0.2558954087416691, -0.049820315745516354, -0.2028043933758492, -0.04066125916307626, 1.0433600903535654, -0.0673210918705195, -0.3072751283810004, -0.18745843779219346, -0.09688008109790391, -0.04133453468645543, -0.31588312608838226, -0.06565132566175902, -0.129769382379629, -0.059909658472185774], [1.0, -0.6050471425703364, -1.1338166089671582, 0.0, 0.0, -0.6464734285072543, 0.0, -1.385217777824756, 0.6112147462573772, -0.37900350132251187, -0.7054150500697965, -0.7943062651718347, 0.7165530156539135, -0.4489693032396428, -0.3009046524266739, -0.016588214524852377, -1.0311308084458606, -0.6137469606864169, -0.20088524903735075, -0.10278301890788685, 0.6922468076076531, -1.5387044949196873, -0.23976091733386232, 2.6226315356357732, -0.20368500923534597, 0.3403706048543813, -0.18139789155237307, -0.08487756799296732, -0.11665208186047678, -0.222318410049688, 8.038263205443114, -0.12998840381832422, -0.3325686123978373, -0.2558954087416691, -0.049820315745516354, -0.2028043933758492, -0.04066125916307626, -0.9584418353485407, -0.0673210918705195, -0.3072751283810004, -0.18745843779219346, -0.09688008109790391, -0.04133453468645543, -0.31588312608838226, -0.06565132566175902, -0.129769382379629, -0.059909658472185774], [1.0, -0.6050471425703364, -0.3098190325822618, 0.0, 0.0, -0.6464734285072543, 0.0, -0.2264065326823029, 0.9337865699106718, -0.5026386880273936, -0.7054150500697965, -0.7943062651718347, 0.7165530156539135, -0.4489693032396428, -0.3009046524266739, -0.016588214524852377, 0.9698090210975429, -0.6137469606864169, -0.20088524903735075, -0.10278301890788685, 0.6922468076076531, 0.6498973359744525, -0.23976091733386232, -0.38129637967681684, -0.20368500923534597, 0.3403706048543813, -0.18139789155237307, -0.08487756799296732, -0.11665208186047678, -0.222318410049688, -0.12440490043064825, -0.12998840381832422, -0.3325686123978373, -0.2558954087416691, -0.049820315745516354, -0.2028043933758492, -0.04066125916307626, 1.0433600903535654, -0.0673210918705195, -0.3072751283810004, -0.18745843779219346, -0.09688008109790391, -0.04133453468645543, -0.31588312608838226, -0.06565132566175902, -0.129769382379629, -0.059909658472185774], [1.0, -0.6050471425703364, -1.4084824677621237, 0.0, 0.0, 1.5468539120041043, 0.0, -0.2264065326823029, -0.9049936383302051, -0.371395182140673, -0.7054150500697965, 1.2589601790748008, -1.3955700883859625, -0.4489693032396428, -0.3009046524266739, -0.016588214524852377, 0.9698090210975429, -0.6137469606864169, -0.20088524903735075, -0.10278301890788685, 0.6922468076076531, 0.6498973359744525, -0.23976091733386232, -0.38129637967681684, -0.20368500923534597, 0.3403706048543813, -0.18139789155237307, -0.08487756799296732, -0.11665208186047678, -0.222318410049688, -0.12440490043064825, -0.12998840381832422, -0.3325686123978373, -0.2558954087416691, -0.049820315745516354, -0.2028043933758492, -0.04066125916307626, -0.9584418353485407, -0.0673210918705195, -0.3072751283810004, -0.18745843779219346, -0.09688008109790391, -0.04133453468645543, 3.1657274358621015, -0.06565132566175902, -0.129769382379629, -0.059909658472185774], [1.0, 0.8487777934708937, 1.0635102613925655, 0.0, 0.0, 1.5468539120041043, 0.0, 0.9324047124601502, -0.37921364711704514, -0.263927673697199, 1.4176050749539744, 1.2589601790748008, 0.7165530156539135, -0.4489693032396428, -0.3009046524266739, -0.016588214524852377, 0.9698090210975429, -0.6137469606864169, -0.20088524903735075, -0.10278301890788685, 0.6922468076076531, 0.6498973359744525, -0.23976091733386232, -0.38129637967681684, -0.20368500923534597, 0.3403706048543813, -0.18139789155237307, -0.08487756799296732, -0.11665208186047678, -0.222318410049688, -0.12440490043064825, -0.12998840381832422, -0.3325686123978373, -0.2558954087416691, -0.049820315745516354, -0.2028043933758492, -0.04066125916307626, 1.0433600903535654, -0.0673210918705195, -0.3072751283810004, -0.18745843779219346, -0.09688008109790391, -0.04133453468645543, -0.31588312608838226, -0.06565132566175902, -0.129769382379629, -0.059909658472185774], [1.0, -0.6050471425703364, -0.3098190325822618, 0.0, 0.0, -0.6464734285072543, 0.0, -0.2264065326823029, -0.13565379824624288, 0.18306107823583495, 1.4176050749539744, -0.7943062651718347, -1.3955700883859625, -0.4489693032396428, -0.3009046524266739, -0.016588214524852377, -1.0311308084458606, -0.6137469606864169, -0.20088524903735075, -0.10278301890788685, 0.6922468076076531, 0.6498973359744525, -0.23976091733386232, -0.38129637967681684, -0.20368500923534597, 0.3403706048543813, -0.18139789155237307, -0.08487756799296732, -0.11665208186047678, -0.222318410049688, -0.12440490043064825, -0.12998840381832422, -0.3325686123978373, -0.2558954087416691, -0.049820315745516354, -0.2028043933758492, -0.04066125916307626, 1.0433600903535654, -0.0673210918705195, -0.3072751283810004, -0.18745843779219346, -0.09688008109790391, -0.04133453468645543, -0.31588312608838226, -0.06565132566175902, -0.129769382379629, -0.059909658472185774], [1.0, -0.6050471425703364, -1.0239502654491721, 0.0, 0.0, -0.6464734285072543, 0.0, -0.2264065326823029, 0.8591238781437291, 2.5235702665490183, -0.7054150500697965, -0.7943062651718347, 0.7165530156539135, -0.4489693032396428, -0.3009046524266739, -0.016588214524852377, 0.9698090210975429, -0.6137469606864169, -0.20088524903735075, -0.10278301890788685, 0.6922468076076531, 0.6498973359744525, -0.23976091733386232, -0.38129637967681684, -0.20368500923534597, 0.3403706048543813, -0.18139789155237307, -0.08487756799296732, -0.11665208186047678, -0.222318410049688, -0.12440490043064825, -0.12998840381832422, -0.3325686123978373, -0.2558954087416691, -0.049820315745516354, -0.2028043933758492, -0.04066125916307626, 1.0433600903535654, -0.0673210918705195, -0.3072751283810004, -0.18745843779219346, -0.09688008109790391, -0.04133453468645543, -0.31588312608838226, -0.06565132566175902, -0.129769382379629, -0.059909658472185774], [1.0, -0.6050471425703364, -1.2436829524851445, 0.0, 0.0, -0.6464734285072543, 0.0, -0.2264065326823029, 1.1461765571700322, -1.0390251903470342, -0.7054150500697965, -0.7943062651718347, 0.7165530156539135, 2.227323608003554, -0.3009046524266739, -0.016588214524852377, -1.0311308084458606, -0.6137469606864169, -0.20088524903735075, -0.10278301890788685, 0.6922468076076531, 0.6498973359744525, -0.23976091733386232, -0.38129637967681684, -0.20368500923534597, 0.3403706048543813, -0.18139789155237307, -0.08487756799296732, -0.11665208186047678, -0.222318410049688, -0.12440490043064825, -0.12998840381832422, -0.3325686123978373, -0.2558954087416691, -0.049820315745516354, -0.2028043933758492, -0.04066125916307626, 1.0433600903535654, -0.0673210918705195, -0.3072751283810004, -0.18745843779219346, -0.09688008109790391, -0.04133453468645543, -0.31588312608838226, -0.06565132566175902, -0.129769382379629, -0.059909658472185774], [1.0, -0.6050471425703364, 0.5141785438026347, 0.0, 0.0, -0.6464734285072543, 0.0, -0.2264065326823029, -1.7477880360101234, -0.5012121281807989, 1.4176050749539744, 1.2589601790748008, 0.7165530156539135, -0.4489693032396428, -0.3009046524266739, -0.016588214524852377, 0.9698090210975429, -0.6137469606864169, -0.20088524903735075, -0.10278301890788685, 0.6922468076076531, 0.6498973359744525, -0.23976091733386232, -0.38129637967681684, -0.20368500923534597, 0.3403706048543813, -0.18139789155237307, -0.08487756799296732, -0.11665208186047678, -0.222318410049688, -0.12440490043064825, -0.12998840381832422, -0.3325686123978373, -0.2558954087416691, -0.049820315745516354, -0.2028043933758492, -0.04066125916307626, 1.0433600903535654, -0.0673210918705195, -0.3072751283810004, -0.18745843779219346, -0.09688008109790391, -0.04133453468645543, -0.31588312608838226, -0.06565132566175902, -0.129769382379629, -0.059909658472185774], [1.0, -0.6050471425703364, 2.1621736965724274, 0.0, 0.0, -0.6464734285072543, 0.0, -0.2264065326823029, 1.4627077099683954, 0.7936286925784047, 1.4176050749539744, 1.2589601790748008, 0.7165530156539135, -0.4489693032396428, -0.3009046524266739, -0.016588214524852377, 0.9698090210975429, 1.629335888795913, -0.20088524903735075, -0.10278301890788685, -1.4445714206989186, 0.6498973359744525, -0.23976091733386232, -0.38129637967681684, -0.20368500923534597, 0.3403706048543813, -0.18139789155237307, -0.08487756799296732, -0.11665208186047678, -0.222318410049688, -0.12440490043064825, -0.12998840381832422, -0.3325686123978373, -0.2558954087416691, -0.049820315745516354, -0.2028043933758492, -0.04066125916307626, -0.9584418353485407, -0.0673210918705195, 3.2544120261628016, -0.18745843779219346, -0.09688008109790391, -0.04133453468645543, -0.31588312608838226, -0.06565132566175902, -0.129769382379629, -0.059909658472185774], [1.0, 0.8487777934708937, 0.8437775743565933, 0.0, 0.0, 1.5468539120041043, 0.0, 0.9324047124601502, -1.1156922377501846, -0.7213778645052613, 1.4176050749539744, 1.2589601790748008, 0.7165530156539135, -0.4489693032396428, -0.3009046524266739, -0.016588214524852377, 0.9698090210975429, -0.6137469606864169, 4.977964965507117, -0.10278301890788685, -1.4445714206989186, 0.6498973359744525, -0.23976091733386232, -0.38129637967681684, -0.20368500923534597, 0.3403706048543813, -0.18139789155237307, -0.08487756799296732, -0.11665208186047678, -0.222318410049688, -0.12440490043064825, -0.12998840381832422, -0.3325686123978373, -0.2558954087416691, -0.049820315745516354, -0.2028043933758492, -0.04066125916307626, 1.0433600903535654, -0.0673210918705195, -0.3072751283810004, -0.18745843779219346, -0.09688008109790391, -0.04133453468645543, -0.31588312608838226, -0.06565132566175902, -0.129769382379629, -0.059909658472185774], [1.0, -0.6050471425703364, -0.3098190325822618, 0.0, 0.0, -0.6464734285072543, 0.0, -0.2264065326823029, 1.3380282635226277, -1.0390251903470342, -0.7054150500697965, -0.7943062651718347, -1.3955700883859625, 2.227323608003554, -0.3009046524266739, -0.016588214524852377, -1.0311308084458606, -0.6137469606864169, -0.20088524903735075, -0.10278301890788685, 0.6922468076076531, 0.6498973359744525, -0.23976091733386232, -0.38129637967681684, -0.20368500923534597, 0.3403706048543813, -0.18139789155237307, -0.08487756799296732, -0.11665208186047678, -0.222318410049688, -0.12440490043064825, -0.12998840381832422, -0.3325686123978373, -0.2558954087416691, -0.049820315745516354, -0.2028043933758492, -0.04066125916307626, 1.0433600903535654, -0.0673210918705195, -0.3072751283810004, -0.18745843779219346, -0.09688008109790391, -0.04133453468645543, -0.31588312608838226, -0.06565132566175902, -0.129769382379629, -0.059909658472185774], [1.0, -0.6050471425703364, -0.5844848913772273, 0.0, 0.0, -0.6464734285072543, 0.0, -0.2264065326823029, 1.6514182674764277, -1.0390251903470342, -0.7054150500697965, -0.7943062651718347, 0.7165530156539135, 2.227323608003554, -0.3009046524266739, -0.016588214524852377, -1.0311308084458606, -0.6137469606864169, -0.20088524903735075, -0.10278301890788685, 0.6922468076076531, 0.6498973359744525, -0.23976091733386232, -0.38129637967681684, -0.20368500923534597, 0.3403706048543813, -0.18139789155237307, -0.08487756799296732, -0.11665208186047678, -0.222318410049688, -0.12440490043064825, -0.12998840381832422, -0.3325686123978373, -0.2558954087416691, -0.049820315745516354, -0.2028043933758492, -0.04066125916307626, 1.0433600903535654, -0.0673210918705195, -0.3072751283810004, -0.18745843779219346, -0.09688008109790391, -0.04133453468645543, -0.31588312608838226, -0.06565132566175902, -0.129769382379629, -0.059909658472185774], [1.0, 0.8487777934708937, 0.2395126850076692, 0.0, 0.0, -0.6464734285072543, 0.0, -0.2264065326823029, -1.270333411636408, 0.4664709677593331, -0.7054150500697965, -0.7943062651718347, -1.3955700883859625, -0.4489693032396428, -0.3009046524266739, -0.016588214524852377, -1.0311308084458606, -0.6137469606864169, -0.20088524903735075, -0.10278301890788685, 0.6922468076076531, -1.5387044949196873, 4.170820735037542, -0.38129637967681684, -0.20368500923534597, 0.3403706048543813, -0.18139789155237307, -0.08487756799296732, -0.11665208186047678, -0.222318410049688, -0.12440490043064825, -0.12998840381832422, -0.3325686123978373, -0.2558954087416691, -0.049820315745516354, -0.2028043933758492, -0.04066125916307626, -0.9584418353485407, -0.0673210918705195, -0.3072751283810004, -0.18745843779219346, -0.09688008109790391, -0.04133453468645543, 3.1657274358621015, -0.06565132566175902, -0.129769382379629, -0.059909658472185774], [1.0, -0.6050471425703364, 0.7888444025976001, 0.0, 0.0, -0.6464734285072543, 0.0, -0.2264065326823029, -1.2014697638901992, 0.28434682734406497, 1.4176050749539744, 1.2589601790748008, 0.7165530156539135, -0.4489693032396428, -0.3009046524266739, -0.016588214524852377, 0.9698090210975429, -0.6137469606864169, -0.20088524903735075, -0.10278301890788685, 0.6922468076076531, 0.6498973359744525, -0.23976091733386232, -0.38129637967681684, -0.20368500923534597, -2.937973721180797, -0.18139789155237307, -0.08487756799296732, -0.11665208186047678, -0.222318410049688, -0.12440490043064825, -0.12998840381832422, -0.3325686123978373, -0.2558954087416691, -0.049820315745516354, -0.2028043933758492, -0.04066125916307626, -0.9584418353485407, -0.0673210918705195, -0.3072751283810004, -0.18745843779219346, -0.09688008109790391, -0.04133453468645543, 3.1657274358621015, -0.06565132566175902, -0.129769382379629, -0.059909658472185774], [1.0, -0.6050471425703364, 0.5141785438026347, 0.0, 0.0, 1.5468539120041043, 0.0, -1.385217777824756, 1.3377866366884308, 2.5235702665490183, -0.7054150500697965, -0.7943062651718347, 0.7165530156539135, -0.4489693032396428, -0.3009046524266739, -0.016588214524852377, -1.0311308084458606, 1.629335888795913, -0.20088524903735075, -0.10278301890788685, -1.4445714206989186, -1.5387044949196873, -0.23976091733386232, -0.38129637967681684, 4.909540188074617, 0.3403706048543813, -0.18139789155237307, -0.08487756799296732, -0.11665208186047678, -0.222318410049688, -0.12440490043064825, -0.12998840381832422, -0.3325686123978373, -0.2558954087416691, -0.049820315745516354, -0.2028043933758492, -0.04066125916307626, 1.0433600903535654, -0.0673210918705195, -0.3072751283810004, -0.18745843779219346, -0.09688008109790391, -0.04133453468645543, -0.31588312608838226, -0.06565132566175902, -0.129769382379629, -0.059909658472185774], [1.0, -0.6050471425703364, 0.2395126850076692, 0.0, 0.0, -0.6464734285072543, 0.0, -0.2264065326823029, -0.5800055463349384, -0.8302719327953303, -0.7054150500697965, -0.7943062651718347, -1.3955700883859625, -0.4489693032396428, -0.3009046524266739, -0.016588214524852377, 0.9698090210975429, -0.6137469606864169, -0.20088524903735075, -0.10278301890788685, 0.6922468076076531, -1.5387044949196873, -0.23976091733386232, -0.38129637967681684, -0.20368500923534597, 0.3403706048543813, -0.18139789155237307, -0.08487756799296732, -0.11665208186047678, -0.222318410049688, -0.12440490043064825, -0.12998840381832422, -0.3325686123978373, -0.2558954087416691, -0.049820315745516354, -0.2028043933758492, -0.04066125916307626, 1.0433600903535654, -0.0673210918705195, -0.3072751283810004, -0.18745843779219346, -0.09688008109790391, -0.04133453468645543, 