{"weights": [-0.005309303645970202, -0.001185458549738959, 0.00010457412397067753, 0.002347633684132841, 0.0018644776583326837, 0.001651672425848961, 0.00146660410623449, 0.0013496925922752054, 0.0012159280720804647, -0.00024115471681168232, -0.00018787694112757077, -0.00017558557248104504, -0.00014256332537157063, -0.00012963918989769712, -8.586626197903842e-05, -0.0011691189512700807, -0.0011112651141138529, -0.0010048147670080143, -0.0009536419367962557, -0.0008636244794226155, -0.000880170753485898, -0.00031125213855026824, -0.00037546368634976693, 0.00027267666494453375, 0.0002297369611517981, -0.0003227655935766496, 0.00026860117536916324, -0.0002738506107394046, 7.745663298814601e-05], "mean": [166967.48933333333, 35.449466666666666, -0.09403333333333333, -0.23236666666666667, -0.2596833333333333, -0.30396666666666666, -0.3393, -0.3637166666666667, 44311.62204166667, 42422.020683333336, 40155.15496666667, 36584.46161666667, 33789.493866666664, 32648.435633333334, 3496.7308, 3422.3069666666665, 3035.8179, 2718.296075, 2731.5471666666667, 2714.437875, 0.6037333333333333, 0.35283333333333333, 0.4676666666666667, 0.1639, 0.015133333333333334, 0.4553, 0.5321333333333333, 0.010766666666666667], "std": [128013.39432304505, 9.106024216864542, 0.9519828121337287, 0.9917939238547165, 0.9954928092424027, 0.9695887112402459, 0.9477721873270156, 0.9709101959548967, 51273.178645156026, 49237.4770008254, 46667.266461203304, 42712.41527059609, 39856.31530548028, 39302.233835160114, 3492.7427812827227, 3532.819885624835, 3355.632737998206, 3073.3014910490206, 3094.0912278070987, 3131.18074089347, 0.48912919609026045, 0.47785937667374284, 0.4989617764091414, 0.37019097509970206, 0.12208526685327338, 0.49800620177453636, 0.49897469683390905, 0.10320416945182961], "feature_names": ["bias", "bias", "LIMIT_BAL", "AGE", "PAY_0", "PAY_2", "PAY_3", "PAY_4", "PAY_5", "PAY_6", "BILL_AMT1", "BILL_AMT2", "BILL_AMT3", "BILL_AMT4", "BILL_AMT5", "BILL_AMT6", "PAY_AMT1", "PAY_AMT2", "PAY_AMT3", "PAY_AMT4", "PAY_AMT5", "PAY_AMT6", "SEX_2", "EDUCATION_1.0", "EDUCATION_2.0", "EDUCATION_3.0", "EDUCATION_3.5", "MARRIAGE_1", "MARRIAGE_2", "MARRIAGE_3"], "best_params": {"C": 0.1, "lr": 0.001, "n_iters": 10}, "X_test": [[1.0, 1.7422591740973485, 0.719362608458872, 0.09877629315866693, 0.23428926219223845, 0.26085907494496063, 0.3135006246904925, 0.3579974223098079, 0.37461411795037225, 2.302914624730187, 2.2973654664468373, 1.076297131632728, 0.43611531366986006, -0.10258082904378499, -0.830701780724885, 1.8679500921061065, 0.16352179053452065, 2.2772700997543094, 2.2356507960612597, -0.8828269645438409, 2.2703694590851033, 0.8101472368325819, 1.3543035843963733, -0.9372795448026199, -0.4427444509036382, -0.12395708117279325, 1.09376147939339, -1.0664535430550333, -0.10432395051337526], [1.0, -0.4450119429657058, 0.060458145094072456, -0.9516628400423285, 0.23428926219223845, 0.26085907494496063, 0.3135006246904925, 0.3579974223098079, 0.37461411795037225, -0.798207232769899, -0.22854584289817886, 0.2222295373129494, 0.35660681529800936, 0.011855238742261907, -0.23618086626488868, 2.1525401871244836, 2.2158483270507277, -0.010673963093281504, 0.09166166281455349, 0.08676306339021429, 0.09119950224224868, -1.2343023850531398, -0.738362268392254, -0.9372795448026199, -0.4427444509036382, 8.067039472095484, 1.09376147939339, -1.0664535430550333, -0.10432395051337526], [1.0, 0.7267404411752161, -0.708263728831527, 0.09877629315866693, 0.23428926219223845, 0.26085907494496063, -1.7492296616818674, -1.7522143213377483, -1.6853086311695775, 0.5373643430420773, 0.2361611525397968, -0.860456547204228, -0.8565299195770837, -0.8477826815571327, -0.830701780724885, -0.11645025857032233, -0.9687182130603801, -0.9046931345088168, -0.8844872795321344, -0.8828269645438409, 2.2703694590851033, 0.8101472368325819, 1.3543035843963733, -0.9372795448026199, -0.4427444509036382, -0.12395708117279325, 1.09376147939339, -1.0664535430550333, -0.10432395051337526], [1.0, -0.4450119429657058, -0.708263728831527, 0.09877629315866693, 0.23428926219223845, 0.26085907494496063, 0.3135006246904925, 0.3579974223098079, 0.37461411795037225, 1.1683375117605026, 1.2575985425822822, 2.1956898872257464, 0.8690105241809082, 1.0468480544059806, 1.1312986573015114, 1.093487107171791, -0.11953821036420453, 0.8833452083222538, 0.09166166281455349, 0.0657552794516431, 0.09471255399820104, -1.2343023850531398, 1.3543035843963733, -0.9372795448026199, -0.4427444509036382, -0.12395708117279325, -0.9142456426800266, 0.9376560968629695, -0.10432395051337526], [1.0, 0.25803948751884737, -0.818081139392327, 0.09877629315866693, -0.7739847108054885, 1.7676504711997876, 1.8605483394697626, -0.6971084495139703, -0.6553472566096027, -0.7186529685759556, -0.4110694112737344, -0.6381808326276401, -0.7940422334303023, -0.8220903918371344, 2.2508438003217703, 2.1525401871244836, -0.966736793054089, -0.9046931345088168, 1.1254033927596958, 2.2521807924429376, 0.7299361851426768, -1.2343023850531398, 1.3543035843963733, -0.9372795448026199, -0.4427444509036382, -0.12395708117279325, -0.9142456426800266, 0.9376560968629695, -0.10432395051337526], [1.0, -1.148063373450259, -0.2689940865883273, 1.67443499296016, 0.23428926219223845, 0.26085907494496063, -1.7492296616818674, -1.7522143213377483, -1.6853086311695775, -0.545560520740396, -0.44218392187252725, -0.860456547204228, -0.8565299195770837, -0.8477826815571327, -0.830701780724885, 0.4303979119378264, -0.9687182130603801, -0.9046931345088168, -0.8844872795321344, -0.8828269645438409, -0.8669055221083934, -1.2343023850531398, 1.3543035843963733, -0.9372795448026199, -0.4427444509036382, -0.12395708117279325, -0.9142456426800266, 0.9376560968629695, -0.10432395051337526], [1.0, 0.5705067899564266, -0.708263728831527, 0.09877629315866693, 0.23428926219223845, -0.7436685225582573, 0.3135006246904925, 0.3579974223098079, 0.37461411795037225, -0.44667841251208185, -0.4993964390767044, 2.2769138432753517, 2.2520480936031815, 2.234081486230363, 2.2508438003217703, -0.7148338587598673, 2.2158483270507277, 1.0412885952723316, 1.3931935859434705, 1.3795497673022878, 2.2703694590851033, 0.8101472368325819, 1.3543035843963733, -0.9372795448026199, -0.4427444509036382, -0.12395708117279325, 1.09376147939339, -1.0664535430550333, -0.10432395051337526], [1.0, 0.10180583630005777, -0.708263728831527, 0.09877629315866693, 0.23428926219223845, 0.26085907494496063, 0.3135006246904925, 1.940656230045475, 1.9195561797903347, 0.9683499106218177, 1.0872405041340616, 1.2471020791782774, 1.6094275621696532, 1.84940593650909, 1.8565246106034574, 0.0009359979261912774, 0.16352179053452065, 1.658161823549051, 0.4170446435967827, -0.8828269645438409, 1.7199780436383405, -1.2343023850531398, 1.3543035843963733, -0.9372795448026199, -0.4427444509036382, -0.12395708117279325, -0.9142456426800266, 0.9376560968629695, -0.10432395051337526], [1.0, -0.2887782917469162, -0.2689940865883273, 0.09877629315866693, 0.23428926219223845, 0.26085907494496063, 0.3135006246904925, 0.3579974223098079, 0.37461411795037225, 1.2613296009188066, 1.3020768573416532, 1.376528987116443, 1.573630007985154, 1.2300812495477258, 1.1724159130477818, 0.07967068216165772, 0.16012507052373595, 0.8833452083222538, 0.3467619197478212, 0.08999503014999448, 0.1550731705322915, 0.8101472368325819, -0.738362268392254, 1.066881990769625, -0.4427444509036382, -0.12395708117279325, -0.9142456426800266, 0.9376560968629695, -0.10432395051337526], [1.0, -0.6012455941844954, -1.1475333710747266, 1.1492154263596623, -0.7739847108054885, -0.7436685225582573, -0.7178645184956874, -0.6971084495139703, 1.9195561797903347, -0.8642261551274617, -0.8445197279835495, -0.851456662877402, -0.8565299195770837, -0.8191799371422909, -0.8268852037682387, -0.760643129587775, -0.8498330126829156, -0.9046931345088168, -0.513550681440393, -0.8828269645438409, -0.6848655674817715, 0.8101472368325819, -0.738362268392254, 1.066881990769625, -0.4427444509036382, -0.12395708117279325, -0.9142456426800266, 0.9376560968629695, -0.10432395051337526], [1.0, -0.7574792454032849, -1.4769856027571264, 1.67443499296016, 0.23428926219223845, 0.26085907494496063, 0.3135006246904925, 0.3579974223098079, 0.37461411795037225, -0.1821931522193467, -0.47187675117764155, -0.43193348347120913, -0.319941205152924, -0.2674982317093597, -0.24472999864777661, -0.6252194727027728, -0.49062987154243326, 0.28733242737856357, -0.5727703839427587, -0.5479952082306139, 1.0493045265928909, 0.8101472368325819, -0.738362268392254, 1.066881990769625, -0.4427444509036382, -0.12395708117279325, -0.9142456426800266, 0.9376560968629695, -0.10432395051337526], [1.0, -0.6012455941844954, -1.1475333710747266, 1.67443499296016, 1.7467002216888285, 1.7676504711997876, 1.8605483394697626, 0.3579974223098079, 0.37461411795037225, 0.8133370908587723, 1.0251536510658437, 1.1293750208649858, 1.2162397760516142, 1.4339636189468525, 1.4290425476126847, 1.3752141227634238, -0.2893742109034396, -0.6066867440369716, 0.4170446435967827, 0.2806810689770253, 0.41056784369246274, 0.8101472368325819, 1.3543035843963733, -0.9372795448026199, -0.4427444509036382, -0.12395708117279325, -0.9142456426800266, 0.9376560968629695, -0.10432395051337526], [1.0, -0.9137128966220746, -1.0377159605139268, 1.1492154263596623, -0.7739847108054885, -0.7436685225582573, 0.3135006246904925, 0.3579974223098079, 0.37461411795037225, -0.8642261551274617, -0.8219759246123614, -0.8052572566663614, -0.5620956217194881, -0.28583911431221, -0.42502509407975186, -0.44284131321916503, -0.23955565074526403, 2.0753707702096342, 2.2356507960612597, -0.6614372414988983, -0.6714520971408625, 0.8101472368325819, 1.3543035843963733, -0.9372795448026199, -0.4427444509036382, -0.12395708117279325, -0.9142456426800266, 0.9376560968629695, -0.10432395051337526], [1.0, -0.9137128966220746, -0.9278985499531268, 1.67443499296016, 0.23428926219223845, 0.26085907494496063, 0.3135006246904925, 1.940656230045475, 0.37461411795037225, 0.07318403222671728, 0.10701156187548637, 0.19252991903442332, 0.3005809505736752, 0.3660023768260269, 0.39462297312962596, -0.14221797341102044, -0.253991710791099, 0.2575317883313791, -0.8844872795321344, -0.2364336125878041, 0.5702520144175698, 0.8101472368325819, 1.3543035843963733, -0.9372795448026199, -0.4427444509036382, -0.12395708117279325, -0.9142456426800266, 0.9376560968629695, -0.10432395051337526], [1.0, -0.9137128966220746, -1.1475333710747266, -0.9516628400423285, 0.23428926219223845, 0.26085907494496063, 0.3135006246904925, 0.3579974223098079, 0.37461411795037225, 0.025634805429748893, -0.5257990916735913, -0.6302095065095942, -0.6225464293744112, -0.4255409396647005, -0.4986341416502718, -0.14221797341102044, 1.7308250155107618, 0.5853388178504086, 2.2356507960612597, 0.7331564153462511, -0.22816883920796538, -1.2343023850531398, 1.3543035843963733, -0.9372795448026199, -0.4427444509036382, -0.12395708117279325, -0.9142456426800266, 0.9376560968629695, -0.10432395051337526], [1.0, -0.2106614661375214, 0.49972778733727213, 0.09877629315866693, 0.23428926219223845, 0.26085907494496063, 0.3135006246904925, 0.3579974223098079, 0.37461411795037225, 0.6444768752688821, 0.7654937176418448, 0.8984422746978318, 1.0873779459459998, 1.2782793828994023, 1.5635896072576587, 0.14408996926340298, 0.13521579044464813, 0.04892731500108752, 0.15673825897099933, 2.2521807924429376, -0.8669055221083934, -1.2343023850531398, -0.738362268392254, 1.066881990769625, -0.4427444509036382, -0.12395708117279325, 1.09376147939339, -1.0664535430550333, -0.10432395051337526], [1.0, 0.7267404411752161, -0.598446318270727, 0.09877629315866693, 0.23428926219223845, 0.26085907494496063, 0.3135006246904925, 0.3579974223098079, 0.37461411795037225, 2.1955022281219203, 2.2973654664468373, 2.2769138432753517, 2.2520480936031815, 2.234081486230363, 2.2508438003217703, 1.8619376253099436, 1.2957617941294213, 0.8833452083222538, 1.3931935859434705, 1.3795497673022878, 1.0493045265928909, 0.8101472368325819, 1.3543035843963733, -0.9372795448026199, -0.4427444509036382, -0.12395708117279325, -0.9142456426800266, 0.9376560968629695, -0.10432395051337526], [1.0, 1.507908697269164, -0.9278985499531268, -2.002101973243324, -1.7822586838032153, -1.7481961200614753, -1.7492296616818674, -1.7522143213377483, -1.6853086311695775, -0.8428309534062663, -0.8457789314150933, -0.7961930874514865, -0.8565299195770837, -0.8477826815571327, -0.830701780724885, -0.7778216061482405, -0.1135939503453313, -0.9046931345088168, -0.8844872795321344, -0.8828269645438409, -0.8669055221083934, -1.2343023850531398, -0.738362268392254, -0.9372795448026199, 2.2585639743778643, -0.12395708117279325, 1.09376147939339, -1.0664535430550333, -0.10432395051337526], [1.0, -0.6793624197938902, 0.3899103767764722, 1.67443499296016, 1.7467002216888285, 0.26085907494496063, 0.3135006246904925, 0.3579974223098079, 0.37461411795037225, 0.6109115679195866, 0.6378876666678139, 0.7459799485421947, -0.2977462533106053, -0.2674480514560003, -0.830701780724885, -1.0011418014342908, -0.12859613039296375, -0.348315203497882, -0.7338349594299621, -0.8828269645438409, -0.8669055221083934, -1.2343023850531398, -0.738362268392254, 1.066881990769625, -0.4427444509036382, -0.12395708117279325, -0.9142456426800266, 0.9376560968629695, -0.10432395051337526], [1.0, -1.148063373450259, 0.2800929662156723, 0.09877629315866693, 0.23428926219223845, -0.7436685225582573, 0.3135006246904925, 0.3579974223098079, 0.37461411795037225, -0.5158958882719017, -0.625438640627689, -0.4394333870768975, -0.42436049335623793, -0.37548613693872734, -0.3416710533465948, -0.6003106816900979, 2.2158483270507277, -0.5151987821621152, -0.6658299164464763, -0.6572356847111841, -0.6375990529471398, -1.2343023850531398, -0.738362268392254, -0.9372795448026199, 2.2585639743778643, -0.12395708117279325, 1.09376147939339, -1.0664535430550333, -0.10432395051337526], [1.0, -0.366895117356311, -0.9278985499531268, 0.09877629315866693, 0.23428926219223845, 0.26085907494496063, 0.3135006246904925, 0.3579974223098079, 0.37461411795037225, -0.21137020032774076, -0.272008671019208, -0.2921138519651611, -0.37531152277643015, -0.362338910558572, -0.3869865437451762, -0.4889368919897472, -0.39212499122967687, -0.7083069231878709, -0.6235301289447864, -0.6759810919179091, -0.7030695629444337, -1.2343023850531398, -0.738362268392254, 1.066881990769625, -0.4427444509036382, -0.12395708117279325, -0.9142456426800266, 0.9376560968629695, -0.10432395051337526], [1.0, -1.069946547840864, -1.1475333710747266, 1.1492154263596623, 1.7467002216888285, 1.7676504711997876, 1.8605483394697626, 0.3579974223098079, 0.37461411795037225, -0.36129263937134043, -0.2915466339409043, -0.27477836048801274, -0.23383041097987722, -0.1575031163456172, 0.6196483504934969, -0.14221797341102044, -0.9687182130603801, -0.9046931345088168, -0.3964128083587904, -0.3657122829790115, -0.5794740148032008, -1.2343023850531398, -0.738362268392254, 1.066881990769625, -0.4427444509036382, -0.12395708117279325, -0.9142456426800266, 0.9376560968629695, -0.10432395051337526], [1.0, -1.148063373450259, -0.598446318270727, 0.09877629315866693, 0.23428926219223845, 0.26085907494496063, -0.7178645184956874, -0.6971084495139703, -1.6853086311695775, -0.5062612213163223, -0.5281144012090105, -0.6371951310108925, -0.8382682503397328, -0.8477826815571327, -0.830701780724885, -0.650414571658122, -0.681412312148174, -0.6722481499407776, -0.8844872795321344, -0.8828269645438409, -0.8669055221083934, 0.8101472368325819, -0.738362268392254, 1.066881990769625, -0.4427444509036382, -0.12395708117279325, 1.09376147939339, -1.0664535430550333, -0.10432395051337526], [1.0, -0.6793624197938902, -0.3788114971491272, 1.67443499296016, 0.23428926219223845, 0.26085907494496063, 0.3135006246904925, 0.3579974223098079, 1.9195561797903347, 0.6811627225228187, 0.4646659558994692, 0.5806606447768061, 0.7203418066717056, 1.0201270694921152, 1.0248670479038324, -0.14221797341102044, 0.16493709053901429, -0.15967715832920404, 2.2356507960612597, -0.8828269645438409, 0.7299361851426768, -1.2343023850531398, -0.738362268392254, 1.066881990769625, -0.4427444509036382, -0.12395708117279325, -0.9142456426800266, 0.9376560968629695, -0.10432395051337526], [1.0, 0.3361563131282421, -0.1591766760275274, 0.09877629315866693, 0.23428926219223845, 0.26085907494496063, 0.3135006246904925, 0.3579974223098079, 0.37461411795037225, 2.302914624730187, 2.2973654664468373, 2.2769138432753517, 2.2520480936031815, 2.234081486230363, 2.2508438003217703, 1.718783653972732, 1.6374152152141825, 1.6283611845018666, 0.8075042205354579, 0.7977957505418548, 0.7299361851426768, 0.8101472368325819, -0.738362268392254, 1.066881990769625, -0.4427444509036382, -0.12395708117279325, 1.09376147939339, -1.0664535430550333, -0.10432395051337526], [1.0, 0.3361563131282421, -0.3788114971491272, 0.09877629315866693, 0.23428926219223845, 0.26085907494496063, 0.3135006246904925, 0.3579974223098079, 1.9195561797903347, 1.570536098719929, 1.2302210228125874, -0.4879684775537096, 2.2520480936031815, 2.234081486230363, 2.2508438003217703, 0.4303979119378264, -0.5724342118021648, 2.2772700997543094, 2.2356507960612597, -0.8828269645438409, 1.145115029027955, -1.2343023850531398, 1.3543035843963733, -0.9372795448026199, -0.4427444509036382, -0.12395708117279325, -0.9142456426800266, 0.9376560968629695, -0.10432395051337526], [1.0, 0.5705067899564266, 1.0488148401412718, 0.09877629315866693, 0.23428926219223845, 0.26085907494496063, 0.3135006246904925, 0.3579974223098079, 0.37461411795037225, 2.302914624730187, 2.2973654664468373, 2.2769138432753517, 2.2520480936031815, 2.234081486230363, 2.2508438003217703, 1.8619376253099436, 1.5788217950281465, 2.0753707702096342, 1.8165168439411508, 2.0259431192583244, 2.2703694590851033, -1.2343023850531398, -0.738362268392254, 1.066881990769625, -0.4427444509036382, -0.12395708117279325, 1.09376147939339, -1.0664535430550333, -0.10432395051337526], [1.0, 1.507908697269164, 1.0488148401412718, 0.09877629315866693, 0.23428926219223845, -1.7481961200614753, -1.7492296616818674, -0.6971084495139703, -0.6553472566096027, -0.6294055273032209, -0.8615799035076916, -0.860456547204228, -0.8565299195770837, -0.8440191625551798, -0.7867348141843187, -1.0011418014342908, -0.9687182130603801, -0.9046931345088168, -0.8356798324147999, -0.32434310845382514, -0.8669055221083934, 0.8101472368325819, -0.738362268392254, 1.066881990769625, -0.4427444509036382, -0.12395708117279325, 1.09376147939339, -1.0664535430550333, -0.10432395051337526], [1.0, -1.148063373450259, 0.060458145094072456, 0.09877629315866693, 0.23428926219223845, 0.26085907494496063, 0.3135006246904925, 0.3579974223098079, 0.37461411795037225, -0.46031127122048254, -0.4190308265183342, -0.41009804983064774, -0.39362001680669734, -0.45567418180700314, -0.5126282571579752, -0.5032522891234684, -0.5574320317545324, -0.6987707186927719, -0.7178911933716329, -0.4206557178952746, -0.8669055221083934, -1.2343023850531398, -0.738362268392254, 1.066881990769625, -0.4427444509036382, -0.12395708117279325, 1.09376147939339, -1.0664535430550333, -0.10432395051337526], [1.0, -0.9918297222314694, -1.3671681921963266, -0.9516628400423285, -0.7739847108054885, 1.7676504711997876, 0.3135006246904925, 0.3579974223098079, 0.37461411795037225, -0.23337000665546034, -0.13865496567216248, -0.12947308520180406, -0.025085484159081933, 0.06833311389823463, 0.08415715962963129, 0.1675672205627057, -0.9687182130603801, -0.3086803535651266, -0.5591042987499051, -0.7212286265548317, -0.8669055221083934, 0.8101472368325819, 1.3543035843963733, -0.9372795448026199, -0.4427444509036382, -0.12395708117279325, -0.9142456426800266, 0.9376560968629695, -0.10432395051337526], [1.0, -0.6012455941844954, -0.708263728831527, 0.09877629315866693, 0.23428926219223845, 0.26085907494496063, 0.3135006246904925, 0.3579974223098079, 0.37461411795037225, 0.8570246495237474, 0.9476110913620637, 1.0597973437002137, 1.2396287601132983, 1.419411345472635, 1.5695943550027822, 0.20135155779828767, 0.16352179053452065, 0.08081399878157494, 0.23906015310890336, 1.292286664788223, -0.8669055221083934, 0.8101472368325819, 1.3543035843963733, -0.9372795448026199, -0.4427444509036382, -0.12395708117279325, -0.9142456426800266, 0.9376560968629695, -0.10432395051337526], [1.0, -0.6793624197938902, 0.49972778733727213, -0.9516628400423285, -0.7739847108054885, 0.26085907494496063, -0.7178645184956874, -0.6971084495139703, -0.6553472566096027, -0.7966859695663865, -0.7571269478878538, -0.6815088471725028, -0.780814229431452, -0.8021437411267842, -0.7821294779899653, 0.47133994774026894, 0.8592832727435872, 0.26259789696940045, -0.2926156374892593, -0.1397978064703766, -0.2572313582799349, 0.8101472368325819, -0.738362268392254, 1.066881990769625, -0.4427444509036382, -0.12395708117279325, 1.09376147939339, -1.0664535430550333, -0.10432395051337526], [1.0, -0.9137128966220746, -0.2689940865883273, 0.09877629315866693, 0.23428926219223845, 0.26085907494496063, 0.3135006246904925, 0.3579974223098079, 0.37461411795037225, -0.4128790646699382, -0.2888048200173814, -0.20453640614673682, -0.14884341183682126, -0.3857981790040782, -0.393194842261321, 0.5718340356189916, -0.06236009018266205, 0.13892524492358474, 0.15673825897099933, -0.07483527459879491, 0.09119950224224868, -1.2343023850531398, -0.738362268392254, 1.066881990769625, -0.4427444509036382, -0.12395708117279325, -0.9142456426800266, 0.9376560968629695, -0.10432395051337526], [1.0, -0.366895117356311, 0.609545197898072, 1.1492154263596623, 1.7467002216888285, 1.7676504711997876, 1.8605483394697626, 1.940656230045475, 1.9195561797903347, -0.09177550848237156, -0.03540028428556802, -0.009110346478513373, 0.13025576634069114, 0.26895376682900224, 0.3306316994898549, -0.4285259160854439, -0.9687182130603801, 0.10852859309545654, 0.15673825897099933, -0.2364336125878041, -0.22816883920796538, -1.2343023850531398, -0.738362268392254, 1.066881990769625, -0.4427444509036382, -0.12395708117279325, 1.09376147939339, -1.0664535430550333, -0.10432395051337526], [1.0, -0.6793624197938902, -1.2573507816355267, -2.002101973243324, -1.7822586838032153, -1.7481961200614753, -1.7492296616818674, -1.7522143213377483, -1.6853086311695775, -0.8642261551274617, -0.8474037100364401, -0.754407910219794, -0.8338901322020602, -0.7032133716287832, -0.830701780724885, -0.8012988574475431, 0.43214573138741086, -0.6165209549225426, 0.9945994344852397, -0.8828269645438409, -0.8669055221083934, 0.8101472368325819, 1.3543035843963733, -0.9372795448026199, -0.4427444509036382, -0.12395708117279325, -0.9142456426800266, 0.9376560968629695, -0.10432395051337526], [1.0, 0.5705067899564266, 0.719362608458872, 1.67443499296016, 1.7467002216888285, 1.7676504711997876, 1.8605483394697626, 1.940656230045475, 1.9195561797903347, 2.302914624730187, 2.2973654664468373, 2.2769138432753517, 2.2520480936031815, 2.234081486230363, 2.2508438003217703, 2.1482455679843673, -0.9687182130603801, 2.2772700997543094, 2.2356507960612597, -0.8828269645438409, 1.332584245459231, -1.2343023850531398, -0.738362268392254, -0.9372795448026199, 2.2585639743778643, -0.12395708117279325, 1.09376147939339, -1.0664535430550333, -0.10432395051337526], [1.0, 1.7422591740973485, -0.598446318270727, 0.09877629315866693, 0.23428926219223845, 0.26085907494496063, -0.7178645184956874, -0.6971084495139703, 0.37461411795037225, -0.17831198071294938, -0.5133289157547539, -0.788671755549782, -0.7462575322592342, 1.1713201728639018, 1.2132023987911429, -0.6947923027726577, -0.621686651958543, 0.4989169646135736, 2.2356507960612597, 0.11908273098801614, 0.12313633638727009, 0.8101472368325819, -0.738362268392254, 1.066881990769625, -0.4427444509036382, -0.12395708117279325, -0.9142456426800266, 0.9376560968629695, -0.10432395051337526], [1.0, 0.25803948751884737, 0.060458145094072456, 0.09877629315866693, 0.23428926219223845, 0.26085907494496063, 0.3135006246904925, 0.3579974223098079, 0.37461411795037225, 2.302914624730187, 2.2973654664468373, 2.2769138432753517, 2.2520480936031815, 2.234081486230363, 2.2508438003217703, 1.2893217399610968, 1.3084994941698638, 1.479357989265944, 1.7185765667256998, 1.3795497673022878, 2.2703694590851033, 0.8101472368325819, -0.738362268392254, -0.9372795448026199, 2.2585639743778643, -0.12395708117279325, 1.09376147939339, -1.0664535430550333, -0.10432395051337526], [1.0, -1.2261801990596537, -0.2689940865883273, -0.9516628400423285, -0.7739847108054885, -0.7436685225582573, -0.7178645184956874, -0.6971084495139703, -0.6553472566096027, -0.8319480704888306, -0.8316636671421422, -0.8520995117578896, -0.8473990849584082, -0.8342340131501024, -0.8268852037682387, -0.579410201874865, -0.8583248127098773, -0.7884706422247972, -0.7087804699097305, -0.8343474631471381, 0.34030680857341566, -1.2343023850531398, -0.738362268392254, -0.9372795448026199, 2.2585639743778643, -0.12395708117279325, -0.9142456426800266, 0.9376560968629695, -0.10432395051337526], [1.0, 2.6015442558006914, 1.4880844823844714, -0.9516628400423285, -0.7739847108054885, 1.7676504711997876, -0.7178645184956874, -0.6971084495139703, -0.6553472566096027, -0.835751228497612, -0.7479672584100109, -0.7461580162535368, -0.811788829945574, -0.8032727968273701, -0.6945517587581196, 0.5260247647910838, -0.9616417130379119, -0.3325208648028742, -0.30432942479741953, 0.855001562189964, -0.7912152251846928, -1.2343023850531398, -0.738362268392254, 1.066881990769625, -0.4427444509036382, -0.12395708117279325, 1.09376147939339, -1.0664535430550333, -0.10432395051337526], [1.0, 2.6015442558006914, -0.2689940865883273, -0.9516628400423285, -0.7739847108054885, -0.7436685225582573, 0.3135006246904925, 0.3579974223098079, -0.6553472566096027, -0.8271502403854449, -0.7844029189937147, -0.7481937043750808, -0.733872374532877, -0.8086671740635025, -0.762512272432803, 0.0868283807285183, 0.5142331316480412, -0.9046931345088168, -0.8844872795321344, -0.016659872922751597, -0.7714143880147795, -1.2343023850531398, 1.3543035843963733, -0.9372795448026199, -0.4427444509036382, -0.12395708117279325, 1.09376147939339, -1.0664535430550333, -0.10432395051337526], [1.0, -0.8355960710126797, -0.3788114971491272, 1.1492154263596623, 1.7467002216888285, 1.7676504711997876, 1.8605483394697626, 1.940656230045475, 1.9195561797903347, 0.07014150581969222, 0.15031191213438083, 0.18432288166019858, 0.3682193639412478, 0.48099042739902687, 0.4919965732168641, -0.14221797341102044, -0.9687182130603801, 0.5853388178504086, -0.20118301988945284, -0.8828269645438409, 0.6021888485625911, -1.2343023850531398, -0.738362268392254, 1.066881990769625, -0.4427444509036382, -0.12395708117279325, -0.9142456426800266, 0.9376560968629695, -0.10432395051337526], [1.0, -0.8355960710126797, -0.4886289077099272, 1.67443499296016, 1.7467002216888285, 1.7676504711997876, 0.3135006246904925, 0.3579974223098079, 0.37461411795037225, -0.26272258513349045, -0.16422491922560908, -0.14284434191594567, -0.022697419720351435, 0.10631956569127891, 0.16768930728743187, 0.14408996926340298, -0.9687182130603801, -0.010673963093281504, 0.09166166281455349, -0.2364336125878041, 0.09119950224224868, -1.2343023850531398, -0.738362268392254, -0.9372795448026199, 2.2585639743778643, -0.12395708117279325, -0.9142456426800266, 0.9376560968629695, -0.10432395051337526], [1.0, -1.069946547840864, 0.9389974295804718, -0.9516628400423285, -0.7739847108054885, 0.26085907494496063, 0.3135006246904925, 0.3579974223098079, -0.6553472566096027, -0.8167159350793014, -0.6305363835521648, -0.4028767140731706, -0.19377180063999602, -0.2620285840931882, -0.5563153413883876, 2.1525401871244836, 2.1460740368291917, 1.7782583989092047, 0.2052203231075515, 2.2521807924429376, 2.0022996574803296, 0.8101472368325819, -0.738362268392254, 1.066881990769625, -0.4427444509036382, -0.12395708117279325, -0.9142456426800266, 0.9376560968629695, -0.10432395051337526], [1.0, 1.4297918716597693, 0.719362608458872, -0.9516628400423285, -0.7739847108054885, -0.7436685225582573, 0.3135006246904925, 0.3579974223098079, -0.6553472566096027, -0.8440011558705067, -0.8339586669447947, -0.6743303680070583, -0.7848645740187106, -0.8378469913919772, -0.8207532367912268, -0.6103314596837027, 1.5001311147783007, -0.883236674394844, -0.8844872795321344, -0.7564570642364358, -0.41787363402939254, -1.2343023850531398, -0.738362268392254, 1.066881990769625, -0.4427444509036382, -0.12395708117279325, 1.09376147939339, -1.0664535430550333, -0.10432395051337526], [1.0, -0.4450119429657058, -0.708263728831527, -2.002101973243324, -1.7822586838032153, -1.7481961200614753, -1.7492296616818674, -1.7522143213377483, -1.6853086311695775, -0.719959694661024, -0.8615799035076916, -0.860456547204228, -0.8565299195770837, -0.8477826815571327, -0.830701780724885, -0.4285259160854439, -0.9687182130603801, -0.9046931345088168, -0.8844872795321344, -0.8828269645438409, -0.8669055221083934, 0.8101472368325819, 1.3543035843963733, -0.9372795448026199, -0.4427444509036382, -0.12395708117279325, -0.9142456426800266, 0.9376560968629695, -0.10432395051337526], [1.0, 1.3516750460503746, 0.8291800190196719, 1.1492154263596623, -1.7822586838032153, -1.7481961200614753, -1.7492296616818674, -1.7522143213377483, -1.6853086311695775, -0.8642261551274617, -0.8615799035076916, -0.860456547204228, -0.8565299195770837, -0.8477826815571327, -0.830701780724885, -1.0011418014342908, -0.9687182130603801, -0.9046931345088168, -0.8844872795321344, -0.8828269645438409, -0.8177227975250605, 0.8101472368325819, 1.3543035843963733, -0.9372795448026199, -0.4427444509036382, -0.12395708117279325, -0.9142456426800266, 0.9376560968629695, -0.10432395051337526], [1.0, 0.8829740923940057, -0.9278985499531268, -0.9516628400423285, -0.7739847108054885, -0.7436685225582573, -0.7178645184956874, -0.6971084495139703, -0.6553472566096027, -0.7565480250429406, -0.8615799035076916, -0.828635527620093, -0.7224471250613036, -0.8164952935875645, -0.7788726656536271, -0.9991376458355697, -0.5463926917194821, 0.80198946372344, -0.4787347024966944, -0.22447533557661742, 2.2703694590851033, -1.2343023850531398, 1.3543035843963733, -0.9372795448026199, -0.4427444509036382, -0.12395708117279325, -0.9142456426800266, 0.9376560968629695, -0.10432395051337526], [1.0, 1.3516750460503746, -1.0377159605139268, 1.1492154263596623, 1.7467002216888285, 1.7676504711997876, 1.8605483394697626, 1.940656230045475, 0.37461411795037225, -0.5285535782601021, -0.4703738309528957, -0.4316334873269816, -0.3946501622508556, -0.3700164893225558, -0.5322963504078929, -0.24614775660183613, -0.5857380318444049, -0.7464517411682671, -0.8799319178011831, -0.8068757456890066, -0.41978984407809383, 0.8101472368325819, 1.3543035843963733, -0.9372795448026199, -0.4427444509036382, -0.12395708117279325, -0.9142456426800266, 0.9376560968629695, -0.10432395051337526], [1.0, 1.0392077436127953, 0.9389974295804718, -0.9516628400423285, -0.7739847108054885, -0.7436685225582573, -0.7178645184956874, -0.6971084495139703, -0.6553472566096027, -0.8538893666933381, -0.3421381782630929, -0.8270069771228578, -0.8072234126362363, -0.7811433050958873, -0.7219547813068407, 2.1525401871244836, -0.5268615516574701, -0.27709167617511105, -0.020270082574533378, 0.49851562858620974, 0.5095720295420291, -1.2343023850531398, -0.738362268392254, -0.9372795448026199, 2.2585639743778643, -0.12395708117279325, 1.09376147939339, -1.0664535430550333, -0.10432395051337526], [1.0, 1.0392077436127953, -1.0377159605139268, 0.09877629315866693, 0.23428926219223845, -0.7436685225582573, -0.7178645184956874, 0.3579974223098079, -0.6553472566096027, 2.302914624730187, 2.2973654664468373, -0.7798861541831184, -0.7778876798741843, -0.5800710298848853, -0.7551590008296643, 1.2541058630121427, 0.4511107514476254, 0.5877228689741835, 2.2356507960612597, 0.07932953984271987, 2.2703694590851033, 0.8101472368325819, 1.3543035843963733, -0.9372795448026199, -0.4427444509036382, -0.12395708117279325, -0.9142456426800266, 0.9376560968629695, -0.10432395051337526], [1.0, 0.5705067899564266, 1.1586322507020717, 0.09877629315866693, 0.23428926219223845, 0.26085907494496063, 0.3135006246904925, 0.3579974223098079, 0.37461411795037225, 0.05982422075997267, 0.13916186884538784, 0.23605078824343229, 0.37767797211033727, 0.5128297981555481, 0.5990133910812288, -0.14221797341102044, -0.11953821036420453, -0.010673963093281504, 0.09166166281455349, 0.08676306339021429, 0.09119950224224868, -1.2343023850531398, -0.738362268392254, 1.066881990769625, -0.4427444509036382, -0.12395708117279325, -0.9142456426800266, 0.9376560968629695, -0.10432395051337526], [1.0, -1.148063373450259, -0.9278985499531268, 0.09877629315866693, 0.23428926219223845, 0.26085907494496063, 0.3135006246904925, 0.3579974223098079, 0.37461411795037225, -0.6195368198547934, -0.5806962993423491, -0.5476248536629568, -0.4901259150071592, -0.4472438992426287, -0.39296584764392223, -0.5716798874226555, -0.6007402118920373, -0.5172848268954182, -0.6977174485631347, -0.3980319505768133, -0.8669055221083934, -1.2343023850531398, -0.738362268392254, 1.066881990769625, -0.4427444509036382, -0.12395708117279325, -0.9142456426800266, 0.9376560968629695, -0.10432395051337526], [1.0, -0.366895117356311, -0.9278985499531268, -0.9516628400423285, -0.7739847108054885, -0.7436685225582573, 1.8605483394697626, -0.6971084495139703, -0.6553472566096027, -0.8411341598331178, -0.8399297283782444, -0.7516222317376813, -0.7973433813309003, -0.7472465439516317, -0.6409670182868044, -0.6959375345433554, 0.4689435315042451, -0.9046931345088168, 0.41932232446225837, 1.5272506482242423, 0.03339383243975994, 0.8101472368325819, -0.738362268392254, 1.066881990769625, -0.4427444509036382, -0.12395708117279325, -0.9142456426800266, 0.9376560968629695, -0.10432395051337526], [1.0, -1.069946547840864, -1.1475333710747266, 1.1492154263596623, 1.7467002216888285, 1.7676504711997876, 1.8605483394697626, 1.940656230045475, 1.9195561797903347, -0.5449949228826797, -0.5401783824725112, -0.5331607538519862, -0.45809775665242075, -0.43108585766091106, -0.37220366899976587, -1.0011418014342908, -0.9687182130603801, -0.3086803535651266, -0.8844872795321344, -0.2364336125878041, -0.8669055221083934, 0.8101472368325819, -0.738362268392254, 1.066881990769625, -0.4427444509036382, -0.12395708117279325, -0.9142456426800266, 0.9376560968629695, -0.10432395051337526], [1.0, -0.9137128966220746, 1.8175367140668712, 0.09877629315866693, 0.23428926219223845, 0.26085907494496063, 0.3135006246904925, -0.6971084495139703, 1.9195561797903347, -0.4277991460890033, -0.3867383514190649, -0.33572043435823506, -0.2530754008684701, -0.8206853447430721, -0.816962103680958, -0.6060368405435864, -0.547524931723077, -0.37573179142129176, -0.5330736602873267, -0.8828269645438409, -0.6944466177252779, 0.8101472368325819, -0.738362268392254, -0.9372795448026199, 2.2585639743778643, -0.12395708117279325, 1.09376147939339, -1.0664535430550333, -0.10432395051337526], [1.0, -0.8355960710126797, 1.2684496612628715, 1.67443499296016, 1.7467002216888285, 1.7676504711997876, 1.8605483394697626, 0.3579974223098079, 0.37461411795037225, -0.3418867818393537, -0.2704854410616953, -0.21702910272421208, -0.17925611483594792, -0.11148782401507344, -0.07458699792048072, -0.027694796341251066, -0.4025982112629297, -0.9046931345088168, -0.3964128083587904, -0.462671285772417, 0.2508836729673557, 0.8101472368325819, -0.738362268392254, 1.066881990769625, -0.4427444509036382, -0.12395708117279325, 1.09376147939339, -1.0664535430550333, -0.10432395051337526], [1.0, -0.6793624197938902, -1.1475333710747266, 1.67443499296016, 1.7467002216888285, 1.7676504711997876, 1.8605483394697626, 1.940656230045475, 1.9195561797903347, 0.493247710140214, 0.5180602433434812, 0.6867735666492889, 0.8552908598564368, 1.0289838842100443, 1.037996072634696, -1.0011418014342908, 0.729641792331971, -0.10007588023483503, 0.09166166281455349, -0.8828269645438409, 0.8257466875777411, 0.8101472368325819, -0.738362268392254, 1.066881990769625, -0.4427444509036382, -0.12395708117279325, -0.9142456426800266, 0.9376560968629695, -0.10432395051337526], [1.0, -1.148063373450259, -0.1591766760275274, 1.67443499296016, -0.7739847108054885, 0.26085907494496063, 0.3135006246904925, 0.3579974223098079, 0.37461411795037225, -0.8566198391098991, -0.47845710459409646, -0.44262620318331913, -0.3934327176350322, -0.8282123827469777, -0.830701780724885, 2.1525401871244836, -0.5925314718659743, -0.6066867440369716, -0.8844872795321344, -0.8828269645438409, -0.8669055221083934, -1.2343023850531398, -0.738362268392254, 1.066881990769625, -0.4427444509036382, -0.12395708117279325, 1.09376147939339, -1.0664535430550333, -0.10432395051337526], [1.0, -0.6793624197938902, -1.1475333710747266, 0.09877629315866693, 0.23428926219223845, 1.7676504711997876, -0.7178645184956874, -0.6971084495139703, -0.6553472566096027, 0.266852540058504, -0.5021991821985278, -0.6893087469224187, -0.795142616063835, -0.7863369613185822, -0.830701780724885, -0.04859527615648397, -0.9562635730208362, -0.12123433395833604, -0.085021295750197, -0.8828269645438409, -0.8669055221083934, 0.8101472368325819, -0.738362268392254, 1.066881990769625, -0.4427444509036382, -0.12395708117279325, -0.9142456426800266, 0.9376560968629695, -0.10432395051337526], [1.0, -0.054427814918731825, -0.2689940865883273, 0.09877629315866693, 0.23428926219223845, 1.7676504711997876, 1.8605483394697626, 0.3579974223098079, 0.37461411795037225, 0.745484851307233, 0.8505305687365873, 0.9843268851309721, 1.106341987077095, 1.298727836143346, 1.4090691282062353, 0.14408996926340298, 0.16352179053452065, -0.9046931345088168, 0.4170446435967827, 0.4099597393682327, 0.41056784369246274, -1.2343023850531398, -0.738362268392254, 1.066881990769625, -0.4427444509036382, -0.12395708117279325, 1.09376147939339, -1.0664535430550333, -0.10432395051337526], [1.0, 0.6486236155658214, 1.2684496612628715, -0.9516628400423285, -0.7739847108054885, -0.7436685225582573, -0.7178645184956874, -0.6971084495139703, -0.6553472566096027, -0.8414072070747739, -0.8237428713630761, -0.794028829553845, -0.7965941846442398, -0.7830501547235433, -0.7365849929739852, -0.4677501042318399, -0.08783549026354731, -0.025574282616873757, -0.044999189113982804, 0.31267753989884917, -0.8669055221083934, -1.2343023850531398, -0.738362268392254, -0.9372795448026199, 2.2585639743778643, -0.12395708117279325, 1.09376147939339, -1.0664535430550333, -0.10432395051337526], [1.0, 0.17992266190945255, -0.4886289077099272, 0.09877629315866693, 0.23428926219223845, 0.26085907494496063, 0.3135006246904925, 0.3579974223098079, 0.37461411795037225, 2.302914624730187, 2.2973654664468373, 2.2769138432753517, 2.2520480936031815, 1.194779441309408, 1.3335263483110145, 1.3752141227634238, 0.5320659117046609, 0.8943714447697121, 0.25435315320566815, 0.7331564153462511, 0.41056784369246274, -1.2343023850531398, 1.3543035843963733, -0.9372795448026199, -0.4427444509036382, -0.12395708117279325, -0.9142456426800266, 0.9376560968629695, -0.10432395051337526], [1.0, -0.9918297222314694, 0.8291800190196719, -2.002101973243324, -1.7822586838032153, -1.7481961200614753, -1.7492296616818674, -1.7522143213377483, -1.6853086311695775, -0.8279888854848172, -0.8571117622989878, -0.8398853830286256, -0.8340540189772672, -0.8236961599446343, -0.7955129411846054, -0.9381540540459176, -0.6969806121976039, -0.6186069996558455, -0.5721196179811943, -0.43584596166624145, -0.560311914316188, 0.8101472368325819, -0.738362268392254, 1.066881990769625, -0.4427444509036382, -0.12395708117279325, 1.09376147939339, -1.0664535430550333, -0.10432395051337526], [1.0, -0.4450119429657058, -0.9278985499531268, 0.09877629315866693, 0.23428926219223845, 0.26085907494496063, 0.3135006246904925, 0.3579974223098079, 0.37461411795037225, -0.2843128205987259, -0.21688805629001495, -0.14899426287261017, -0.045149907923709744, 0.12059584777202013, 0.21173260536713115, -0.28537194474823213, -0.4025982112629297, -0.3086803535651266, 0.5797361339878974, 0.4099597393682327, -0.3878530099330724, -1.2343023850531398, -0.738362268392254, 1.066881990769625, -0.4427444509036382, -0.12395708117279325, -0.9142456426800266, 0.9376560968629695, -0.10432395051337526], [1.0, -0.2887782917469162, -0.3788114971491272, 0.09877629315866693, 0.23428926219223845, 0.26085907494496063, 0.3135006246904925, 0.3579974223098079, 0.37461411795037225, -0.44695145975373796, -0.23136889575276906, 0.007882292262374916, 0.4273590773945149, 1.1285415068750375, 1.267855780810319, 1.8619376253099436, 1.8618817959268716, 2.2772700997543094, 2.2356507960612597, 0.7331564153462511, 0.7299361851426768, -1.2343023850531398, -0.738362268392254, 1.066881990769625, -0.4427444509036382, -0.12395708117279325, -0.9142456426800266, 0.9376560968629695, -0.10432395051337526], [1.0, 0.8829740923940057, 0.17027555565487237, -0.9516628400423285, 1.7467002216888285, -0.7436685225582573, -0.7178645184956874, -0.6971084495139703, -0.6553472566096027, -0.8142975166532045, -0.8139941996349949, -0.7599792671840198, -0.8029389440843964, -0.8051294662016668, -0.8102703720836381, -1.0011418014342908, 0.3585501311537423, -0.21927843642357306, -0.3232016376827888, -0.6233000337334922, -0.8257070060613159, 0.8101472368325819, 1.3543035843963733, -0.9372795448026199, -0.4427444509036382, -0.12395708117279325, -0.9142456426800266, 0.9376560968629695, -0.10432395051337526], [1.0, 2.0547264765349276, 0.719362608458872, -2.002101973243324, -1.7822586838032153, -1.7481961200614753, -1.7492296616818674, -1.7522143213377483, -1.6853086311695775, -0.6426288151491374, -0.6288100562669837, -0.737436699774922, -0.6482298282889931, -0.8139110105395568, -0.5715816492149731, 2.1525401871244836, 0.6574614921027961, 1.7579939643571192, -0.4452202554761248, 2.2521807924429376, 0.4712478285680034, -1.2343023850531398, 1.3543035843963733, -0.9372795448026199, -0.4427444509036382, -0.12395708117279325, 1.09376147939339, -1.0664535430550333, -0.10432395051337526], [1.0, 0.25803948751884737, -0.1591766760275274, 0.09877629315866693, 0.23428926219223845, 0.26085907494496063, 0.3135006246904925, 0.3579974223098079, 0.37461411795037225, 0.44253893668979655, 0.6906726621288207, 1.16588883727668, 1.3877589925039635, 1.6510183048528146, 1.7603468712959685, 1.8619376253099436, 2.2158483270507277, -0.010673963093281504, 0.5875453255266709, 0.11391158417236784, 0.16848664087320048, -1.2343023850531398, 1.3543035843963733, -0.9372795448026199, -0.4427444509036382, -0.12395708117279325, -0.9142456426800266, 0.9376560968629695, -0.10432395051337526], [1.0, -0.9137128966220746, -0.9278985499531268, 1.67443499296016, 1.7467002216888285, 1.7676504711997876, 0.3135006246904925, 0.3579974223098079, -0.6553472566096027, -0.5971469460389937, -0.5593710799371713, -0.5552747553407589, -0.5295055658497543, -0.48851715763071185, -0.7641915662937273, -0.5144182988877709, -0.9687182130603801, -0.7777424121678108, -0.7214704061602374, -0.03799085353730081, -0.42298352749259593, -1.2343023850531398, -0.738362268392254, 1.066881990769625, -0.4427444509036382, -0.12395708117279325, -0.9142456426800266, 0.9376560968629695, -0.10432395051337526], [1.0, -0.13254464052812662, -0.1591766760275274, 1.67443499296016, 1.7467002216888285, 1.7676504711997876, 0.3135006246904925, 0.3579974223098079, 0.37461411795037225, -0.09452548427333651, 0.008265641163129493, 0.03621049959586081, 0.1465507942755581, 0.25615780222236245, 0.3170701293705714, 0.14408996926340298, -0.9687182130603801, -0.3086803535651266, -0.23372131796767578, -0.2364336125878041, -0.22816883920796538, 0.8101472368325819, -0.738362268392254, 1.066881990769625, -0.4427444509036382, -0.12395708117279325, 1.09376147939339, -1.0664535430550333, -0.10432395051337526], [1.0, -0.054427814918731825, -0.4886289077099272, -0.9516628400423285, -0.7739847108054885, -0.7436685225582573, -0.7178645184956874, -0.6971084495139703, -0.6553472566096027, -0.7822534725074215, -0.6637834160914754, -0.5255751370622328, -0.7707000741615346, -0.7449633424237803, -0.7228962036228135, 1.7872112522719192, 2.2158483270507277, 0.18779829296096734, 0.44893217571344124, 0.48655735157502306, 0.09343508063240018, 0.8101472368325819, 1.3543035843963733, -0.9372795448026199, -0.4427444509036382, -0.12395708117279325, -0.9142456426800266, 0.9376560968629695, -0.10432395051337526], [1.0, -1.069946547840864, -0.9278985499531268, 0.09877629315866693, 0.23428926219223845, 0.26085907494496063, 0.3135006246904925, 0.3579974223098079, 0.37461411795037225, -0.49461770679713035, -0.5102621461069617, -0.5434677642358038, -0.49209255630964316, -0.4710795195883302, -0.43853577650628006, -0.637530714237773, -0.6007402118920373, -0.6066867440369716, -0.5591042987499051, -0.6242696237614263, -0.5475371806581795, -1.2343023850531398, -0.738362268392254, 1.066881990769625, -0.4427444509036382, -0.12395708117279325, -0.9142456426800266, 0.9376560968629695, -0.10432395051337526], [1.0, 1.7422591740973485, 1.4880844823844714, 0.09877629315866693, 0.23428926219223845, 0.26085907494496063, 0.3135006246904925, -0.6971084495139703, -0.6553472566096027, -0.7202327419026802, -0.7451848250209543, -0.7879003368931968, -0.7831554690772662, -0.8412843387470941, -0.8159952375186076, -0.6959375345433554, -0.6856582121616549, -0.8859187319090905, -0.8002130875095369, -0.6960192858285463, -0.5025062445136993, 0.8101472368325819, -0.738362268392254, 1.066881990769625, -0.4427444509036382, -0.12395708117279325, 1.09376147939339, -1.0664535430550333, -0.10432395051337526], [1.0, 1.2735582204409797, 1.4880844823844714, 0.09877629315866693, 0.23428926219223845, 0.26085907494496063, 0.3135006246904925, 0.3579974223098079, 0.37461411795037225, 2.302914624730187, 2.2973654664468373, 2.2769138432753517, 2.2520480936031815, 2.234081486230363, 2.2508438003217703, 1.2460892406172588, 1.2728339340566246, 0.9423504736356791, 1.2386366700719116, 1.2253849528607732, 1.088267464249817, -1.2343023850531398, -0.738362268392254, -0.9372795448026199, 2.2585639743778643, -0.12395708117279325, 1.09376147939339, -1.0664535430550333, -0.10432395051337526], [1.0, -0.9137128966220746, 1.1586322507020717, -0.9516628400423285, -0.7739847108054885, -0.7436685225582573, -0.7178645184956874, -0.6971084495139703, -0.6553472566096027, -0.7913420449796886, -0.8615799035076916, -0.6943443964862381, -0.842576131288031, -0.38622471115763285, -0.6839162309722651, -1.0011418014342908, 1.2255629139065374, -0.7270813257875971, 2.2356507960612597, 0.9816946591733473, 0.9755304397178914, 0.8101472368325819, 1.3543035843963733, -0.9372795448026199, -0.4427444509036382, -0.12395708117279325, -0.9142456426800266, 0.9376560968629695, -0.10432395051337526], [1.0, 1.0392077436127953, 1.0488148401412718, -0.9516628400423285, -0.7739847108054885, -0.7436685225582573, 0.3135006246904925, 0.3579974223098079, 0.37461411795037225, -0.8054039779249774, -0.8615799035076916, 0.01801787627806238, 0.11538889458977089, 0.11324444065487219, 0.09423292279517774, -1.0011418014342908, 2.2158483270507277, -0.38258593840214417, -0.5796034265391855, -0.5867788093479761, -0.5085742430012533, -1.2343023850531398, 1.3543035843963733, -0.9372795448026199, -0.4427444509036382, -0.12395708117279325, -0.9142456426800266, 0.9376560968629695, -0.10432395051337526], [1.0, -1.148063373450259, -1.5868030133179263, 0.09877629315866693, 0.23428926219223845, 0.26085907494496063, 1.8605483394697626, 0.3579974223098079, 0.37461411795037225, -0.5848208134156615, -0.5501504612610277, -0.47033298993233374, -0.4472344046958428, 0.026909314750073382, -0.4526062235531164, -0.6426842572059126, -0.08443877025276261, -0.9046931345088168, -0.7709286192391362, -0.7868375517783694, -0.8669055221083934, 0.8101472368325819, -0.738362268392254, 1.066881990769625, -0.4427444509036382, -0.12395708117279325, 1.09376147939339, -1.0664535430550333, -0.10432395051337526], [1.0, -1.148063373450259, 1.1586322507020717, 0.09877629315866693, 0.23428926219223845, 0.26085907494496063, 0.3135006246904925, 0.3579974223098079, 0.37461411795037225, -0.6433504400020856, -0.6045805450761483, -0.5677674519182342, -0.5373018938703156, -0.4984779379225471, -0.4569571212836933, -0.5662400365118415, -0.5373347716907229, -0.7556899392728943, -0.7195181082755441, -0.5596302885658225, -0.7072213513832865, -1.2343023850531398, -0.738362268392254, -0.9372795448026199, 2.2585639743778643, -0.12395708117279325, 1.09376147939339, -1.0664535430550333, -0.10432395051337526], [1.0, -0.6793624197938902, -1.2573507816355267, 0.09877629315866693, 0.23428926219223845, 0.26085907494496063, 0.3135006246904925, 0.3579974223098079, 0.37461411795037225, 0.7177120461559273, 0.5172681637655746, 0.36080632765005477, 0.14231315051663435, 0.23450502289779362, 0.28058365366503196, -0.14221797341102044, 1.052047133355619, 0.8833452083222538, -0.3332885100870379, -0.2364336125878041, 0.09119950224224868, 0.8101472368325819, 1.3543035843963733, -0.9372795448026199, -0.4427444509036382, -0.12395708117279325, -0.9142456426800266, 0.9376560968629695, -0.10432395051337526], [1.0, 0.5705067899564266, -0.708263728831527, 0.09877629315866693, -0.7739847108054885, 0.26085907494496063, 0.3135006246904925, 0.3579974223098079, 0.37461411795037225, -0.6546233904076015, -0.24457022205121248, -0.5266251235670292, -0.3766694417710024, -0.46400410386465885, -0.21160211066408596, 2.1525401871244836, 1.8683921759475424, 2.0753707702096342, 0.742427624379012, 2.2521807924429376, 2.2703694590851033, 0.8101472368325819, 1.3543035843963733, -0.9372795448026199, -0.4427444509036382, -0.12395708117279325, -0.9142456426800266, 0.9376560968629695, -0.10432395051337526], [1.0, -0.9137128966220746, -0.818081139392327, 0.09877629315866693, 0.23428926219223845, 0.26085907494496063, 0.3135006246904925, 0.3579974223098079, -1.6853086311695775, 0.0682886852513116, -0.18195531593105696, -0.22557899283469685, -0.12536077818930472, -0.8477826815571327, -0.830701780724885, -0.4571567103528862, -0.4025982112629297, -0.3086803535651266, -0.8844872795321344, -0.8828269645438409, -0.8669055221083934, 0.8101472368325819, -0.738362268392254, 1.066881990769625, -0.4427444509036382, -0.12395708117279325, -0.9142456426800266, 0.9376560968629695, -0.10432395051337526], [1.0, 1.507908697269164, -0.3788114971491272, 1.1492154263596623, -0.7739847108054885, -0.7436685225582573, -0.7178645184956874, -0.6971084495139703, -0.6553472566096027, -0.8132053276865802, 0.29763871362500954, -0.7471651461663007, 0.7459315560004549, -0.4995066331164142, -0.4174937155519697, 2.1525401871244836, 0.5300844916983698, 2.2772700997543094, 2.2356507960612597, 2.2521807924429376, 2.2703694590851033, 0.8101472368325819, 1.3543035843963733, -0.9372795448026199, -0.4427444509036382, -0.12395708117279325, -0.9142456426800266, 0.9376560968629695, -0.10432395051337526], [1.0, -1.148063373450259, -0.1591766760275274, 1.1492154263596623, 1.7467002216888285, 0.26085907494496063, 0.3135006246904925, 0.3579974223098079, 0.37461411795037225, -0.46070133870856267, -0.453862018213458, -0.44277620125543293, -0.39158313831483893, -0.36524936525341556, -0.43357422646263977, -1.0011418014342908, -0.5441282117122923, -0.6647979901789814, 1.3931935859434705, -0.707654366163755, -0.7896183834774417, -1.2343023850531398, -0.738362268392254, 1.066881990769625, -0.4427444509036382, -0.12395708117279325, -0.9142456426800266, 0.9376560968629695, -0.10432395051337526], [1.0, -0.13254464052812662, 0.2800929662156723, -2.002101973243324, -1.7822586838032153, -1.7481961200614753, -1.7492296616818674, -1.7522143213377483, -0.6553472566096027, -0.8642261551274617, -0.8615799035076916, -0.860456547204228, -0.8565299195770837, -0.8477826815571327, -0.8268852037682387, -1.0011418014342908, -0.9687182130603801, -0.9046931345088168, -0.8844872795321344, -0.8343474631471381, -0.6082171655337201, 0.8101472368325819, -0.738362268392254, 1.066881990769625, -0.4427444509036382, -0.12395708117279325, 1.09376147939339, -1.0664535430550333, -0.10432395051337526], [1.0, 0.9610909180034005, -0.818081139392327, -2.002101973243324, -1.7822586838032153, -1.7481961200614753, -1.7492296616818674, -1.7522143213377483, -1.6853086311695775, -0.8574779875836754, -0.8615799035076916, -0.8012073087192897, -0.7133397028390863, -0.5852897762342599, -0.8039348543356051, -1.0011418014342908, -0.18605731057540495, 0.9429464864166228, 2.2356507960612597, -0.5428240614149655, -0.3939210084206265, -1.2343023850531398, 1.3543035843963733, -0.9372795448026199, -0.4427444509036382, -0.12395708117279325, -0.9142456426800266, 0.9376560968629695, -0.10432395051337526], [1.0, 2.6015442558006914, 0.17027555565487237, -2.002101973243324, -1.7822586838032153, -1.7481961200614753, -1.7492296616818674, -1.7522143213377483, -1.6853086311695775, -0.8496571344476687, -0.8615799035076916, -0.860456547204228, -0.8333750594799811, -0.8477826815571327, -0.830701780724885, -1.0011418014342908, -0.9687182130603801, -0.609964814332162, -0.8844872795321344, -0.8828269645438409, -0.5858613816322051, 0.8101472368325819, 1.3543035843963733, -0.9372795448026199, -0.4427444509036382, -0.12395708117279325, -0.9142456426800266, 0.9376560968629695, -0.10432395051337526], [1.0, 0.25803948751884737, 0.49972778733727213, -0.9516628400423285, -0.7739847108054885, -0.7436685225582573, -0.7178645184956874, -0.6971084495139703, -0.6553472566096027, -0.8351856306398957, -0.6590309386240357, -0.8078072238922954, -0.8565299195770837, -0.8239972414647906, -0.830701780724885, 1.8542073108577342, -0.27323979085221234, -0.9046931345088168, -0.576024213750581, -0.8828269645438409, -0.4510879415402148, 0.8101472368325819, 1.3543035843963733, -0.9372795448026199, -0.4427444509036382, -0.12395708117279325, -0.9142456426800266, 0.9376560968629695, -0.10432395051337526], [1.0, 0.02368901069066297, -0.1591766760275274, 0.09877629315866693, 0.23428926219223845, 0.26085907494496063, 0.3135006246904925, -0.6971084495139703, 0.37461411795037225, 0.7981439621980511, 0.7928915471443067, 0.42095555456767575, -0.3730639327164485, 2.234081486230363, 2.2508438003217703, 0.4303979119378264, -0.006314210004714464, -0.010673963093281504, 2.2356507960612597, 0.6038777449550438, 0.7618730192876982, 0.8101472368325819, -0.738362268392254, 1.066881990769625, -0.4427444509036382, -0.12395708117279325, -0.9142456426800266, 0.9376560968629695, -0.10432395051337526], [1.0, 0.8829740923940057, 0.2800929662156723, 0.09877629315866693, 0.23428926219223845, 0.26085907494496063, -0.7178645184956874, -0.6971084495139703, -0.6553472566096027, 2.302914624730187, 2.2973654664468373, 2.2769138432753517, -0.8510982435987947, -0.8477826815571327, 2.2508438003217703, 1.296193130585283, 1.305385834159978, -0.8355556519193488, -0.8539012793386047, 2.2521807924429376, 0.7299361851426768, 0.8101472368325819, -0.738362268392254, -0.9372795448026199, -0.4427444509036382, 8.067039472095484, -0.9142456426800266, -1.0664535430550333, 9.585207056920858], [1.0, -0.6793624197938902, -0.3788114971491272, -0.9516628400423285, 1.7467002216888285, 1.7676504711997876, -0.7178645184956874, 0.3579974223098079, 0.37461411795037225, -0.7681330294389206, -0.7662663276329301, -0.7888431819179119, -0.7431202711338432, -0.7542466892952641, -0.7642424539864826, -1.0011418014342908, -0.9687182130603801, 0.5388498209368009, -0.8844872795321344, -0.8828269645438409, -0.8669055221083934, 0.8101472368325819, 1.3543035843963733, -0.9372795448026199, -0.4427444509036382, -0.12395708117279325, 1.09376147939339, -1.0664535430550333, -0.10432395051337526], [1.0, -0.9137128966220746, 2.146988945749271, 0.09877629315866693, 0.23428926219223845, -1.7481961200614753, -1.7492296616818674, -1.7522143213377483, -1.6853086311695775, -0.26157188604365406, -0.8615799035076916, -0.860456547204228, -0.8565299195770837, -0.8477826815571327, -0.830701780724885, -1.0011418014342908, -0.9687182130603801, -0.9046931345088168, -0.8844872795321344, -0.8828269645438409, -0.8669055221083934, -1.2343023850531398, -0.738362268392254, -0.9372795448026199, 2.2585639743778643, -0.12395708117279325, 1.09376147939339, -1.0664535430550333, -0.10432395051337526], [1.0, -0.9137128966220746, 1.1586322507020717, 1.67443499296016, 1.7467002216888285, 1.7676504711997876, 0.3135006246904925, 0.3579974223098079, 0.37461411795037225, 0.17760509878576927, 0.20023323527526385, 0.2360936448354648, 0.3148625124131419, -0.6024263327564854, -0.5781970492731602, -1.0011418014342908, -0.966736793054089, -0.5756940794278999, -0.7396918530840423, -0.7535482941526336, -0.8017543804525499, -1.2343023850531398, -0.738362268392254, -0.9372795448026199, 2.2585639743778643, -0.12395708117279325, 1.09376147939339, -1.0664535430550333, -0.10432395051337526], [1.0, 1.507908697269164, -0.3788114971491272, 0.09877629315866693, -0.7739847108054885, -0.7436685225582573, -0.7178645184956874, -0.6971084495139703, -0.6553472566096027, 1.1134745195620317, -0.8130599519277204, -0.6034027081932621, -0.8565299195770837, 0.8425893331066585, 0.8655376818870347, -0.31715212638509316, 2.2158483270507277, -0.9046931345088168, 2.2356507960612597, 2.2521807924429376, 2.2703694590851033, 0.8101472368325819, -0.738362268392254, 1.066881990769625, -0.4427444509036382, -0.12395708117279325, 1.09376147939339, -1.0664535430550333, -0.10432395051337526], [1.0, -0.054427814918731825, -0.818081139392327, 0.09877629315866693, 0.23428926219223845, 0.26085907494496063, 0.3135006246904925, 0.3579974223098079, 0.37461411795037225, 1.9917114689744542, 1.3238285811349346, 1.0659901212489107, 1.2736001473740624, 1.216005688480422, 1.3062759888405593, 0.2872439406006147, 0.27674579089401075, -0.010673963093281504, -0.10356812565478407, -0.07483527459879491, -0.06848466848285835, 0.8101472368325819, 1.3543035843963733, -0.9372795448026199, -0.4427444509036382, -0.12395708117279325, -0.9142456426800266, 0.9376560968629695, -0.10432395051337526], [1.0, 2.6015442558006914, -0.598446318270727, 1.1492154263596623, -1.7822586838032153, -1.7481961200614753, -0.7178645184956874, -0.6971084495139703, -0.6553472566096027, -0.8458344730644833, -0.7465455771163323, -0.860456547204228, -0.7054263128362344, -0.8266567948928373, -0.6263622504660376, 0.6285230082685275, -0.9687182130603801, 1.0284743204820423, -0.6105148097134973, 1.7386212743138663, 1.3779345499451612, 0.8101472368325819, 1.3543035843963733, -0.9372795448026199, -0.4427444509036382, -0.12395708117279325, -0.9142456426800266, 0.9376560968629695, -0.10432395051337526], [1.0, -1.148063373450259, -0.708263728831527, 0.09877629315866693, 0.23428926219223845, 0.26085907494496063, 0.3135006246904925, 0.3579974223098079, 0.37461411795037225, -0.6546233904076015, -0.6268400121886006, -0.6470092905863362, -0.6151481120936382, -0.5875478876354316, -0.5803852200616374, -0.6240742409320751, -0.6431992120268462, -0.7559879456633661, -0.7670240234697495, -0.6976352692084363, -0.8052674322085022, 0.8101472368325819, -0.738362268392254, 1.066881990769625, -0.4427444509036382, -0.12395708117279325, 1.09376147939339, -1.0664535430550333, -0.10432395051337526], [1.0, 0.5705067899564266, -0.598446318270727, 0.09877629315866693, 0.23428926219223845, 0.26085907494496063, 0.3135006246904925, 0.3579974223098079, 0.37461411795037225, 0.8717496971987725, 0.5838434677752632, 0.5865534261812756, 0.6474356041010509, 0.7961475086225601, 0.8442411824689479, -0.12189010948113638, -0.2922048109124269, -0.21600036612838278, -0.1263449343095401, -0.1097405156044209, -0.06720719511705749, 0.8101472368325819, -0.738362268392254, 1.066881990769625, -0.4427444509036382, -0.12395708117279325, -0.9142456426800266, 0.9376560968629695, -0.10432395051337526], [1.0, -0.2887782917469162, -1.2573507816355267, 0.09877629315866693, 0.23428926219223845, 0.26085907494496063, -0.7178645184956874, -0.6971084495139703, -1.6853086311695775, -0.5810761655300921, -0.556933912005151, -0.860456547204228, -0.8282711570521061, -0.8477826815571327, -0.830701780724885, -0.6718876673587038, -0.9687182130603801, -0.5449994212092998, -0.8844872795321344, -0.8828269645438409, -0.8669055221083934, 0.8101472368325819, -0.738362268392254, 1.066881990769625, -0.4427444509036382, -0.12395708117279325, -0.9142456426800266, 0.9376560968629695, -0.10432395051337526], [1.0, -0.2106614661375214, -1.2573507816355267, -2.002101973243324, -1.7822586838032153, -1.7481961200614753, -1.7492296616818674, -1.7522143213377483, -1.6853086311695775, 1.808457763074407, 1.7334149618437174, 1.811951962166695, 0.8664585729669707, 0.992427569637742, 1.1699224161027728, 0.4455722328995709, 0.05454369018851145, -0.13792269182475936, 0.04545727954347693, 1.702746443280306, -0.22816883920796538, 0.8101472368325819, -0.738362268392254, 1.066881990769625, -0.4427444509036382, -0.12395708117279325, -0.9142456426800266, 0.9376560968629695, -0.10432395051337526], [1.0, -0.9137128966220746, -1.0377159605139268, 0.09877629315866693, 0.23428926219223845, 0.26085907494496063, 0.3135006246904925, 0.3579974223098079, 0.37461411795037225, -0.021173293139867235, -0.4700488752286263, -0.466111615617132, -0.4030552125793286, -0.3436216760555264, -0.37439183978824314, -0.6289414759575402, -0.6007402118920373, -0.5172848268954182, -0.5591042987499051, -0.5596302885658225, -0.5475371806581795, -1.2343023850531398, 1.3543035843963733, -0.9372795448026199, -0.4427444509036382, -0.12395708117279325, -0.9142456426800266, 0.9376560968629695, -0.10432395051337526], [1.0, -0.054427814918731825, 0.49972778733727213, -0.9516628400423285, 0.23428926219223845, 0.26085907494496063, -1.7492296616818674, -1.7522143213377483, -1.6853086311695775, 0.46054055126469473, 0.5554504613672263, 0.7088018549539965, 0.8368418914474208, 1.0147577823826623, 1.090308620787129, 0.0035127694102610883, 0.6798232321737954, -0.9046931345088168, -0.167343189888101, -0.2364336125878041, -0.8669055221083934, 0.8101472368325819, 1.3543035843963733, -0.9372795448026199, -0.4427444509036382, -0.12395708117279325, -0.9142456426800266, 0.9376560968629695, -0.10432395051337526], [1.0, 0.7267404411752161, -0.708263728831527, 1.1492154263596623, -0.7739847108054885, 0.26085907494496063, -0.7178645184956874, -0.6971084495139703, -0.6553472566096027, -0.5618848451165496, -0.5197264815763073, -0.49977546865866473, -0.4741586606227063, -0.43801073262450435, -0.830701780724885, 2.1525401871244836, 2.2158483270507277, 2.2772700997543094, 2.2356507960612597, -0.8828269645438409, 2.2703694590851033, 0.8101472368325819, 1.3543035843963733, -0.9372795448026199, -0.4427444509036382, -0.12395708117279325, -0.9142456426800266, 0.9376560968629695, -0.10432395051337526], [1.0, -0.13254464052812662, -0.708263728831527, -0.9516628400423285, -0.7739847108054885, -0.7436685225582573, -1.7492296616818674, -0.6971084495139703, -0.6553472566096027, -0.830309787038894, -0.821285393698289, -0.8580565780504078, -0.8565299195770837, -0.7508093419401471, -0.689183107172437, -0.4331068431682346, -0.9370154929597229, -0.9046931345088168, 0.3731179411911818, 0.9189945040336117, 2.2703694590851033, 0.8101472368325819, -0.738362268392254, 1.066881990769625, -0.4427444509036382, -0.12395708117279325, -0.9142456426800266, 0.9376560968629695, -0.10432395051337526], [1.0, 0.49238996434703175, 1.0488148401412718, 1.67443499296016, 1.7467002216888285, 1.7676504711997876, 1.8605483394697626, 0.3579974223098079, 0.37461411795037225, 2.302914624730187, 2.2973654664468373, 2.2769138432753517, 1.443012248145179, 1.6681548613750399, 1.7712622813919772, 1.8619376253099436, 0.050297790175030575, -0.9046931345088168, 0.2960021747457935, 0.29457852604408014, 0.38789269144949756, -1.2343023850531398, -0.738362268392254, 1.066881990769625, -0.4427444509036382, -0.12395708117279325, 1.09376147939339, -1.0664535430550333, -0.10432395051337526], [1.0, 0.10180583630005777, 0.3899103767764722, 0.09877629315866693, 0.23428926219223845, 0.26085907494496063, 0.3135006246904925, 0.3579974223098079, 0.37461411795037225, 1.465763971421605, 1.585560107301151, 1.8085020065080786, 2.1190920206669492, 2.234081486230363, 2.2508438003217703, 0.2872439406006147, 0.729641792331971, 0.9131458473694383, 0.9051191147701266, 0.7008367477484493, 0.8896203558677839, -1.2343023850531398, -0.738362268392254, 1.066881990769625, -0.4427444509036382, -0.12395708117279325, -0.9142456426800266, 0.9376560968629695, -0.10432395051337526], [1.0, -0.4450119429657058, 0.49972778733727213, 0.09877629315866693, 0.23428926219223845, 0.26085907494496063, 0.3135006246904925, 0.3579974223098079, 0.37461411795037225, 1.0266259933409898, 1.0388221012179244, 0.9951267463231633, 1.0416769480597063, 1.1028993974083985, 1.1771484684740232, -0.06920944802904246, -0.10368685031387592, -0.06967922840670683, 0.030815045408276617, 0.4099597393682327, 0.2508836729673557, 0.8101472368325819, -0.738362268392254, 1.066881990769625, -0.4427444509036382, -0.12395708117279325, -0.9142456426800266, 0.9376560968629695, -0.10432395051337526], [1.0, -0.6793624197938902, -1.0377159605139268, -0.9516628400423285, -0.7739847108054885, -0.7436685225582573, 0.3135006246904925, -0.6971084495139703, -0.6553472566096027, -0.8512369077743932, -0.8480536214849789, -0.8319140569105796, -0.840937263535961, -0.8310726571884619, -0.8201171406317858, -0.8104607116131247, -0.5916822918632781, -0.9046931345088168, -0.6677822143311696, -0.7483771473369852, -0.7340482920651045, 0.8101472368325819, 1.3543035843963733, -0.9372795448026199, -0.4427444509036382, -0.12395708117279325, -0.9142456426800266, 0.9376560968629695, -0.10432395051337526], [1.0, 1.4297918716597693, -0.3788114971491272, -0.9516628400423285, -0.7739847108054885, 0.26085907494496063, 0.3135006246904925, -0.6971084495139703, -0.6553472566096027, -0.5681844350490437, -0.7604171245960814, -0.4491618334682762, -0.7537729115222979, -0.8047029340481122, -0.7272471013533903, 0.42553067691236124, 2.2158483270507277, -0.3003361746319149, -0.3232016376827888, 0.4377546535023423, -0.07614950867766349, -1.2343023850531398, 1.3543035843963733, -0.9372795448026199, -0.4427444509036382, -0.12395708117279325, -0.9142456426800266, 0.9376560968629695, -0.10432395051337526], [1.0, -0.4450119429657058, -1.3671681921963266, 0.09877629315866693, 0.23428926219223845, 0.26085907494496063, 0.3135006246904925, 0.3579974223098079, 0.37461411795037225, -0.47454873453540747, -0.4415137006912217, -0.3964482252682949, -0.3415040222908729, -0.26431178562103963, -0.20664056062044567, -0.28537194474823213, -0.4025982112629297, -0.48748418784823366, -0.23372131796767578, -0.3010729477834078, -0.515600346513158, 0.8101472368325819, -0.738362268392254, 1.066881990769625, -0.4427444509036382, -0.12395708117279325, -0.9142456426800266, 0.9376560968629695, -0.10432395051337526], [1.0, -0.6793624197938902, -0.9278985499531268, -0.9516628400423285, -0.7739847108054885, -0.7436685225582573, -0.7178645184956874, -1.7522143213377483, -1.6853086311695775, -0.8545914881718824, -0.8548980014274027, -0.7592292768234509, -0.8565299195770837, -0.8213376880367439, -0.830701780724885, -0.9069464882944054, 0.37581679120856454, -0.9046931345088168, -0.5415336177876646, -0.8828269645438409, 0.49104866573791667, 0.8101472368325819, 1.3543035843963733, -0.9372795448026199, -0.4427444509036382, -0.12395708117279325, 1.09376147939339, -1.0664535430550333, -0.10432395051337526], [1.0, 0.7267404411752161, -0.04935926546672747, 0.09877629315866693, 0.23428926219223845, 0.26085907494496063, 0.3135006246904925, 0.3579974223098079, 0.37461411795037225, 1.8435053268784072, 2.0532323237230847, 2.2769138432753517, 2.2520480936031815, 2.234081486230363, 2.2508438003217703, 1.0030137972866733, 1.012701793230696, 0.8833452083222538, 1.0681359881420236, 1.0563530913242696, 1.0493045265928909, -1.2343023850531398, -0.738362268392254, -0.9372795448026199, -0.4427444509036382, 8.067039472095484, -0.9142456426800266, 0.9376560968629695, -0.10432395051337526], [1.0, -0.9137128966220746, 1.7077193035060714, 0.09877629315866693, 0.23428926219223845, 0.26085907494496063, 0.3135006246904925, 0.3579974223098079, 0.37461411795037225, 0.09305797074440013, 0.14298009860555302, 0.21104396679246554, -0.4409364700486026, -0.403060186159702, -0.38065102599714323, -0.3603846257289311, -0.35447801111014643, -0.7208231915876884, -0.6791706186585477, -0.6775970752977992, -0.670813360457962, -1.2343023850531398, -0.738362268392254, 1.066881990769625, -0.4427444509036382, -0.12395708117279325, 1.09376147939339, -1.0664535430550333, -0.10432395051337526], [1.0, -0.366895117356311, -0.598446318270727, -0.9516628400423285, -0.7739847108054885, -0.7436685225582573, -0.7178645184956874, -0.6971084495139703, -0.6553472566096027, -0.8614956827109008, -0.7959794666708112, -0.7959359478992916, -0.8105479729332925, -0.8005379730192843, -0.7915691449960708, -0.07636714659590305, -0.11642455035431856, -0.31940858362211305, -0.2717911267191966, -0.38575047688964864, -0.25659262159703444, 0.8101472368325819, -0.738362268392254, 1.066881990769625, -0.4427444509036382, -0.12395708117279325, -0.9142456426800266, 0.9376560968629695, -0.10432395051337526], [1.0, -0.9137128966220746, 2.6960759985532707, 0.09877629315866693, 0.23428926219223845, 0.26085907494496063, 0.3135006246904925, 0.3579974223098079, 0.37461411795037225, 0.13196720268039352, 0.1670877513997874, -0.08080942494889448, -0.0859577149502515, -0.6120107611481254, -0.5824970593109817, -0.42480391283067637, -0.2596529108090735, -0.2788797145179421, -0.7217957891410197, -0.7212286265548317, -0.7072213513832865, -1.2343023850531398, -0.738362268392254, 1.066881990769625, -0.4427444509036382, -0.12395708117279325, -0.9142456426800266, 0.9376560968629695, -0.10432395051337526], [1.0, 0.02368901069066297, -0.9278985499531268, 0.09877629315866693, 0.23428926219223845, 0.26085907494496063, 0.3135006246904925, 0.3579974223098079, 0.37461411795037225, 2.302914624730187, 2.2973654664468373, 2.2769138432753517, 2.2520480936031815, 2.234081486230363, 2.2508438003217703, 1.146167768623885, 0.729641792331971, 2.0753707702096342, 1.3931935859434705, 2.2521807924429376, 1.1131781948829336, 0.8101472368325819, -0.738362268392254, 1.066881990769625, -0.4427444509036382, -0.12395708117279325, -0.9142456426800266, 0.9376560968629695, -0.10432395051337526], [1.0, -0.9137128966220746, -0.04935926546672747, 0.09877629315866693, 0.23428926219223845, 0.26085907494496063, 1.8605483394697626, 0.3579974223098079, 0.37461411795037225, -0.2651605069339913, -0.25699977850451616, -0.19285798481787916, -0.15125488867200992, -0.09548032319343391, -0.07682605640171326, -0.5430490931552132, 0.2484397908041382, -0.9046931345088168, -0.5265660006716821, -0.3980319505768133, -0.3878530099330724, 0.8101472368325819, 1.3543035843963733, -0.9372795448026199, -0.4427444509036382, -0.12395708117279325, -0.9142456426800266, 0.9376560968629695, -0.10432395051337526], [1.0, 0.49238996434703175, -0.9278985499531268, 0.09877629315866693, 0.23428926219223845, 0.26085907494496063, 0.3135006246904925, 0.3579974223098079, 0.37461411795037225, 0.5696814344295164, 0.6756840793468958, 0.808100578693311, 1.0388674604847294, 1.2521354708991697, 1.3621506754858623, 0.14408996926340298, 0.16352179053452065, 0.5853388178504086, 0.742427624379012, 0.4099597393682327, 1.688041209493319, 0.8101472368325819, -0.738362268392254, 1.066881990769625, -0.4427444509036382, -0.12395708117279325, -0.9142456426800266, 0.9376560968629695, -0.10432395051337526], [1.0, 0.49238996434703175, 0.3899103767764722, 0.09877629315866693, 0.23428926219223845, 0.26085907494496063, 0.3135006246904925, 0.3579974223098079, 0.37461411795037225, -0.17597157578446856, -0.2994471199872035, -0.5647460621799425, -0.6168338046386245, -0.6729546788530821, -0.7110139273644543, -0.5298789277921897, -0.6808461921463765, -0.840919766947842, -0.7523817893345492, -0.7496699340408973, -0.4134024772490895, -1.2343023850531398, -0.738362268392254, 1.066881990769625, -0.4427444509036382, -0.12395708117279325, -0.9142456426800266, 0.9376560968629695, -0.10432395051337526], [1.0, 0.41427313873763694, -0.1591766760275274, -0.9516628400423285, -0.7739847108054885, -0.7436685225582573, -0.7178645184956874, 0.3579974223098079, 0.37461411795037225, -0.8101237945307471, -0.7569441602929524, -0.7187083690567173, -0.48663746793489604, -0.5084136280877026, -0.608678777233576, 0.476779798651083, 0.903723692884687, 2.2772700997543094, -0.38795285085845244, -0.8828269645438409, -0.13651012521175393, 0.8101472368325819, 1.3543035843963733, -0.9372795448026199, -0.4427444509036382, -0.12395708117279325, 1.09376147939339, -1.0664535430550333, -0.10432395051337526], [1.0, -0.2106614661375214, 0.060458145094072456, -0.9516628400423285, -0.7739847108054885, -0.7436685225582573, -0.7178645184956874, 0.3579974223098079, -0.6553472566096027, -0.8610080983508006, -0.8546542846342006, -0.8569208783615464, -0.8323917388287391, -0.8355637898641257, -0.8087437413009795, -0.9035107929823123, -0.9220133129120904, -0.5974485459323445, -0.8844872795321344, -0.603908233174811, -0.7113731398221392, 0.8101472368325819, -0.738362268392254, 1.066881990769625, -0.4427444509036382, -0.12395708117279325, 1.09376147939339, -1.0664535430550333, -0.10432395051337526], [1.0, 0.7267404411752161, -0.04935926546672747, -0.9516628400423285, -0.7739847108054885, -0.7436685225582573, -0.7178645184956874, -0.6971084495139703, -0.6553472566096027, -0.8597793857633482, -0.8546745943669675, -0.8529137870065071, -0.84800780726632, -0.8383487939255708, -0.8208295683303597, -0.857987830097079, -0.85549421270089, -0.7854905783200787, -0.7543340872192426, -0.7535482941526336, -0.7762049131365327, -1.2343023850531398, -0.738362268392254, 1.066881990769625, -0.4427444509036382, -0.12395708117279325, 1.09376147939339, -1.0664535430550333, -0.10432395051337526], [1.0, -1.069946547840864, -1.0377159605139268, 0.09877629315866693, 0.23428926219223845, 0.26085907494496063, 1.8605483394697626, 0.3579974223098079, 0.37461411795037225, -0.33030177744337375, -0.30023919956511014, -0.2650070575046016, -0.2598884082377894, -0.20279079500245004, -0.1743268757208396, -0.5716798874226555, 0.05256227018222037, -0.9046931345088168, -0.5591042987499051, -0.5273106209680207, -0.16429517091792256, 0.8101472368325819, -0.738362268392254, 1.066881990769625, -0.4427444509036382, -0.12395708117279325, -0.9142456426800266, 0.9376560968629695, -0.10432395051337526], [1.0, 2.679661081410086, -0.598446318270727, -0.9516628400423285, -0.7739847108054885, -0.7436685225582573, -0.7178645184956874, 0.3579974223098079, 0.37461411795037225, 0.5228733358599003, 2.2973654664468373, 2.2769138432753517, 2.2520480936031815, 2.099679950138956, 2.1374755623053865, 2.1525401871244836, 2.2158483270507277, 2.2772700997543094, -0.7185419593331974, 1.1335970968830158, 0.5862204314900805, 0.8101472368325819, 1.3543035843963733, -0.9372795448026199, -0.4427444509036382, -0.12395708117279325, -0.9142456426800266, 0.9376560968629695, -0.10432395051337526], [1.0, -0.4450119429657058, -1.2573507816355267, -2.002101973243324, -1.7822586838032153, -1.7481961200614753, -1.7492296616818674, -1.7522143213377483, -1.6853086311695775, -0.8578680550717556, -0.8549589306257032, -0.8566851671053676, -0.8565299195770837, -0.8440191625551798, -0.8064792389733693, -0.9078054121224287, -0.9188996529022044, -0.9046931345088168, -0.574722681827452, -0.5751437290127674, -0.8669055221083934, -1.2343023850531398, -0.738362268392254, 1.066881990769625, -0.4427444509036382, -0.12395708117279325, -0.9142456426800266, 0.9376560968629695, -0.10432395051337526], [1.0, -0.6012455941844954, -1.3671681921963266, 0.09877629315866693, 0.23428926219223845, 0.26085907494496063, 0.3135006246904925, 0.3579974223098079, 0.37461411795037225, -0.6431944130068535, -0.6190004553406019, -0.6926301328049379, -0.6878670154926277, -0.6790766697629255, -0.6280415443269619, 0.21108602784921807, 0.729641792331971, -0.010673963093281504, 0.09491549262237578, 0.7331564153462511, 0.09119950224224868, 0.8101472368325819, -0.738362268392254, 1.066881990769625, -0.4427444509036382, -0.12395708117279325, -0.9142456426800266, 0.9376560968629695, -0.10432395051337526], [1.0, -1.069946547840864, -0.04935926546672747, 1.67443499296016, 1.7467002216888285, 1.7676504711997876, 1.8605483394697626, 1.940656230045475, 0.37461411795037225, -0.40033839492816187, -0.4361722409735438, -0.3507845264576606, -0.2847523732763364, -0.25344776076873565, -0.3313408517172719, -1.0011418014342908, 0.021991790085158055, -0.5116227054764532, -0.8844872795321344, -0.6242696237614263, -0.35272249237354886, 0.8101472368325819, -0.738362268392254, 1.066881990769625, -0.4427444509036382, -0.12395708117279325, 1.09376147939339, -1.0664535430550333, -0.10432395051337526], [1.0, 0.25803948751884737, -0.3788114971491272, -2.002101973243324, -1.7822586838032153, -1.7481961200614753, -1.7492296616818674, -1.7522143213377483, -1.6853086311695775, -0.8642261551274617, -0.8615799035076916, -0.8156714085302602, -0.8565299195770837, -0.8477826815571327, -0.7589501339399329, -1.0011418014342908, -0.37712281118204444, -0.9046931345088168, -0.8844872795321344, 0.02858766171417098, 2.2703694590851033, 0.8101472368325819, 1.3543035843963733, -0.9372795448026199, -0.4427444509036382, -0.12395708117279325, -0.9142456426800266, 0.9376560968629695, -0.10432395051337526], [1.0, 0.7267404411752161, -0.3788114971491272, 0.09877629315866693, 0.23428926219223845, 0.26085907494496063, 0.3135006246904925, 0.3579974223098079, 0.37461411795037225, 1.5234354495342528, 1.6366390852097434, 1.7742810177701231, 2.0397942338632222, 2.178161866393013, 2.2508438003217703, 0.6995273780517844, 0.729641792331971, 0.43633562261448616, 0.5797361339878974, 0.5864251244522307, 0.5734456978320719, -1.2343023850531398, 1.3543035843963733, -0.9372795448026199, -0.4427444509036382, -0.12395708117279325, -0.9142456426800266, 0.9376560968629695, -0.10432395051337526], [1.0, -0.2106614661375214, -0.708263728831527, -0.9516628400423285, -0.7739847108054885, -0.7436685225582573, 0.3135006246904925, 0.3579974223098079, -1.6853086311695775, -0.7998650195942395, -0.8351772509108049, -0.7945859652502676, -0.8426229560809473, -0.8477826815571327, -0.830701780724885, -0.6289414759575402, 0.06954587023614389, -0.9046931345088168, -0.8844872795321344, -0.8828269645438409, -0.8669055221083934, -1.2343023850531398, -0.738362268392254, 1.066881990769625, -0.4427444509036382, -0.12395708117279325, 1.09376147939339, -1.0664535430550333, -0.10432395051337526], [1.0, -0.9137128966220746, 1.7077193035060714, 0.09877629315866693, 0.23428926219223845, 0.26085907494496063, 0.3135006246904925, 0.3579974223098079, 0.37461411795037225, 0.1219814749855421, 0.1549222214724526, -0.06750245312280163, -0.3848871929278103, -0.35551439610169744, -0.35052551188601444, -0.5035385970661428, -0.4744954514912059, -0.5205628971906084, -0.3365423398948602, -0.6617604381748763, -0.6427089464103433, 0.8101472368325819, -0.738362268392254, 1.066881990769625, -0.4427444509036382, -0.12395708117279325, -0.9142456426800266, 0.9376560968629695, -0.10432395051337526], [1.0, 0.5705067899564266, -0.598446318270727, 0.09877629315866693, -0.7739847108054885, 0.26085907494496063, 0.3135006246904925, 0.3579974223098079, 0.37461411795037225, -0.17419676871370396, 0.4385070200957844, 0.2405293021108291, -0.26096537847486395, -0.36163638701154077, -0.5027560447634499, 2.1525401871244836, -0.5013861515765848, -0.3965922387543209, -0.700971278370957, -0.2063763217218484, 2.2703694590851033, 0.8101472368325819, -0.738362268392254, 1.066881990769625, -0.4427444509036382, -0.12395708117279325, -0.9142456426800266, 0.9376560968629695, -0.10432395051337526], [1.0, -1.148063373450259, -0.708263728831527, 0.09877629315866693, 0.23428926219223845, 0.26085907494496063, 0.3135006246904925, 0.3579974223098079, 0.37461411795037225, -0.5799449698146598, -0.530165684218461, -0.4878613360736283, -0.4386186427992465, -0.4027591046395458, -0.13761140539790137, -0.4285259160854439, -0.5854549718435061, -0.2750056314418081, -0.5591042987499051, -0.5596302885658225, -0.5475371806581795, -1.2343023850531398, -0.738362268392254, -0.9372795448026199, 2.2585639743778643, -0.12395708117279325, 1.09376147939339, -1.0664535430550333, -0.10432395051337526], [1.0, -1.148063373450259, -1.5868030133179263, 0.09877629315866693, 0.23428926219223845, 0.26085907494496063, 0.3135006246904925, 0.3579974223098079, 0.37461411795037225, -0.5000786516302522, -0.4859107765195253, -0.4397548115171413, -0.42698268175954984, -0.6132652674821096, -0.830701780724885, -0.5390407819577713, -0.473363211487611, -0.6066867440369716, -0.5591042987499051, -0.8828269645438409, -0.8669055221083934, -1.2343023850531398, -0.738362268392254, 1.066881990769625, -0.4427444509036382, -0.12395708117279325, -0.9142456426800266, 0.9376560968629695, -0.10432395051337526], [1.0, -1.069946547840864, -0.3788114971491272, 1.67443499296016, 1.7467002216888285, 1.7676504711997876, 1.8605483394697626, 1.940656230045475, 0.37461411795037225, -0.22638779861882594, -0.21380097690945588, -0.19422939576291934, -0.1306988045817611, -0.09811478649480092, -0.08311068645699098, -1.0011418014342908, -0.9687182130603801, -0.21927843642357306, -0.8844872795321344, -0.5609230752697346, -0.5475371806581795, -1.2343023850531398, -0.738362268392254, 1.066881990769625, -0.4427444509036382, -0.12395708117279325, -0.9142456426800266, 0.9376560968629695, -0.10432395051337526], [1.0, 1.507908697269164, 0.060458145094072456, 0.09877629315866693, 0.23428926219223845, 0.26085907494496063, 0.3135006246904925, 0.3579974223098079, 0.37461411795037225, -0.5413087851203224, -0.4885104223136803, -0.4304549310460877, 0.27445271612638855, -0.5236684251089516, -0.5158341818015582, -0.14221797341102044, -0.4025982112629297, 2.2772700997543094, -0.5376290220182779, -0.5596302885658225, -0.5475371806581795, 0.8101472368325819, -0.738362268392254, 1.066881990769625, -0.4427444509036382, -0.12395708117279325, 1.09376147939339, -1.0664535430550333, -0.10432395051337526], [1.0, -1.069946547840864, -0.708263728831527, 1.67443499296016, 1.7467002216888285, 1.7676504711997876, 0.3135006246904925, 0.3579974223098079, 0.37461411795037225, -0.3406775726263053, -0.3251186222044843, -0.2778426068183369, -0.1954809055814404, -0.12847383977722074, -0.08379767030918733, -0.9152494186319636, -0.5441282117122923, -0.3682816316594956, -0.4940277025934592, -0.462671285772417, -0.48366351236813665, 0.8101472368325819, -0.738362268392254, 1.066881990769625, -0.4427444509036382, -0.12395708117279325, 1.09376147939339, -1.0664535430550333, -0.10432395051337526], [1.0, 0.3361563131282421, -1.2573507816355267, 0.09877629315866693, 0.23428926219223845, 0.26085907494496063, 0.3135006246904925, 0.3579974223098079, 0.37461411795037225, 1.2517144373376314, 1.3937346813183844, 1.5119986745311917, 1.4184058194676716, 1.523836452713487, 1.6316773401642302, 0.6594442660773652, 0.07860379026490309, 0.13981926409500028, 0.2218148551274452, 0.33530130721731044, 0.1643348524343477, 0.8101472368325819, -0.738362268392254, 1.066881990769625, -0.4427444509036382, -0.12395708117279325, -0.9142456426800266, 0.9376560968629695, -0.10432395051337526], [1.0, 1.0392077436127953, -0.1591766760275274, 0.09877629315866693, 0.23428926219223845, 0.26085907494496063, 0.3135006246904925, 0.3579974223098079, 0.37461411795037225, 2.302914624730187, 2.2973654664468373, 2.2769138432753517, 2.2520480936031815, 2.234081486230363, 2.2508438003217703, 1.927788452125061, 1.7155397754622308, 1.5306150884271013, 1.7449325881690603, 1.6080498172187467, 1.681973211005765, -1.2343023850531398, 1.3543035843963733, -0.9372795448026199, -0.4427444509036382, -0.12395708117279325, -0.9142456426800266, 0.9376560968629695, -0.10432395051337526], [1.0, -1.069946547840864, -1.0377159605139268, 0.09877629315866693, 0.23428926219223845, 0.26085907494496063, 0.3135006246904925, 0.3579974223098079, -0.6553472566096027, -0.3216812859568028, -0.30115313753961775, -0.22367187448925038, -0.1819719528250924, -0.12614045799600995, -0.5659840030118917, -0.14221797341102044, -0.23417751072818824, -0.5470854659426027, -0.5525966391342605, 2.2521807924429376, 2.2703694590851033, 0.8101472368325819, -0.738362268392254, -0.9372795448026199, 2.2585639743778643, -0.12395708117279325, -0.9142456426800266, 0.9376560968629695, -0.10432395051337526], [1.0, 0.10180583630005777, 0.8291800190196719, 0.09877629315866693, 0.23428926219223845, 0.26085907494496063, 0.3135006246904925, 0.3579974223098079, 0.37461411795037225, 2.302914624730187, 2.2973654664468373, 2.2769138432753517, 0.8169413544580001, 0.9826675103593443, 1.0629819297775411, 0.7450503409370177, 0.2843884109182763, -0.3238786794791907, -0.23144363710220017, -0.22673771230846357, -0.22816883920796538, -1.2343023850531398, -0.738362268392254, 1.066881990769625, -0.4427444509036382, -0.12395708117279325, 1.09376147939339, -1.0664535430550333, -0.10432395051337526], [1.0, 0.25803948751884737, 2.037171535188471, -2.002101973243324, -1.7822586838032153, -1.7481961200614753, -1.7492296616818674, -1.7522143213377483, -1.6853086311695775, -0.8642261551274617, -0.8615799035076916, -0.860456547204228, -0.8565299195770837, -0.8477826815571327, -0.830701780724885, -1.0011418014342908, -0.9687182130603801, -0.9046931345088168, -0.8844872795321344, -0.8828269645438409, -0.8669055221083934, 0.8101472368325819, 1.3543035843963733, -0.9372795448026199, -0.4427444509036382, -0.12395708117279325, 1.09376147939339, -1.0664535430550333, -0.10432395051337526], [1.0, -0.9137128966220746, 1.0488148401412718, 0.09877629315866693, 0.23428926219223845, 0.26085907494496063, 0.3135006246904925, 0.3579974223098079, 0.37461411795037225, 0.09286293700036007, -0.6050679786625524, -0.6629947994144606, -0.6407846862153038, -0.6467856767261698, -0.687834583314422, -0.42222714134660655, -0.4025982112629297, -0.9046931345088168, -0.5591042987499051, -0.2674604934816939, -0.3354766019352373, 0.8101472368325819, -0.738362268392254, 1.066881990769625, -0.4427444509036382, -0.12395708117279325, 1.09376147939339, -1.0664535430550333, -0.10432395051337526], [1.0, -0.5231287685751006, -0.818081139392327, 0.09877629315866693, 0.23428926219223845, 0.26085907494496063, 0.3135006246904925, 0.3579974223098079, -1.6853086311695775, 2.302914624730187, 2.2973654664468373, 0.5249470751345494, -0.6133219451699031, -0.7533936249881548, -0.7942153050193456, 0.43125683576584967, -0.11444313034802749, -0.48748418784823366, 0.3474126857093857, -0.30947606135883626, 2.2703694590851033, -1.2343023850531398, -0.738362268392254, 1.066881990769625, -0.4427444509036382, -0.12395708117279325, -0.9142456426800266, 0.9376560968629695, -0.10432395051337526], [1.0, -0.8355960710126797, -0.708263728831527, 0.09877629315866693, 0.23428926219223845, 0.26085907494496063, 0.3135006246904925, 0.3579974223098079, 0.37461411795037225, -0.09280918732578392, -0.03182577131860487, 0.015317910980014558, 0.07301245700053362, 0.12069620827873886, 0.19290415904767563, -0.437401462308351, -0.4965741315613065, -0.425200852239618, -0.394460510474097, -0.11394207239213514, -0.8669055221083934, 0.8101472368325819, 1.3543035843963733, -0.9372795448026199, -0.4427444509036382, -0.12395708117279325, -0.9142456426800266, 0.9376560968629695, -0.10432395051337526], [1.0, 0.6486236155658214, 0.609545197898072, -0.9516628400423285, 1.7467002216888285, -0.7436685225582573, -0.7178645184956874, -0.6971084495139703, -1.6853086311695775, -0.42690199086641906, -0.5306124983393314, -0.16122981989789037, 0.15954467430982697, -0.7894983172802226, 0.3624873951546634, -0.9839633248738253, 2.2158483270507277, 2.2772700997543094, -0.12862261517501572, 2.2521807924429376, 0.8832329890387796, 0.8101472368325819, 1.3543035843963733, -0.9372795448026199, -0.4427444509036382, -0.12395708117279325, 1.09376147939339, -1.0664535430550333, -0.10432395051337526], [1.0, -0.4450119429657058, -1.0377159605139268, 1.1492154263596623, 1.7467002216888285, 1.7676504711997876, 1.8605483394697626, 1.940656230045475, 1.9195561797903347, 0.7700786064306854, 0.8995379539029628, 1.1417177193703472, 1.2757540878482114, 1.3780628167045126, 1.5690600342288519, 0.4876595004727111, 1.5788217950281465, -0.9046931345088168, -0.8844872795321344, 1.399587961212925, 0.22661167901713944, -1.2343023850531398, -0.738362268392254, 1.066881990769625, -0.4427444509036382, -0.12395708117279325, -0.9142456426800266, 0.9376560968629695, -0.10432395051337526], [1.0, -0.2106614661375214, -0.598446318270727, -0.9516628400423285, -0.7739847108054885, -0.7436685225582573, -0.7178645184956874, -0.6971084495139703, -0.6553472566096027, -0.772228738063762, -0.7533493375932224, -0.7437794753957327, -0.7317886712481023, -0.6911450206958543, -0.29561769140306177, 0.5245932250777117, 0.5725434918331785, 0.6830849139251739, 1.1468786694913229, 2.2521807924429376, 2.2703694590851033, 0.8101472368325819, 1.3543035843963733, -0.9372795448026199, -0.4427444509036382, -0.12395708117279325, -0.9142456426800266, 0.9376560968629695, -0.10432395051337526], [1.0, -0.7574792454032849, -0.818081139392327, -0.9516628400423285, -0.7739847108054885, -0.7436685225582573, -1.7492296616818674, -1.7522143213377483, -1.6853086311695775, -0.7737695046416786, -0.8550198598240036, -0.860456547204228, -0.8565299195770837, -0.8477826815571327, -0.830701780724885, -0.9086643359504519, -0.9687182130603801, -0.9046931345088168, -0.8844872795321344, -0.8828269645438409, -0.8669055221083934, -1.2343023850531398, 1.3543035843963733, -0.9372795448026199, -0.4427444509036382, -0.12395708117279325, -0.9142456426800266, 0.9376560968629695, -0.10432395051337526], [1.0, -0.366895117356311, -0.9278985499531268, 0.09877629315866693, 0.23428926219223845, 0.26085907494496063, 0.3135006246904925, 0.3579974223098079, -0.6553472566096027, 0.25622320100832036, -0.08465138624514544, -0.3672414577981426, -0.5184549147215112, -0.7281027772950315, -0.7901188457525451, -0.5021070573527707, -0.5044998115864708, -0.6037066801322533, -0.8535758963578225, -0.3673282663589016, -0.8669055221083934, 0.8101472368325819, -0.738362268392254, 1.066881990769625, -0.4427444509036382, -0.12395708117279325, -0.9142456426800266, 0.9376560968629695, -0.10432395051337526], [1.0, -0.9137128966220746, -0.598446318270727, 1.1492154263596623, 1.7467002216888285, 0.26085907494496063, 0.3135006246904925, 0.3579974223098079, 0.37461411795037225, 0.09748523673410965, 0.11755231318147429, 0.18252290479483338, -0.07759948941469474, -0.6548646975170286, -0.43558429032647356, -1.0011418014342908, -0.3148496109843249, -0.3384809926123111, -0.7543340872192426, 1.702746443280306, -0.5475371806581795, 0.8101472368325819, -0.738362268392254, 1.066881990769625, -0.4427444509036382, -0.12395708117279325, -0.9142456426800266, 0.9376560968629695, -0.10432395051337526], [1.0, -0.2887782917469162, 0.3899103767764722, 0.09877629315866693, 0.23428926219223845, -0.7436685225582573, 0.3135006246904925, -0.6971084495139703, -0.6553472566096027, -0.8400419708664933, -0.8615799035076916, -0.8360711463377326, -0.8298866124077179, -0.7856093476448713, -0.830701780724885, -1.0011418014342908, -0.6465959320376309, -0.9046931345088168, -0.07102982757656115, -0.8828269645438409, -0.8669055221083934, -1.2343023850531398, -0.738362268392254, 1.066881990769625, -0.4427444509036382, -0.12395708117279325, 1.09376147939339, -1.0664535430550333, -0.10432395051337526], [1.0, -0.6012455941844954, 1.927354124627671, -0.9516628400423285, 0.23428926219223845, 0.26085907494496063, 0.3135006246904925, 0.3579974223098079, 0.37461411795037225, -0.3808935306473672, -0.3273933122743699, -0.27192839711785116, -0.2023173253472179, -0.19162568862998985, -0.17066296184245908, -0.14221797341102044, -0.11953821036420453, -0.3086803535651266, -0.5591042987499051, -0.5803148758284157, -0.5443434972436773, -1.2343023850531398, -0.738362268392254, 1.066881990769625, -0.4427444509036382, -0.12395708117279325, 1.09376147939339, -1.0664535430550333, -0.10432395051337526], [1.0, -0.2106614661375214, -0.9278985499531268, 0.09877629315866693, 0.23428926219223845, 0.26085907494496063, 0.3135006246904925, 0.3579974223098079, 0.37461411795037225, 1.9057796013504007, 2.0535978989128876, 2.179125814405183, 2.221989503100484, 1.519771852191378, 1.3539832007986392, 1.0030137972866733, 0.5431052517397111, 0.28733242737856357, 0.25435315320566815, 0.08676306339021429, 2.2703694590851033, 0.8101472368325819, 1.3543035843963733, -0.9372795448026199, -0.4427444509036382, -0.12395708117279325, -0.9142456426800266, 0.9376560968629695, -0.10432395051337526], [1.0, -0.8355960710126797, -1.4769856027571264, 1.1492154263596623, 1.7467002216888285, 1.7676504711997876, 0.3135006246904925, 0.3579974223098079, 0.37461411795037225, 0.15240673905579258, 0.208885181433936, 0.166794535518904, -0.16935267113415378, -0.14204759831093075, -0.12308296911626747, -0.41993667780521116, -0.9687182130603801, -0.6025146545703659, -0.5587789157691229, -0.5531663550462621, -0.502186876172249, 0.8101472368325819, -0.738362268392254, 1.066881990769625, -0.4427444509036382, -0.12395708117279325, -0.9142456426800266, 0.9376560968629695, -0.10432395051337526], [1.0, 2.796836319824178, -0.818081139392327, 0.09877629315866693, 0.23428926219223845, 0.26085907494496063, 0.3135006246904925, 0.3579974223098079, 0.37461411795037225, 0.8640068575603818, 0.9893882116634454, 1.2676732433538798, 1.374484163712197, 0.7525157783265864, 0.21539651924551168, 0.4303979119378264, 1.8618817959268716, 0.43633562261448616, 1.0678106051612413, -0.462671285772417, 0.09119950224224868, -1.2343023850531398, 1.3543035843963733, -0.9372795448026199, -0.4427444509036382, -0.12395708117279325, -0.9142456426800266, 0.9376560968629695, -0.10432395051337526], [1.0, -0.5231287685751006, -0.818081139392327, 1.67443499296016, 1.7467002216888285, 1.7676504711997876, 1.8605483394697626, 0.3579974223098079, -0.6553472566096027, 1.2995952214994677, 1.2998427867373012, 1.3092869942174423, 0.28777436971107145, -0.13351695523983756, -0.73210687601152, -1.0011418014342908, -0.9687182130603801, -0.9046931345088168, -0.3628983613382208, 0.3695601548709804, -0.8493402633286318, 0.8101472368325819, -0.738362268392254, -0.9372795448026199, 2.2585639743778643, -0.12395708117279325, 1.09376147939339, -1.0664535430550333, -0.10432395051337526], [1.0, -0.6793624197938902, -1.1475333710747266, 0.09877629315866693, 0.23428926219223845, 0.26085907494496063, 0.3135006246904925, 0.3579974223098079, 0.37461411795037225, 0.867400444706679, 0.8929982199520415, 0.9581843639911439, 1.058908471852899, 0.2836314909366184, 0.13924308703722746, -0.08495638487613574, 0.16352179053452065, -0.010673963093281504, -0.3964128083587904, -0.3980319505768133, -0.45172667822311524, 0.8101472368325819, -0.738362268392254, -0.9372795448026199, 2.2585639743778643, -0.12395708117279325, -0.9142456426800266, 0.9376560968629695, -0.10432395051337526], [1.0, 2.6015442558006914, -0.2689940865883273, 0.09877629315866693, 0.23428926219223845, 0.26085907494496063, 0.3135006246904925, 0.3579974223098079, 0.37461411795037225, 0.07595351139208624, 0.0613959020811726, 0.07970994050885354, -0.060438202810876564, -0.017826381119806386, -0.11173501363183888, -0.3998951218180015, -0.45921021144267476, -0.45768354880104917, -0.3964128083587904, -0.2364336125878041, 2.2703694590851033, 0.8101472368325819, 1.3543035843963733, -0.9372795448026199, -0.4427444509036382, -0.12395708117279325, -0.9142456426800266, 0.9376560968629695, -0.10432395051337526], [1.0, 0.9610909180034005, -0.4886289077099272, -0.9516628400423285, -0.7739847108054885, -0.7436685225582573, 0.3135006246904925, 0.3579974223098079, 0.37461411795037225, -0.8414072070747739, -0.8615799035076916, 0.9242847996934324, 1.08410021044186, 1.231912828795343, -0.7807300664391951, -1.0011418014342908, 2.2158483270507277, -0.9046931345088168, -0.8844872795321344, -0.8828269645438409, 1.6723921607622587, 0.8101472368325819, 1.3543035843963733, -0.9372795448026199, -0.4427444509036382, -0.12395708117279325, -0.9142456426800266, 0.9376560968629695, -0.10432395051337526], [1.0, -0.9137128966220746, -0.9278985499531268, 1.67443499296016, 1.7467002216888285, -1.7481961200614753, -0.7178645184956874, -0.6971084495139703, -0.6553472566096027, -0.827481797750313, -0.8500033558305952, -0.8565994539213025, -0.7939719962409278, -0.7699781987234271, -0.6916511602710684, -0.8379462741098693, -0.9687182130603801, -0.1084200591680467, 0.12452534387355864, 0.8834428696760297, -0.8669055221083934, 0.8101472368325819, -0.738362268392254, -0.9372795448026199, 2.2585639743778643, -0.12395708117279325, 1.09376147939339, -1.0664535430550333, -0.10432395051337526], [1.0, 0.49238996434703175, -0.708263728831527, 0.09877629315866693, 0.23428926219223845, 0.26085907494496063, 0.3135006246904925, 0.3579974223098079, 0.37461411795037225, 1.5431923678055117, 1.7354865545859346, 1.9216219811778759, 2.2520480936031815, 2.234081486230363, 0.8396612901209722, 1.0030137972866733, 0.729641792331971, 0.8833452083222538, 2.2356507960612597, 2.2521807924429376, 0.1052517092660581, 0.8101472368325819, -0.738362268392254, -0.9372795448026199, -0.4427444509036382, 8.067039472095484, 1.09376147939339, -1.0664535430550333, -0.10432395051337526], [1.0, -0.054427814918731825, 0.2800929662156723, 0.09877629315866693, 0.23428926219223845, 0.26085907494496063, 0.3135006246904925, 0.3579974223098079, 0.37461411795037225, 1.8912495874194155, 2.0718157292047397, 2.2769138432753517, 2.2520480936031815, 2.234081486230363, 2.2508438003217703, 0.5735518832750381, 1.8618817959268716, 0.8833452083222538, 1.1003489032394642, 1.0886727589220713, 1.0493045265928909, 0.8101472368325819, -0.738362268392254, -0.9372795448026199, -0.4427444509036382, 8.067039472095484, 1.09376147939339, -1.0664535430550333, -0.10432395051337526], [1.0, 0.25803948751884737, 1.1586322507020717, 1.1492154263596623, 1.7467002216888285, 1.7676504711997876, 0.3135006246904925, 0.3579974223098079, 1.9195561797903347, -0.26385378084892286, -0.19101345674506584, -0.20875778046193857, -0.09370721817789654, 0.0235221476483158, 0.0861926673398427, -0.12561211273590386, -0.9687182130603801, -0.010673963093281504, 0.09166166281455349, -0.23578721923584808, -0.8669055221083934, 0.8101472368325819, -0.738362268392254, 1.066881990769625, -0.4427444509036382, -0.12395708117279325, 1.09376147939339, -1.0664535430550333, -0.10432395051337526], [1.0, -0.9137128966220746, -1.1475333710747266, 0.09877629315866693, 0.23428926219223845, 0.26085907494496063, 0.3135006246904925, 0.3579974223098079, 0.37461411795037225, 0.053095556590590356, 0.12226417118338025, 0.19323705280295966, 0.2974671018447423, 0.3793754143462994, 0.41375674560561315, -0.28537194474823213, -0.34598621108318467, -0.3980822707066801, -0.5591042987499051, -0.8828269645438409, -0.8669055221083934, -1.2343023850531398, -0.738362268392254, 1.066881990769625, -0.4427444509036382, -0.12395708117279325, -0.9142456426800266, 0.9376560968629695, -0.10432395051337526], [1.0, -0.9137128966220746, 1.3782670718236716, 0.09877629315866693, 0.23428926219223845, 0.26085907494496063, 0.3135006246904925, 0.3579974223098079, 0.37461411795037225, 0.07070710367740843, -0.17478598026436382, 0.4320982684961271, -0.007853960365889319, -0.8282123827469777, -0.830701780724885, -0.4285259160854439, -0.4025982112629297, 0.07664190931496911, -0.8844872795321344, -0.8828269645438409, -0.8669055221083934, 0.8101472368325819, -0.738362268392254, -0.9372795448026199, -0.4427444509036382, 8.067039472095484, -0.9142456426800266, 0.9376560968629695, -0.10432395051337526], [1.0, -0.8355960710126797, 0.49972778733727213, 0.09877629315866693, 0.23428926219223845, 0.26085907494496063, 0.3135006246904925, 0.3579974223098079, 0.37461411795037225, 0.2693684753566209, 0.22710301172578792, 0.31490691758324174, 0.4485238837926754, -0.16199424902128096, -0.1280699630062854, -0.4285259160854439, -0.2610682108135671, -0.15967715832920404, -0.5591042987499051, -0.5273106209680207, -0.515600346513158, -1.2343023850531398, -0.738362268392254, 1.066881990769625, 